<?xml version="1.0"?>
<MethodSetup Method="BDT::Shrinkage 1">
  <GeneralInfo>
    <Info name="TMVA Release" value="4.2.1 [262657]"/>
    <Info name="ROOT Release" value="6.14/07 [396807]"/>
    <Info name="Creator" value="mchristos"/>
    <Info name="Date" value="Tue Nov 13 14:24:15 2018"/>
    <Info name="Host" value="Linux cmsbuild02.cern.ch 2.6.32-754.3.5.el6.x86_64 #1 SMP Wed Aug 15 08:57:36 CEST 2018 x86_64 x86_64 x86_64 GNU/Linux"/>
    <Info name="Dir" value="/cms/mchristos/ANN/FireMVA/2017"/>
    <Info name="Training events" value="121940"/>
    <Info name="TrainingTime" value="2.56138759e+02"/>
    <Info name="AnalysisType" value="Classification"/>
  </GeneralInfo>
  <Options>
    <Option name="V" modified="Yes">False</Option>
    <Option name="VerbosityLevel" modified="No">Default</Option>
    <Option name="VarTransform" modified="No">None</Option>
    <Option name="H" modified="Yes">False</Option>
    <Option name="CreateMVAPdfs" modified="No">False</Option>
    <Option name="IgnoreNegWeightsInTraining" modified="No">False</Option>
    <Option name="NTrees" modified="Yes">450</Option>
    <Option name="MaxDepth" modified="Yes">2</Option>
    <Option name="MinNodeSize" modified="Yes">1.0%</Option>
    <Option name="nCuts" modified="Yes">20</Option>
    <Option name="BoostType" modified="Yes">Grad</Option>
    <Option name="AdaBoostR2Loss" modified="No">quadratic</Option>
    <Option name="UseBaggedBoost" modified="No">False</Option>
    <Option name="Shrinkage" modified="Yes">1.000000e+00</Option>
    <Option name="AdaBoostBeta" modified="No">5.000000e-01</Option>
    <Option name="UseRandomisedTrees" modified="No">False</Option>
    <Option name="UseNvars" modified="No">5</Option>
    <Option name="UsePoissonNvars" modified="No">True</Option>
    <Option name="BaggedSampleFraction" modified="No">6.000000e-01</Option>
    <Option name="UseYesNoLeaf" modified="No">True</Option>
    <Option name="NegWeightTreatment" modified="No">pray</Option>
    <Option name="Css" modified="No">1.000000e+00</Option>
    <Option name="Cts_sb" modified="No">1.000000e+00</Option>
    <Option name="Ctb_ss" modified="No">1.000000e+00</Option>
    <Option name="Cbb" modified="No">1.000000e+00</Option>
    <Option name="NodePurityLimit" modified="No">5.000000e-01</Option>
    <Option name="SeparationType" modified="No">giniindex</Option>
    <Option name="RegressionLossFunctionBDTG" modified="No">huber</Option>
    <Option name="HuberQuantile" modified="No">7.000000e-01</Option>
    <Option name="DoBoostMonitor" modified="No">False</Option>
    <Option name="UseFisherCuts" modified="No">False</Option>
    <Option name="MinLinCorrForFisher" modified="No">8.000000e-01</Option>
    <Option name="UseExclusiveVars" modified="No">False</Option>
    <Option name="DoPreselection" modified="No">False</Option>
    <Option name="SigToBkgFraction" modified="No">1.000000e+00</Option>
    <Option name="PruneMethod" modified="No">nopruning</Option>
    <Option name="PruneStrength" modified="No">0.000000e+00</Option>
    <Option name="PruningValFraction" modified="No">5.000000e-01</Option>
    <Option name="SkipNormalization" modified="No">False</Option>
    <Option name="nEventsMin" modified="No">0</Option>
    <Option name="UseBaggedGrad" modified="No">False</Option>
    <Option name="GradBaggingFraction" modified="No">6.000000e-01</Option>
    <Option name="UseNTrainEvents" modified="No">0</Option>
    <Option name="NNodesMax" modified="No">0</Option>
  </Options>
  <Variables NVar="28">
    <Variable VarIndex="0" Expression="ElectronPt" Label="ElectronPt" Title="ElectronPt" Unit="" Internal="ElectronPt" Type="F" Min="1.00004511e+01" Max="1.10892688e+03"/>
    <Variable VarIndex="1" Expression="abs(ElectronEta)" Label="abs(ElectronEta)" Title="abs(ElectronEta)" Unit="" Internal="abs_ElectronEta_" Type="F" Min="1.04834671e-05" Max="2.49990344e+00"/>
    <Variable VarIndex="2" Expression="ElectronDXY" Label="ElectronDXY" Title="ElectronDXY" Unit="" Internal="ElectronDXY" Type="F" Min="5.41154925e-08" Max="9.98792574e-02"/>
    <Variable VarIndex="3" Expression="ElectronDZ" Label="ElectronDZ" Title="ElectronDZ" Unit="" Internal="ElectronDZ" Type="F" Min="3.24609708e-08" Max="1.99958593e-01"/>
    <Variable VarIndex="4" Expression="ElectronSIP3D" Label="ElectronSIP3D" Title="ElectronSIP3D" Unit="" Internal="ElectronSIP3D" Type="F" Min="3.96113377e-03" Max="8.24355927e+01"/>
    <Variable VarIndex="5" Expression="ElectronPtRatio" Label="ElectronPtRatio" Title="ElectronPtRatio" Unit="" Internal="ElectronPtRatio" Type="F" Min="-1.00000000e+00" Max="2.16602397e+00"/>
    <Variable VarIndex="6" Expression="ElectronPtRel" Label="ElectronPtRel" Title="ElectronPtRel" Unit="" Internal="ElectronPtRel" Type="F" Min="-1.00000000e+00" Max="2.62776886e+02"/>
    <Variable VarIndex="7" Expression="ElectronJetLRM" Label="ElectronJetLRM" Title="ElectronJetLRM" Unit="" Internal="ElectronJetLRM" Type="F" Min="-1.00000000e+00" Max="3.33931118e-01"/>
    <Variable VarIndex="8" Expression="ElectronJetFD" Label="ElectronJetFD" Title="ElectronJetFD" Unit="" Internal="ElectronJetFD" Type="F" Min="-1.00000000e+00" Max="1.00000000e+00"/>
    <Variable VarIndex="9" Expression="ElectronJetInOutRatio" Label="ElectronJetInOutRatio" Title="ElectronJetInOutRatio" Unit="" Internal="ElectronJetInOutRatio" Type="F" Min="-9.99900000e+03" Max="1.00000000e+00"/>
    <Variable VarIndex="10" Expression="ElectronJetZest" Label="ElectronJetZest" Title="ElectronJetZest" Unit="" Internal="ElectronJetZest" Type="F" Min="-1.00000000e+00" Max="1.00000000e+00"/>
    <Variable VarIndex="11" Expression="ElectronJetNoOfConst" Label="ElectronJetNoOfConst" Title="ElectronJetNoOfConst" Unit="" Internal="ElectronJetNoOfConst" Type="F" Min="0.00000000e+00" Max="7.30000000e+01"/>
    <Variable VarIndex="12" Expression="ElectronJetCSV" Label="ElectronJetCSV" Title="ElectronJetCSV" Unit="" Internal="ElectronJetCSV" Type="F" Min="0.00000000e+00" Max="9.99581456e-01"/>
    <Variable VarIndex="13" Expression="ElectronRelPFIsoPUCorr" Label="ElectronRelPFIsoPUCorr" Title="ElectronRelPFIsoPUCorr" Unit="" Internal="ElectronRelPFIsoPUCorr" Type="F" Min="0.00000000e+00" Max="1.29386985e+00"/>
    <Variable VarIndex="14" Expression="ElectronRelTrkIso" Label="ElectronRelTrkIso" Title="ElectronRelTrkIso" Unit="" Internal="ElectronRelTrkIso" Type="F" Min="0.00000000e+00" Max="6.15004082e+01"/>
    <Variable VarIndex="15" Expression="ElectronPFChargedHadronIso" Label="ElectronPFChargedHadronIso" Title="ElectronPFChargedHadronIso" Unit="" Internal="ElectronPFChargedHadronIso" Type="F" Min="0.00000000e+00" Max="9.24835739e+01"/>
    <Variable VarIndex="16" Expression="ElectronPFNeutralHadronIso" Label="ElectronPFNeutralHadronIso" Title="ElectronPFNeutralHadronIso" Unit="" Internal="ElectronPFNeutralHadronIso" Type="F" Min="0.00000000e+00" Max="2.78033733e+01"/>
    <Variable VarIndex="17" Expression="ElectronPFPhotonIso" Label="ElectronPFPhotonIso" Title="ElectronPFPhotonIso" Unit="" Internal="ElectronPFPhotonIso" Type="F" Min="0.00000000e+00" Max="9.60215836e+01"/>
    <Variable VarIndex="18" Expression="ElectronJetMuonEnergyFraction" Label="ElectronJetMuonEnergyFraction" Title="ElectronJetMuonEnergyFraction" Unit="" Internal="ElectronJetMuonEnergyFraction" Type="F" Min="0.00000000e+00" Max="8.01240444e-01"/>
    <Variable VarIndex="19" Expression="ElectronJetElectronEnergyFraction" Label="ElectronJetElectronEnergyFraction" Title="ElectronJetElectronEnergyFraction" Unit="" Internal="ElectronJetElectronEnergyFraction" Type="F" Min="0.00000000e+00" Max="1.00000012e+00"/>
    <Variable VarIndex="20" Expression="ElectronMissingHits" Label="ElectronMissingHits" Title="ElectronMissingHits" Unit="" Internal="ElectronMissingHits" Type="F" Min="0.00000000e+00" Max="1.00000000e+00"/>
    <Variable VarIndex="21" Expression="ElectronPassConversionVeto" Label="ElectronPassConversionVeto" Title="ElectronPassConversionVeto" Unit="" Internal="ElectronPassConversionVeto" Type="F" Min="1.00000000e+00" Max="1.00000000e+00"/>
    <Variable VarIndex="22" Expression="ElectronEInverseMinusPInverse" Label="ElectronEInverseMinusPInverse" Title="ElectronEInverseMinusPInverse" Unit="" Internal="ElectronEInverseMinusPInverse" Type="F" Min="1.57467950e-09" Max="1.92345530e-01"/>
    <Variable VarIndex="23" Expression="ElectronHoE" Label="ElectronHoE" Title="ElectronHoE" Unit="" Internal="ElectronHoE" Type="F" Min="0.00000000e+00" Max="1.35548043e+00"/>
    <Variable VarIndex="24" Expression="ElectronDeltaPhiTrkSC" Label="ElectronDeltaPhiTrkSC" Title="ElectronDeltaPhiTrkSC" Unit="" Internal="ElectronDeltaPhiTrkSC" Type="F" Min="-1.68498814e-01" Max="1.68645859e-01"/>
    <Variable VarIndex="25" Expression="ElectronDeltaEtaTrkSeedSC" Label="ElectronDeltaEtaTrkSeedSC" Title="ElectronDeltaEtaTrkSeedSC" Unit="" Internal="ElectronDeltaEtaTrkSeedSC" Type="F" Min="-6.73980266e-03" Max="6.73961639e-03"/>
    <Variable VarIndex="26" Expression="ElectronFull5x5SigmaIEtaIEta" Label="ElectronFull5x5SigmaIEtaIEta" Title="ElectronFull5x5SigmaIEtaIEta" Unit="" Internal="ElectronFull5x5SigmaIEtaIEta" Type="F" Min="0.00000000e+00" Max="4.24991250e-02"/>
    <Variable VarIndex="27" Expression="ElectronPt" Label="ElectronPt" Title="ElectronPt" Unit="" Internal="ElectronPt" Type="F" Min="1.00004511e+01" Max="1.10892688e+03"/>
  </Variables>
  <Spectators NSpec="0"/>
  <Classes NClass="2">
    <Class Name="Background" Index="0"/>
    <Class Name="Signal" Index="1"/>
  </Classes>
  <Transformations NTransformations="0"/>
  <MVAPdfs/>
  <Weights NTrees="450" AnalysisType="1">
    <BinaryTree type="DecisionTree" boostWeight="1.0000000000000000e+00" itree="0">
      <Node pos="s" depth="0" NCoef="0" IVar="13" Cut="1.2322570383548737e-01" cType="1" res="1.5833415358852817e-15" rms="5.0000000000000000e-01" purity="5.0000000000000000e-01" nType="0">
        <Node pos="l" depth="1" NCoef="0" IVar="19" Cut="2.8571432828903198e-01" cType="1" res="3.3280280232429504e-01" rms="3.7315183877944946e-01" purity="8.3280277252197266e-01" nType="0">
          <Node pos="l" depth="2" NCoef="0" IVar="-1" Cut="0.0000000000000000e+00" cType="1" res="-5.8933854103088379e-01" rms="4.0394309163093567e-01" purity="2.0533074438571930e-01" nType="-99"/>
          <Node pos="r" depth="2" NCoef="0" IVar="-1" Cut="0.0000000000000000e+00" cType="1" res="7.7257764339447021e-01" rms="3.1746014952659607e-01" purity="8.8628882169723511e-01" nType="-99"/>
        </Node>
        <Node pos="r" depth="1" NCoef="0" IVar="15" Cut="4.4039797782897949e+00" cType="1" res="-3.7318325042724609e-01" rms="3.3276757597923279e-01" purity="1.2681674957275391e-01" nType="0">
          <Node pos="l" depth="2" NCoef="0" IVar="-1" Cut="0.0000000000000000e+00" cType="1" res="-4.4658225774765015e-01" rms="4.4737127423286438e-01" purity="2.7670887112617493e-01" nType="-99"/>
          <Node pos="r" depth="2" NCoef="0" IVar="-1" Cut="0.0000000000000000e+00" cType="1" res="-9.4218003749847412e-01" rms="1.6755352914333344e-01" purity="2.8909971937537193e-02" nType="-99"/>
        </Node>
      </Node>
    </BinaryTree>
    <BinaryTree type="DecisionTree" boostWeight="1.0000000000000000e+00" itree="1">
      <Node pos="s" depth="0" NCoef="0" IVar="19" Cut="5.7142865657806396e-01" cType="1" res="-2.9328600503504276e-03" rms="3.2574519515037537e-01" purity="5.0000000000000000e-01" nType="0">
        <Node pos="l" depth="1" NCoef="0" IVar="19" Cut="1.3604986667633057e-01" cType="1" res="-1.0359386354684830e-01" rms="2.9199841618537903e-01" purity="1.4733411371707916e-01" nType="0">
          <Node pos="l" depth="2" NCoef="0" IVar="-1" Cut="0.0000000000000000e+00" cType="1" res="-4.8319575190544128e-01" rms="2.0598922669887543e-01" purity="4.4040180742740631e-02" nType="-99"/>
          <Node pos="r" depth="2" NCoef="0" IVar="-1" Cut="0.0000000000000000e+00" cType="1" res="-1.9688703119754791e-01" rms="3.6279317736625671e-01" purity="2.6792311668395996e-01" nType="-99"/>
        </Node>
        <Node pos="r" depth="1" NCoef="0" IVar="12" Cut="6.1869269609451294e-01" cType="1" res="7.6614961028099060e-02" rms="3.2901224493980408e-01" purity="7.7869582176208496e-01" nType="0">
          <Node pos="l" depth="2" NCoef="0" IVar="-1" Cut="0.0000000000000000e+00" cType="1" res="3.4807872772216797e-01" rms="3.0764088034629822e-01" purity="8.2203185558319092e-01" nType="-99"/>
          <Node pos="r" depth="2" NCoef="0" IVar="-1" Cut="0.0000000000000000e+00" cType="1" res="-5.8405524492263794e-01" rms="4.0331807732582092e-01" purity="3.7919735908508301e-01" nType="-99"/>
        </Node>
      </Node>
    </BinaryTree>
    <BinaryTree type="DecisionTree" boostWeight="1.0000000000000000e+00" itree="2">
      <Node pos="s" depth="0" NCoef="0" IVar="22" Cut="9.1593125835061073e-03" cType="1" res="-1.9700448028743267e-03" rms="3.0518043041229248e-01" purity="5.0000000000000000e-01" nType="0">
        <Node pos="l" depth="1" NCoef="0" IVar="12" Cut="8.5671865940093994e-01" cType="1" res="3.2904356718063354e-02" rms="3.0232313275337219e-01" purity="6.1372077465057373e-01" nType="0">
          <Node pos="l" depth="2" NCoef="0" IVar="-1" Cut="0.0000000000000000e+00" cType="1" res="2.1871094405651093e-01" rms="3.0047628283500671e-01" purity="6.6036385297775269e-01" nType="-99"/>
          <Node pos="r" depth="2" NCoef="0" IVar="-1" Cut="0.0000000000000000e+00" cType="1" res="-6.1356604099273682e-01" rms="2.6219281554222107e-01" purity="6.6785134375095367e-02" nType="-99"/>
        </Node>
        <Node pos="r" depth="1" NCoef="0" IVar="19" Cut="5.7142865657806396e-01" cType="1" res="-8.4596864879131317e-02" rms="2.9586982727050781e-01" purity="2.3056493699550629e-01" nType="0">
          <Node pos="l" depth="2" NCoef="0" IVar="-1" Cut="0.0000000000000000e+00" cType="1" res="-3.2318085432052612e-01" rms="2.2544932365417480e-01" purity="7.1854509413242340e-02" nType="-99"/>
          <Node pos="r" depth="2" NCoef="0" IVar="-1" Cut="0.0000000000000000e+00" cType="1" res="-5.0932407379150391e-01" rms="3.9314058423042297e-01" purity="5.3727012872695923e-01" nType="-99"/>
        </Node>
      </Node>
    </BinaryTree>
    <BinaryTree type="DecisionTree" boostWeight="1.0000000000000000e+00" itree="3">
      <Node pos="s" depth="0" NCoef="0" IVar="13" Cut="6.1612851917743683e-02" cType="1" res="-1.5236501349136233e-03" rms="2.9403549432754517e-01" purity="5.0000000000000000e-01" nType="0">
        <Node pos="l" depth="1" NCoef="0" IVar="19" Cut="2.8571432828903198e-01" cType="1" res="4.7819230705499649e-02" rms="2.6738071441650391e-01" purity="8.8357204198837280e-01" nType="0">
          <Node pos="l" depth="2" NCoef="0" IVar="-1" Cut="0.0000000000000000e+00" cType="1" res="9.1330391168594360e-01" rms="4.3584996461868286e-01" purity="2.7068343758583069e-01" nType="-99"/>
          <Node pos="r" depth="2" NCoef="0" IVar="-1" Cut="0.0000000000000000e+00" cType="1" res="2.2311399877071381e-01" rms="2.5132316350936890e-01" purity="9.2185711860656738e-01" nType="-99"/>
        </Node>
        <Node pos="r" depth="1" NCoef="0" IVar="0" Cut="3.1257156372070312e+01" cType="1" res="-3.9375882595777512e-02" rms="3.0762958526611328e-01" purity="2.0575174689292908e-01" nType="0">
          <Node pos="l" depth="2" NCoef="0" IVar="-1" Cut="0.0000000000000000e+00" cType="1" res="-1.0477232187986374e-01" rms="3.1207114458084106e-01" purity="2.2719314694404602e-01" nType="-99"/>
          <Node pos="r" depth="2" NCoef="0" IVar="-1" Cut="0.0000000000000000e+00" cType="1" res="-6.3866460323333740e-01" rms="2.7129775285720825e-01" purity="1.0315473377704620e-01" nType="-99"/>
        </Node>
      </Node>
    </BinaryTree>
    <BinaryTree type="DecisionTree" boostWeight="1.0000000000000000e+00" itree="4">
      <Node pos="s" depth="0" NCoef="0" IVar="26" Cut="2.6308981701731682e-02" cType="1" res="-3.8179962430149317e-03" rms="2.8832930326461792e-01" purity="5.0000000000000000e-01" nType="0">
        <Node pos="l" depth="1" NCoef="0" IVar="15" Cut="4.4039797782897949e+00" cType="1" res="1.8372854217886925e-02" rms="2.8188171982765198e-01" purity="5.8929949998855591e-01" nType="0">
          <Node pos="l" depth="2" NCoef="0" IVar="-1" Cut="0.0000000000000000e+00" cType="1" res="1.8081623315811157e-01" rms="3.0362614989280701e-01" purity="7.7513486146926880e-01" nType="-99"/>
          <Node pos="r" depth="2" NCoef="0" IVar="-1" Cut="0.0000000000000000e+00" cType="1" res="-2.4406963586807251e-01" rms="1.9791921973228455e-01" purity="4.0687918663024902e-02" nType="-99"/>
        </Node>
        <Node pos="r" depth="1" NCoef="0" IVar="13" Cut="1.0408383607864380e-01" cType="1" res="-6.3446126878261566e-02" rms="2.9687368869781494e-01" purity="2.6004695892333984e-01" nType="0">
          <Node pos="l" depth="2" NCoef="0" IVar="-1" Cut="0.0000000000000000e+00" cType="1" res="-4.4503319263458252e-01" rms="3.9115828275680542e-01" purity="6.2339693307876587e-01" nType="-99"/>
          <Node pos="r" depth="2" NCoef="0" IVar="-1" Cut="0.0000000000000000e+00" cType="1" res="-2.7093014121055603e-01" rms="2.3209191858768463e-01" purity="7.4480734765529633e-02" nType="-99"/>
        </Node>
      </Node>
    </BinaryTree>
    <BinaryTree type="DecisionTree" boostWeight="1.0000000000000000e+00" itree="5">
      <Node pos="s" depth="0" NCoef="0" IVar="4" Cut="7.8545928001403809e+00" cType="1" res="-1.8585013458505273e-04" rms="2.8281247615814209e-01" purity="5.0000000000000000e-01" nType="0">
        <Node pos="l" depth="1" NCoef="0" IVar="10" Cut="3.3333334326744080e-01" cType="1" res="6.3060955144464970e-03" rms="2.7924120426177979e-01" purity="5.2429240942001343e-01" nType="0">
          <Node pos="l" depth="2" NCoef="0" IVar="-1" Cut="0.0000000000000000e+00" cType="1" res="-1.7840439081192017e-01" rms="2.3276135325431824e-01" purity="1.3711909949779510e-01" nType="-99"/>
          <Node pos="r" depth="2" NCoef="0" IVar="-1" Cut="0.0000000000000000e+00" cType="1" res="1.2044372409582138e-01" rms="2.9667702317237854e-01" purity="6.9668996334075928e-01" nType="-99"/>
        </Node>
        <Node pos="r" depth="1" NCoef="0" IVar="13" Cut="1.4711798727512360e-01" cType="1" res="-8.6837098002433777e-02" rms="3.1417146325111389e-01" purity="1.7575740814208984e-01" nType="0">
          <Node pos="l" depth="2" NCoef="0" IVar="-1" Cut="0.0000000000000000e+00" cType="1" res="-6.0196888446807861e-01" rms="4.4556596875190735e-01" purity="4.1596767306327820e-01" nType="-99"/>
          <Node pos="r" depth="2" NCoef="0" IVar="-1" Cut="0.0000000000000000e+00" cType="1" res="-3.3608707785606384e-01" rms="1.8226310610771179e-01" purity="3.4325052052736282e-02" nType="-99"/>
        </Node>
      </Node>
    </BinaryTree>
    <BinaryTree type="DecisionTree" boostWeight="1.0000000000000000e+00" itree="6">
      <Node pos="s" depth="0" NCoef="0" IVar="13" Cut="1.2322570383548737e-01" cType="1" res="-3.9051711792126298e-04" rms="2.7942502498626709e-01" purity="5.0000000000000000e-01" nType="0">
        <Node pos="l" depth="1" NCoef="0" IVar="15" Cut="1.4421342611312866e+00" cType="1" res="-1.4658223837614059e-02" rms="2.8638646006584167e-01" purity="8.3280277252197266e-01" nType="0">
          <Node pos="l" depth="2" NCoef="0" IVar="-1" Cut="0.0000000000000000e+00" cType="1" res="-1.4068407937884331e-02" rms="2.7234318852424622e-01" purity="8.6508470773696899e-01" nType="-99"/>
          <Node pos="r" depth="2" NCoef="0" IVar="-1" Cut="0.0000000000000000e+00" cType="1" res="-8.0446922779083252e-01" rms="3.8189703226089478e-01" purity="4.8530188202857971e-01" nType="-99"/>
        </Node>
        <Node pos="r" depth="1" NCoef="0" IVar="13" Cut="1.7898216843605042e-01" cType="1" res="1.5608353540301323e-02" rms="2.7051311731338501e-01" purity="1.2681674957275391e-01" nType="0">
          <Node pos="l" depth="2" NCoef="0" IVar="-1" Cut="0.0000000000000000e+00" cType="1" res="4.4171455502510071e-01" rms="3.8767647743225098e-01" purity="3.8195708394050598e-01" nType="-99"/>
          <Node pos="r" depth="2" NCoef="0" IVar="-1" Cut="0.0000000000000000e+00" cType="1" res="3.4644310362637043e-03" rms="2.4539414048194885e-01" purity="8.9978829026222229e-02" nType="-99"/>
        </Node>
      </Node>
    </BinaryTree>
    <BinaryTree type="DecisionTree" boostWeight="1.0000000000000000e+00" itree="7">
      <Node pos="s" depth="0" NCoef="0" IVar="10" Cut="6.1904764175415039e-01" cType="1" res="8.6619163630530238e-04" rms="2.7410498261451721e-01" purity="5.0000000000000000e-01" nType="0">
        <Node pos="l" depth="1" NCoef="0" IVar="7" Cut="1.4336952567100525e-01" cType="1" res="-6.9536394439637661e-03" rms="2.8889754414558411e-01" purity="3.4788712859153748e-01" nType="0">
          <Node pos="l" depth="2" NCoef="0" IVar="-1" Cut="0.0000000000000000e+00" cType="1" res="-1.0139510035514832e-01" rms="2.7504959702491760e-01" purity="3.3584347367286682e-01" nType="-99"/>
          <Node pos="r" depth="2" NCoef="0" IVar="-1" Cut="0.0000000000000000e+00" cType="1" res="1.6339325904846191e-01" rms="3.4441968798637390e-01" purity="4.0499085187911987e-01" nType="-99"/>
        </Node>
        <Node pos="r" depth="1" NCoef="0" IVar="12" Cut="6.1860948801040649e-01" cType="1" res="2.1888721734285355e-02" rms="2.2833709418773651e-01" purity="9.0893441438674927e-01" nType="0">
          <Node pos="l" depth="2" NCoef="0" IVar="-1" Cut="0.0000000000000000e+00" cType="1" res="1.3121840357780457e-01" rms="2.1340002119541168e-01" purity="9.2376536130905151e-01" nType="-99"/>
          <Node pos="r" depth="2" NCoef="0" IVar="-1" Cut="0.0000000000000000e+00" cType="1" res="4.8651352524757385e-01" rms="3.7723219394683838e-01" purity="6.6757428646087646e-01" nType="-99"/>
        </Node>
      </Node>
    </BinaryTree>
    <BinaryTree type="DecisionTree" boostWeight="1.0000000000000000e+00" itree="8">
      <Node pos="s" depth="0" NCoef="0" IVar="16" Cut="2.6479403972625732e+00" cType="1" res="2.6920103118754923e-04" rms="2.7250313758850098e-01" purity="5.0000000000000000e-01" nType="0">
        <Node pos="l" depth="1" NCoef="0" IVar="12" Cut="1.9038192927837372e-01" cType="1" res="-4.8613166436553001e-03" rms="2.6738330721855164e-01" purity="5.2370822429656982e-01" nType="0">
          <Node pos="l" depth="2" NCoef="0" IVar="-1" Cut="0.0000000000000000e+00" cType="1" res="4.0202207863330841e-02" rms="2.4633866548538208e-01" purity="6.6189819574356079e-01" nType="-99"/>
          <Node pos="r" depth="2" NCoef="0" IVar="-1" Cut="0.0000000000000000e+00" cType="1" res="-1.0981702804565430e-01" rms="2.9103919863700867e-01" purity="3.5139292478561401e-01" nType="-99"/>
        </Node>
        <Node pos="r" depth="1" NCoef="0" IVar="14" Cut="1.6641856729984283e-01" cType="1" res="3.6335382610559464e-02" rms="3.0365005135536194e-01" purity="3.3333724737167358e-01" nType="0">
          <Node pos="l" depth="2" NCoef="0" IVar="-1" Cut="0.0000000000000000e+00" cType="1" res="3.7237218022346497e-01" rms="3.5923308134078979e-01" purity="5.6007224321365356e-01" nType="-99"/>
          <Node pos="r" depth="2" NCoef="0" IVar="-1" Cut="0.0000000000000000e+00" cType="1" res="-2.9726901650428772e-01" rms="1.9176694750785828e-01" purity="3.5697616636753082e-02" nType="-99"/>
        </Node>
      </Node>
    </BinaryTree>
    <BinaryTree type="DecisionTree" boostWeight="1.0000000000000000e+00" itree="9">
      <Node pos="s" depth="0" NCoef="0" IVar="25" Cut="-1.6047859098762274e-03" cType="1" res="-3.5398072213865817e-04" rms="2.7004951238632202e-01" purity="5.0000000000000000e-01" nType="0">
        <Node pos="l" depth="1" NCoef="0" IVar="26" Cut="2.6308981701731682e-02" cType="1" res="-1.8889063969254494e-02" rms="2.7967321872711182e-01" purity="3.4866976737976074e-01" nType="0">
          <Node pos="l" depth="2" NCoef="0" IVar="-1" Cut="0.0000000000000000e+00" cType="1" res="-2.3496565222740173e-01" rms="2.7979159355163574e-01" purity="4.4201874732971191e-01" nType="-99"/>
          <Node pos="r" depth="2" NCoef="0" IVar="-1" Cut="0.0000000000000000e+00" cType="1" res="-1.8405945738777518e-03" rms="2.7841719985008240e-01" purity="2.2856926918029785e-01" nType="-99"/>
        </Node>
        <Node pos="r" depth="1" NCoef="0" IVar="25" Cut="2.7661153580993414e-03" cType="1" res="4.8513873480260372e-03" rms="2.6705321669578552e-01" purity="5.4249936342239380e-01" nType="0">
          <Node pos="l" depth="2" NCoef="0" IVar="-1" Cut="0.0000000000000000e+00" cType="1" res="7.8462168574333191e-02" rms="2.6329821348190308e-01" purity="5.9496915340423584e-01" nType="-99"/>
          <Node pos="r" depth="2" NCoef="0" IVar="-1" Cut="0.0000000000000000e+00" cType="1" res="-1.8138515949249268e-01" rms="2.8440514206886292e-01" purity="2.6036810874938965e-01" nType="-99"/>
        </Node>
      </Node>
    </BinaryTree>
    <BinaryTree type="DecisionTree" boostWeight="1.0000000000000000e+00" itree="10">
      <Node pos="s" depth="0" NCoef="0" IVar="1" Cut="2.1427757740020752e+00" cType="1" res="4.5203751142253168e-06" rms="2.6895967125892639e-01" purity="5.0000000000000000e-01" nType="0">
        <Node pos="l" depth="1" NCoef="0" IVar="12" Cut="9.0438324213027954e-01" cType="1" res="-3.1254324130713940e-03" rms="2.6063406467437744e-01" purity="5.0705742835998535e-01" nType="0">
          <Node pos="l" depth="2" NCoef="0" IVar="-1" Cut="0.0000000000000000e+00" cType="1" res="-4.4940905645489693e-03" rms="2.6494866609573364e-01" purity="5.3685379028320312e-01" nType="-99"/>
          <Node pos="r" depth="2" NCoef="0" IVar="-1" Cut="0.0000000000000000e+00" cType="1" res="-5.0656276941299438e-01" rms="1.7122241854667664e-01" purity="2.3084405809640884e-02" nType="-99"/>
        </Node>
        <Node pos="r" depth="1" NCoef="0" IVar="15" Cut="2.3991749286651611e+00" cType="1" res="3.0524108558893204e-02" rms="3.3809101581573486e-01" purity="4.3118411302566528e-01" nType="0">
          <Node pos="l" depth="2" NCoef="0" IVar="-1" Cut="0.0000000000000000e+00" cType="1" res="2.4847669899463654e-01" rms="3.9413455128669739e-01" purity="6.4490610361099243e-01" nType="-99"/>
          <Node pos="r" depth="2" NCoef="0" IVar="-1" Cut="0.0000000000000000e+00" cType="1" res="-2.3921190202236176e-01" rms="1.8722067773342133e-01" purity="3.9544947445392609e-02" nType="-99"/>
        </Node>
      </Node>
    </BinaryTree>
    <BinaryTree type="DecisionTree" boostWeight="1.0000000000000000e+00" itree="11">
      <Node pos="s" depth="0" NCoef="0" IVar="20" Cut="4.7619048506021500e-02" cType="1" res="-5.2947516087442636e-04" rms="2.6739224791526794e-01" purity="5.0000000000000000e-01" nType="0">
        <Node pos="l" depth="1" NCoef="0" IVar="26" Cut="3.4404054284095764e-02" cType="1" res="1.7380808712914586e-03" rms="2.6551547646522522e-01" purity="5.0361549854278564e-01" nType="0">
          <Node pos="l" depth="2" NCoef="0" IVar="-1" Cut="0.0000000000000000e+00" cType="1" res="3.4724164754152298e-02" rms="2.6631116867065430e-01" purity="5.4271817207336426e-01" nType="-99"/>
          <Node pos="r" depth="2" NCoef="0" IVar="-1" Cut="0.0000000000000000e+00" cType="1" res="-1.9440262019634247e-01" rms="2.5653707981109619e-01" purity="1.4285480976104736e-01" nType="-99"/>
        </Node>
        <Node pos="r" depth="1" NCoef="0" IVar="3" Cut="9.3418480828404427e-03" cType="1" res="-3.8830321282148361e-02" rms="2.9468309879302979e-01" purity="4.3893152475357056e-01" nType="0">
          <Node pos="l" depth="2" NCoef="0" IVar="-1" Cut="0.0000000000000000e+00" cType="1" res="-1.3590408861637115e-01" rms="2.7265727519989014e-01" purity="5.2417224645614624e-01" nType="-99"/>
          <Node pos="r" depth="2" NCoef="0" IVar="-1" Cut="0.0000000000000000e+00" cType="1" res="-4.9985185265541077e-01" rms="3.3053588867187500e-01" purity="2.6891139149665833e-01" nType="-99"/>
        </Node>
      </Node>
    </BinaryTree>
    <BinaryTree type="DecisionTree" boostWeight="1.0000000000000000e+00" itree="12">
      <Node pos="s" depth="0" NCoef="0" IVar="17" Cut="4.5724563598632812e+00" cType="1" res="-1.5783823619130999e-04" rms="2.6638272404670715e-01" purity="5.0000000000000000e-01" nType="0">
        <Node pos="l" depth="1" NCoef="0" IVar="17" Cut="2.3950884342193604e+00" cType="1" res="3.3652819693088531e-03" rms="2.6932486891746521e-01" purity="5.6412577629089355e-01" nType="0">
          <Node pos="l" depth="2" NCoef="0" IVar="-1" Cut="0.0000000000000000e+00" cType="1" res="7.0360548794269562e-02" rms="2.6701590418815613e-01" purity="6.1941683292388916e-01" nType="-99"/>
          <Node pos="r" depth="2" NCoef="0" IVar="-1" Cut="0.0000000000000000e+00" cType="1" res="-1.4098232984542847e-01" rms="2.7718633413314819e-01" purity="3.4249022603034973e-01" nType="-99"/>
        </Node>
        <Node pos="r" depth="1" NCoef="0" IVar="19" Cut="5.8946740627288818e-01" cType="1" res="-2.1088341251015663e-02" rms="2.4715232849121094e-01" purity="1.1903520673513412e-01" nType="0">
          <Node pos="l" depth="2" NCoef="0" IVar="-1" Cut="0.0000000000000000e+00" cType="1" res="-8.2421004772186279e-02" rms="2.1896101534366608e-01" purity="8.0738171935081482e-02" nType="-99"/>
          <Node pos="r" depth="2" NCoef="0" IVar="-1" Cut="0.0000000000000000e+00" cType="1" res="-3.5384649038314819e-01" rms="3.3541020750999451e-01" purity="2.7802219986915588e-01" nType="-99"/>
        </Node>
      </Node>
    </BinaryTree>
    <BinaryTree type="DecisionTree" boostWeight="1.0000000000000000e+00" itree="13">
      <Node pos="s" depth="0" NCoef="0" IVar="26" Cut="8.0950716510415077e-03" cType="1" res="-8.8698398030828685e-05" rms="2.6540988683700562e-01" purity="5.0000000000000000e-01" nType="0">
        <Node pos="l" depth="1" NCoef="0" IVar="13" Cut="9.5553226768970490e-02" cType="1" res="2.9985891655087471e-02" rms="2.3374266922473907e-01" purity="7.5667953491210938e-01" nType="0">
          <Node pos="l" depth="2" NCoef="0" IVar="-1" Cut="0.0000000000000000e+00" cType="1" res="1.8840034306049347e-01" rms="1.7850117385387421e-01" purity="9.5141422748565674e-01" nType="-99"/>
          <Node pos="r" depth="2" NCoef="0" IVar="-1" Cut="0.0000000000000000e+00" cType="1" res="3.2419455051422119e-01" rms="3.1972703337669373e-01" purity="3.3803319931030273e-01" nType="-99"/>
        </Node>
        <Node pos="r" depth="1" NCoef="0" IVar="26" Cut="9.7334049642086029e-03" cType="1" res="-2.1974793635308743e-03" rms="2.6736283302307129e-01" purity="4.8200204968452454e-01" nType="0">
          <Node pos="l" depth="2" NCoef="0" IVar="-1" Cut="0.0000000000000000e+00" cType="1" res="7.8285053372383118e-02" rms="2.4281831085681915e-01" purity="6.6583323478698730e-01" nType="-99"/>
          <Node pos="r" depth="2" NCoef="0" IVar="-1" Cut="0.0000000000000000e+00" cType="1" res="-6.1942234635353088e-02" rms="2.8007701039314270e-01" purity="3.7823531031608582e-01" nType="-99"/>
        </Node>
      </Node>
    </BinaryTree>
    <BinaryTree type="DecisionTree" boostWeight="1.0000000000000000e+00" itree="14">
      <Node pos="s" depth="0" NCoef="0" IVar="26" Cut="2.6308981701731682e-02" cType="1" res="7.0161950134206563e-05" rms="2.6492795348167419e-01" purity="5.0000000000000000e-01" nType="0">
        <Node pos="l" depth="1" NCoef="0" IVar="25" Cut="1.6023737844079733e-03" cType="1" res="-5.7492232881486416e-03" rms="2.5916928052902222e-01" purity="5.8929949998855591e-01" nType="0">
          <Node pos="l" depth="2" NCoef="0" IVar="-1" Cut="0.0000000000000000e+00" cType="1" res="-1.1371685191988945e-02" rms="2.5443211197853088e-01" purity="6.1894047260284424e-01" nType="-99"/>
          <Node pos="r" depth="2" NCoef="0" IVar="-1" Cut="0.0000000000000000e+00" cType="1" res="-2.0443160831928253e-01" rms="2.7939894795417786e-01" purity="4.5026320219039917e-01" nType="-99"/>
        </Node>
        <Node pos="r" depth="1" NCoef="0" IVar="15" Cut="3.3334705829620361e+00" cType="1" res="1.5707194805145264e-02" rms="2.7921521663665771e-01" purity="2.6004695892333984e-01" nType="0">
          <Node pos="l" depth="2" NCoef="0" IVar="-1" Cut="0.0000000000000000e+00" cType="1" res="1.6514353454113007e-01" rms="3.6059007048606873e-01" purity="4.6865302324295044e-01" nType="-99"/>
          <Node pos="r" depth="2" NCoef="0" IVar="-1" Cut="0.0000000000000000e+00" cType="1" res="-1.9079354405403137e-01" rms="1.2698048353195190e-01" purity="1.6574474051594734e-02" nType="-99"/>
        </Node>
      </Node>
    </BinaryTree>
    <BinaryTree type="DecisionTree" boostWeight="1.0000000000000000e+00" itree="15">
      <Node pos="s" depth="0" NCoef="0" IVar="13" Cut="1.8483854830265045e-01" cType="1" res="-1.3150463928468525e-04" rms="2.6414149999618530e-01" purity="5.0000000000000000e-01" nType="0">
        <Node pos="l" depth="1" NCoef="0" IVar="25" Cut="-4.1713546961545944e-03" cType="1" res="-6.1311512254178524e-03" rms="2.8423196077346802e-01" purity="7.8236210346221924e-01" nType="0">
          <Node pos="l" depth="2" NCoef="0" IVar="-1" Cut="0.0000000000000000e+00" cType="1" res="-2.7948009967803955e-01" rms="3.7057060003280640e-01" purity="4.3189054727554321e-01" nType="-99"/>
          <Node pos="r" depth="2" NCoef="0" IVar="-1" Cut="0.0000000000000000e+00" cType="1" res="-2.7815613895654678e-02" rms="2.7990379929542542e-01" purity="7.9667025804519653e-01" nType="-99"/>
        </Node>
        <Node pos="r" depth="1" NCoef="0" IVar="7" Cut="1.2664483487606049e-01" cType="1" res="8.6369765922427177e-03" rms="2.3138670623302460e-01" purity="8.7327882647514343e-02" nType="0">
          <Node pos="l" depth="2" NCoef="0" IVar="-1" Cut="0.0000000000000000e+00" cType="1" res="-2.2307218983769417e-02" rms="2.0737873017787933e-01" purity="6.7897379398345947e-02" nType="-99"/>
          <Node pos="r" depth="2" NCoef="0" IVar="-1" Cut="0.0000000000000000e+00" cType="1" res="2.8890061378479004e-01" rms="2.8439548611640930e-01" purity="1.3983495533466339e-01" nType="-99"/>
        </Node>
      </Node>
    </BinaryTree>
    <BinaryTree type="DecisionTree" boostWeight="1.0000000000000000e+00" itree="16">
      <Node pos="s" depth="0" NCoef="0" IVar="19" Cut="4.7619053721427917e-01" cType="1" res="-5.1411829190328717e-04" rms="2.6319158077239990e-01" purity="5.0000000000000000e-01" nType="0">
        <Node pos="l" depth="1" NCoef="0" IVar="1" Cut="2.0237839221954346e+00" cType="1" res="-1.0011329315602779e-02" rms="2.2250668704509735e-01" purity="8.5510782897472382e-02" nType="0">
          <Node pos="l" depth="2" NCoef="0" IVar="-1" Cut="0.0000000000000000e+00" cType="1" res="-1.5619531273841858e-01" rms="2.1156233549118042e-01" purity="7.8492924571037292e-02" nType="-99"/>
          <Node pos="r" depth="2" NCoef="0" IVar="-1" Cut="0.0000000000000000e+00" cType="1" res="1.3732349872589111e-01" rms="2.6465421915054321e-01" purity="1.1699847877025604e-01" nType="-99"/>
        </Node>
        <Node pos="r" depth="1" NCoef="0" IVar="14" Cut="2.8164401650428772e-01" cType="1" res="4.2877937667071819e-03" rms="2.8141137957572937e-01" purity="7.0957106351852417e-01" nType="0">
          <Node pos="l" depth="2" NCoef="0" IVar="-1" Cut="0.0000000000000000e+00" cType="1" res="7.0882610976696014e-02" rms="2.8476268053054810e-01" purity="7.8935658931732178e-01" nType="-99"/>
          <Node pos="r" depth="2" NCoef="0" IVar="-1" Cut="0.0000000000000000e+00" cType="1" res="-4.0993070602416992e-01" rms="2.4671256542205811e-01" purity="5.6133273988962173e-02" nType="-99"/>
        </Node>
      </Node>
    </BinaryTree>
    <BinaryTree type="DecisionTree" boostWeight="1.0000000000000000e+00" itree="17">
      <Node pos="s" depth="0" NCoef="0" IVar="4" Cut="1.5705224037170410e+01" cType="1" res="-7.9073489177972078e-04" rms="2.6104763150215149e-01" purity="5.0000000000000000e-01" nType="0">
        <Node pos="l" depth="1" NCoef="0" IVar="19" Cut="5.7142865657806396e-01" cType="1" res="1.4277579612098634e-04" rms="2.6155504584312439e-01" purity="5.0953000783920288e-01" nType="0">
          <Node pos="l" depth="2" NCoef="0" IVar="-1" Cut="0.0000000000000000e+00" cType="1" res="6.0178056359291077e-02" rms="2.5085601210594177e-01" purity="1.5147700905799866e-01" nType="-99"/>
          <Node pos="r" depth="2" NCoef="0" IVar="-1" Cut="0.0000000000000000e+00" cType="1" res="-4.0402140468358994e-02" rms="2.6943215727806091e-01" purity="7.8673523664474487e-01" nType="-99"/>
        </Node>
        <Node pos="r" depth="1" NCoef="0" IVar="-1" Cut="0.0000000000000000e+00" cType="1" res="-3.8707658648490906e-01" rms="2.3456044495105743e-01" purity="8.8094271719455719e-02" nType="-99"/>
      </Node>
    </BinaryTree>
    <BinaryTree type="DecisionTree" boostWeight="1.0000000000000000e+00" itree="18">
      <Node pos="s" depth="0" NCoef="0" IVar="4" Cut="7.8545928001403809e+00" cType="1" res="-1.1023905244655907e-04" rms="2.6078635454177856e-01" purity="5.0000000000000000e-01" nType="0">
        <Node pos="l" depth="1" NCoef="0" IVar="19" Cut="4.7619052231311798e-02" cType="1" res="-1.3838916784152389e-03" rms="2.5941783189773560e-01" purity="5.2429240942001343e-01" nType="0">
          <Node pos="l" depth="2" NCoef="0" IVar="-1" Cut="0.0000000000000000e+00" cType="1" res="-1.3710457086563110e-01" rms="1.8487110733985901e-01" purity="4.3419830501079559e-02" nType="-99"/>
          <Node pos="r" depth="2" NCoef="0" IVar="-1" Cut="0.0000000000000000e+00" cType="1" res="1.0960202664136887e-02" rms="2.7841395139694214e-01" purity="6.7314076423645020e-01" nType="-99"/>
        </Node>
        <Node pos="r" depth="1" NCoef="0" IVar="8" Cut="6.1904764175415039e-01" cType="1" res="1.6889840364456177e-02" rms="2.7785062789916992e-01" purity="1.7575740814208984e-01" nType="0">
          <Node pos="l" depth="2" NCoef="0" IVar="-1" Cut="0.0000000000000000e+00" cType="1" res="-5.3499341011047363e-02" rms="2.0144957304000854e-01" purity="5.6208617985248566e-02" nType="-99"/>
          <Node pos="r" depth="2" NCoef="0" IVar="-1" Cut="0.0000000000000000e+00" cType="1" res="2.6877465844154358e-01" rms="3.7747392058372498e-01" purity="3.9624524116516113e-01" nType="-99"/>
        </Node>
      </Node>
    </BinaryTree>
    <BinaryTree type="DecisionTree" boostWeight="1.0000000000000000e+00" itree="19">
      <Node pos="s" depth="0" NCoef="0" IVar="26" Cut="1.2142607010900974e-02" cType="1" res="-1.7599666898604482e-04" rms="2.6031640172004700e-01" purity="5.0000000000000000e-01" nType="0">
        <Node pos="l" depth="1" NCoef="0" IVar="26" Cut="9.2008393257856369e-03" cType="1" res="-4.7662463039159775e-03" rms="2.4595113098621368e-01" purity="5.9118962287902832e-01" nType="0">
          <Node pos="l" depth="2" NCoef="0" IVar="-1" Cut="0.0000000000000000e+00" cType="1" res="7.0838496088981628e-02" rms="2.3396421968936920e-01" purity="7.1291780471801758e-01" nType="-99"/>
          <Node pos="r" depth="2" NCoef="0" IVar="-1" Cut="0.0000000000000000e+00" cType="1" res="-1.4137589931488037e-01" rms="2.5644627213478088e-01" purity="4.7359231114387512e-01" nType="-99"/>
        </Node>
        <Node pos="r" depth="1" NCoef="0" IVar="12" Cut="6.1878854036331177e-01" cType="1" res="6.3241655007004738e-03" rms="2.7926906943321228e-01" purity="3.7086811661720276e-01" nType="0">
          <Node pos="l" depth="2" NCoef="0" IVar="-1" Cut="0.0000000000000000e+00" cType="1" res="-3.0347052961587906e-03" rms="2.7627670764923096e-01" purity="4.0874972939491272e-01" nType="-99"/>
          <Node pos="r" depth="2" NCoef="0" IVar="-1" Cut="0.0000000000000000e+00" cType="1" res="2.9759883880615234e-01" rms="2.9072496294975281e-01" purity="1.9509603083133698e-01" nType="-99"/>
        </Node>
      </Node>
    </BinaryTree>
    <BinaryTree type="DecisionTree" boostWeight="1.0000000000000000e+00" itree="20">
      <Node pos="s" depth="0" NCoef="0" IVar="3" Cut="6.6652886569499969e-02" cType="1" res="-8.7156608060467988e-05" rms="2.5975626707077026e-01" purity="5.0000000000000000e-01" nType="0">
        <Node pos="l" depth="1" NCoef="0" IVar="1" Cut="7.1426558494567871e-01" cType="1" res="1.1732884449884295e-03" rms="2.5836828351020813e-01" purity="5.0994169712066650e-01" nType="0">
          <Node pos="l" depth="2" NCoef="0" IVar="-1" Cut="0.0000000000000000e+00" cType="1" res="9.7623966634273529e-02" rms="2.3446777462959290e-01" purity="6.1791342496871948e-01" nType="-99"/>
          <Node pos="r" depth="2" NCoef="0" IVar="-1" Cut="0.0000000000000000e+00" cType="1" res="-2.3297227919101715e-02" rms="2.6812821626663208e-01" purity="4.6233749389648438e-01" nType="-99"/>
        </Node>
        <Node pos="r" depth="1" NCoef="0" IVar="10" Cut="4.0562960505485535e-01" cType="1" res="-4.1469212621450424e-02" rms="2.9886370897293091e-01" purity="1.7360146343708038e-01" nType="0">
          <Node pos="l" depth="2" NCoef="0" IVar="-1" Cut="0.0000000000000000e+00" cType="1" res="-1.4348818361759186e-01" rms="2.3769196867942810e-01" purity="7.8134112060070038e-02" nType="-99"/>
          <Node pos="r" depth="2" NCoef="0" IVar="-1" Cut="0.0000000000000000e+00" cType="1" res="-3.6231669783592224e-01" rms="3.5861641168594360e-01" purity="2.9421189427375793e-01" nType="-99"/>
        </Node>
      </Node>
    </BinaryTree>
    <BinaryTree type="DecisionTree" boostWeight="1.0000000000000000e+00" itree="21">
      <Node pos="s" depth="0" NCoef="0" IVar="12" Cut="5.7118940353393555e-01" cType="1" res="2.7744406907004304e-05" rms="2.5920927524566650e-01" purity="5.0000000000000000e-01" nType="0">
        <Node pos="l" depth="1" NCoef="0" IVar="19" Cut="5.7142865657806396e-01" cType="1" res="2.2785805631428957e-03" rms="2.5604835152626038e-01" purity="5.6391125917434692e-01" nType="0">
          <Node pos="l" depth="2" NCoef="0" IVar="-1" Cut="0.0000000000000000e+00" cType="1" res="1.2625345587730408e-01" rms="2.5108176469802856e-01" purity="1.6985514760017395e-01" nType="-99"/>
          <Node pos="r" depth="2" NCoef="0" IVar="-1" Cut="0.0000000000000000e+00" cType="1" res="-4.6554610133171082e-02" rms="2.5898039340972900e-01" purity="8.2466471195220947e-01" nType="-99"/>
        </Node>
        <Node pos="r" depth="1" NCoef="0" IVar="7" Cut="1.4974088966846466e-01" cType="1" res="-1.0701567865908146e-02" rms="2.7352109551429749e-01" purity="1.9534716010093689e-01" nType="0">
          <Node pos="l" depth="2" NCoef="0" IVar="-1" Cut="0.0000000000000000e+00" cType="1" res="8.3385147154331207e-03" rms="2.6443821191787720e-01" purity="1.9764478504657745e-01" nType="-99"/>
          <Node pos="r" depth="2" NCoef="0" IVar="-1" Cut="0.0000000000000000e+00" cType="1" res="-3.5318353772163391e-01" rms="3.0407640337944031e-01" purity="1.8562190234661102e-01" nType="-99"/>
        </Node>
      </Node>
    </BinaryTree>
    <BinaryTree type="DecisionTree" boostWeight="1.0000000000000000e+00" itree="22">
      <Node pos="s" depth="0" NCoef="0" IVar="5" Cut="5.0763046741485596e-01" cType="1" res="-2.4122641480062157e-04" rms="2.5830698013305664e-01" purity="5.0000000000000000e-01" nType="0">
        <Node pos="l" depth="1" NCoef="0" IVar="6" Cut="3.1191442012786865e+00" cType="1" res="-7.8227696940302849e-03" rms="2.3103813827037811e-01" purity="9.8850890994071960e-02" nType="0">
          <Node pos="l" depth="2" NCoef="0" IVar="-1" Cut="0.0000000000000000e+00" cType="1" res="-1.3119086623191833e-01" rms="2.1783863008022308e-01" purity="8.2847319543361664e-02" nType="-99"/>
          <Node pos="r" depth="2" NCoef="0" IVar="-1" Cut="0.0000000000000000e+00" cType="1" res="2.3767864704132080e-01" rms="3.1751981377601624e-01" purity="2.3204752802848816e-01" nType="-99"/>
        </Node>
        <Node pos="r" depth="1" NCoef="0" IVar="26" Cut="1.2139657512307167e-02" cType="1" res="3.1727657187730074e-03" rms="2.6961776614189148e-01" purity="6.8063867092132568e-01" nType="0">
          <Node pos="l" depth="2" NCoef="0" IVar="-1" Cut="0.0000000000000000e+00" cType="1" res="-1.6628075391054153e-02" rms="2.4756166338920593e-01" purity="7.3547285795211792e-01" nType="-99"/>
          <Node pos="r" depth="2" NCoef="0" IVar="-1" Cut="0.0000000000000000e+00" cType="1" res="7.6279908418655396e-02" rms="3.0709415674209595e-01" purity="5.7605290412902832e-01" nType="-99"/>
        </Node>
      </Node>
    </BinaryTree>
    <BinaryTree type="DecisionTree" boostWeight="1.0000000000000000e+00" itree="23">
      <Node pos="s" depth="0" NCoef="0" IVar="26" Cut="3.0356517061591148e-02" cType="1" res="-1.9605648412834853e-04" rms="2.5776711106300354e-01" purity="5.0000000000000000e-01" nType="0">
        <Node pos="l" depth="1" NCoef="0" IVar="18" Cut="3.7906758487224579e-02" cType="1" res="2.0677477587014437e-03" rms="2.5755411386489868e-01" purity="5.6546032428741455e-01" nType="0">
          <Node pos="l" depth="2" NCoef="0" IVar="-1" Cut="0.0000000000000000e+00" cType="1" res="2.4618517607450485e-02" rms="2.5673115253448486e-01" purity="5.7091122865676880e-01" nType="-99"/>
          <Node pos="r" depth="2" NCoef="0" IVar="-1" Cut="0.0000000000000000e+00" cType="1" res="-2.4539665877819061e-01" rms="2.8710305690765381e-01" purity="3.3984398841857910e-01" nType="-99"/>
        </Node>
        <Node pos="r" depth="1" NCoef="0" IVar="0" Cut="2.0533540725708008e+01" cType="1" res="-1.1046250350773335e-02" rms="2.5851041078567505e-01" purity="1.8625496327877045e-01" nType="0">
          <Node pos="l" depth="2" NCoef="0" IVar="-1" Cut="0.0000000000000000e+00" cType="1" res="1.1818439234048128e-03" rms="2.7787113189697266e-01" purity="2.2850050032138824e-01" nType="-99"/>
          <Node pos="r" depth="2" NCoef="0" IVar="-1" Cut="0.0000000000000000e+00" cType="1" res="-4.9690893292427063e-01" rms="1.9456247985363007e-01" purity="7.3398679494857788e-02" nType="-99"/>
        </Node>
      </Node>
    </BinaryTree>
    <BinaryTree type="DecisionTree" boostWeight="1.0000000000000000e+00" itree="24">
      <Node pos="s" depth="0" NCoef="0" IVar="10" Cut="3.3333334326744080e-01" cType="1" res="-2.3259193403646350e-04" rms="2.5698167085647583e-01" purity="5.0000000000000000e-01" nType="0">
        <Node pos="l" depth="1" NCoef="0" IVar="9" Cut="2.3809523880481720e-01" cType="1" res="7.2708656080067158e-03" rms="2.1344013512134552e-01" purity="1.2966316938400269e-01" nType="0">
          <Node pos="l" depth="2" NCoef="0" IVar="-1" Cut="0.0000000000000000e+00" cType="1" res="3.7969180941581726e-01" rms="3.3280467987060547e-01" purity="5.2849102020263672e-01" nType="-99"/>
          <Node pos="r" depth="2" NCoef="0" IVar="-1" Cut="0.0000000000000000e+00" cType="1" res="2.3295188322663307e-02" rms="1.9921772181987762e-01" purity="9.6124365925788879e-02" nType="-99"/>
        </Node>
        <Node pos="r" depth="1" NCoef="0" IVar="15" Cut="4.4039797782897949e+00" cType="1" res="-3.6560918670147657e-03" rms="2.7449521422386169e-01" purity="6.6896855831146240e-01" nType="0">
          <Node pos="l" depth="2" NCoef="0" IVar="-1" Cut="0.0000000000000000e+00" cType="1" res="-4.7948256134986877e-02" rms="2.8335207700729370e-01" purity="7.7737641334533691e-01" nType="-99"/>
          <Node pos="r" depth="2" NCoef="0" IVar="-1" Cut="0.0000000000000000e+00" cType="1" res="2.0271299779415131e-01" rms="2.1740211546421051e-01" purity="6.1632618308067322e-02" nType="-99"/>
        </Node>
      </Node>
    </BinaryTree>
    <BinaryTree type="DecisionTree" boostWeight="1.0000000000000000e+00" itree="25">
      <Node pos="s" depth="0" NCoef="0" IVar="11" Cut="1.3904762268066406e+01" cType="1" res="-1.2917369895149022e-04" rms="2.5616911053657532e-01" purity="5.0000000000000000e-01" nType="0">
        <Node pos="l" depth="1" NCoef="0" IVar="22" Cut="9.1394688934087753e-03" cType="1" res="3.7807270418852568e-03" rms="2.6662257313728333e-01" purity="6.6883951425552368e-01" nType="0">
          <Node pos="l" depth="2" NCoef="0" IVar="-1" Cut="0.0000000000000000e+00" cType="1" res="-8.1548700109124184e-03" rms="2.5104263424873352e-01" purity="7.5281661748886108e-01" nType="-99"/>
          <Node pos="r" depth="2" NCoef="0" IVar="-1" Cut="0.0000000000000000e+00" cType="1" res="1.1357755213975906e-01" rms="3.1227344274520874e-01" purity="3.9031806588172913e-01" nType="-99"/>
        </Node>
        <Node pos="r" depth="1" NCoef="0" IVar="7" Cut="1.9275179505348206e-01" cType="1" res="-5.4528233595192432e-03" rms="2.4110664427280426e-01" purity="2.7011123299598694e-01" nType="0">
          <Node pos="l" depth="2" NCoef="0" IVar="-1" Cut="0.0000000000000000e+00" cType="1" res="-6.5666653215885162e-02" rms="2.3576386272907257e-01" purity="2.5651013851165771e-01" nType="-99"/>
          <Node pos="r" depth="2" NCoef="0" IVar="-1" Cut="0.0000000000000000e+00" cType="1" res="1.3808439671993256e-01" rms="3.2047739624977112e-01" purity="5.1388275623321533e-01" nType="-99"/>
        </Node>
      </Node>
    </BinaryTree>
    <BinaryTree type="DecisionTree" boostWeight="1.0000000000000000e+00" itree="26">
      <Node pos="s" depth="0" NCoef="0" IVar="22" Cut="2.7477934956550598e-02" cType="1" res="-8.8310398496105336e-06" rms="2.5588914752006531e-01" purity="5.0000000000000000e-01" nType="0">
        <Node pos="l" depth="1" NCoef="0" IVar="22" Cut="2.6168110780417919e-03" cType="1" res="1.5581710031256080e-03" rms="2.5649681687355042e-01" purity="5.3872716426849365e-01" nType="0">
          <Node pos="l" depth="2" NCoef="0" IVar="-1" Cut="0.0000000000000000e+00" cType="1" res="1.2538307905197144e-01" rms="2.4260683357715607e-01" purity="7.0234423875808716e-01" nType="-99"/>
          <Node pos="r" depth="2" NCoef="0" IVar="-1" Cut="0.0000000000000000e+00" cType="1" res="-7.4865125119686127e-02" rms="2.6729768514633179e-01" purity="3.9859801530838013e-01" nType="-99"/>
        </Node>
        <Node pos="r" depth="1" NCoef="0" IVar="2" Cut="9.4820484519004822e-03" cType="1" res="-1.3727711513638496e-02" rms="2.5008711218833923e-01" purity="1.6094937920570374e-01" nType="0">
          <Node pos="l" depth="2" NCoef="0" IVar="-1" Cut="0.0000000000000000e+00" cType="1" res="-3.1765407323837280e-01" rms="2.2510746121406555e-01" purity="1.2680448591709137e-01" nType="-99"/>
          <Node pos="r" depth="2" NCoef="0" IVar="-1" Cut="0.0000000000000000e+00" cType="1" res="2.9869765043258667e-01" rms="3.1326103210449219e-01" purity="2.7503171563148499e-01" nType="-99"/>
        </Node>
      </Node>
    </BinaryTree>
    <BinaryTree type="DecisionTree" boostWeight="1.0000000000000000e+00" itree="27">
      <Node pos="s" depth="0" NCoef="0" IVar="22" Cut="9.1593125835061073e-03" cType="1" res="-2.8205136004544329e-06" rms="2.5461959838867188e-01" purity="5.0000000000000000e-01" nType="0">
        <Node pos="l" depth="1" NCoef="0" IVar="2" Cut="4.7562066465616226e-03" cType="1" res="-4.1366168297827244e-03" rms="2.5436085462570190e-01" purity="6.1372077465057373e-01" nType="0">
          <Node pos="l" depth="2" NCoef="0" IVar="-1" Cut="0.0000000000000000e+00" cType="1" res="9.1716134920716286e-03" rms="2.4438799917697906e-01" purity="6.7029297351837158e-01" nType="-99"/>
          <Node pos="r" depth="2" NCoef="0" IVar="-1" Cut="0.0000000000000000e+00" cType="1" res="-1.6681069135665894e-01" rms="2.8621721267700195e-01" purity="4.1286635398864746e-01" nType="-99"/>
        </Node>
        <Node pos="r" depth="1" NCoef="0" IVar="2" Cut="4.7498377971351147e-03" cType="1" res="9.7912540659308434e-03" rms="2.5496426224708557e-01" purity="2.3056493699550629e-01" nType="0">
          <Node pos="l" depth="2" NCoef="0" IVar="-1" Cut="0.0000000000000000e+00" cType="1" res="-2.0445749163627625e-02" rms="2.3028227686882019e-01" purity="1.9811588525772095e-01" nType="-99"/>
          <Node pos="r" depth="2" NCoef="0" IVar="-1" Cut="0.0000000000000000e+00" cType="1" res="2.1928060054779053e-01" rms="2.9243093729019165e-01" purity="2.8801959753036499e-01" nType="-99"/>
        </Node>
      </Node>
    </BinaryTree>
    <BinaryTree type="DecisionTree" boostWeight="1.0000000000000000e+00" itree="28">
      <Node pos="s" depth="0" NCoef="0" IVar="2" Cut="1.9024664536118507e-02" cType="1" res="2.2452220491686603e-06" rms="2.5410589575767517e-01" purity="5.0000000000000000e-01" nType="0">
        <Node pos="l" depth="1" NCoef="0" IVar="7" Cut="7.1008868515491486e-02" cType="1" res="1.0951602598652244e-03" rms="2.5257200002670288e-01" purity="5.1800447702407837e-01" nType="0">
          <Node pos="l" depth="2" NCoef="0" IVar="-1" Cut="0.0000000000000000e+00" cType="1" res="-5.2605986595153809e-02" rms="2.2088412940502167e-01" purity="6.7265415191650391e-01" nType="-99"/>
          <Node pos="r" depth="2" NCoef="0" IVar="-1" Cut="0.0000000000000000e+00" cType="1" res="3.5224717110395432e-02" rms="2.6912716031074524e-01" purity="4.2861154675483704e-01" nType="-99"/>
        </Node>
        <Node pos="r" depth="1" NCoef="0" IVar="19" Cut="4.7619053721427917e-01" cType="1" res="-1.9489821046590805e-02" rms="2.7933841943740845e-01" purity="1.7889118194580078e-01" nType="0">
          <Node pos="l" depth="2" NCoef="0" IVar="-1" Cut="0.0000000000000000e+00" cType="1" res="9.4884768128395081e-02" rms="2.1156702935695648e-01" purity="6.3872300088405609e-02" nType="-99"/>
          <Node pos="r" depth="2" NCoef="0" IVar="-1" Cut="0.0000000000000000e+00" cType="1" res="-2.4082486331462860e-01" rms="3.2131642103195190e-01" purity="2.6945254206657410e-01" nType="-99"/>
        </Node>
      </Node>
    </BinaryTree>
    <BinaryTree type="DecisionTree" boostWeight="1.0000000000000000e+00" itree="29">
      <Node pos="s" depth="0" NCoef="0" IVar="4" Cut="7.8545928001403809e+00" cType="1" res="1.1004645784851164e-05" rms="2.5372728705406189e-01" purity="5.0000000000000000e-01" nType="0">
        <Node pos="l" depth="1" NCoef="0" IVar="5" Cut="8.0915653705596924e-01" cType="1" res="-1.2474480317905545e-03" rms="2.5245714187622070e-01" purity="5.2429240942001343e-01" nType="0">
          <Node pos="l" depth="2" NCoef="0" IVar="-1" Cut="0.0000000000000000e+00" cType="1" res="-2.6410946622490883e-02" rms="2.7022096514701843e-01" purity="4.2308202385902405e-01" nType="-99"/>
          <Node pos="r" depth="2" NCoef="0" IVar="-1" Cut="0.0000000000000000e+00" cType="1" res="1.2643565237522125e-01" rms="1.5819165110588074e-01" purity="9.4499582052230835e-01" nType="-99"/>
        </Node>
        <Node pos="r" depth="1" NCoef="0" IVar="13" Cut="1.4711798727512360e-01" cType="1" res="1.6808202490210533e-02" rms="2.6954740285873413e-01" purity="1.7575740814208984e-01" nType="0">
          <Node pos="l" depth="2" NCoef="0" IVar="-1" Cut="0.0000000000000000e+00" cType="1" res="1.7330580949783325e-01" rms="3.8519045710563660e-01" purity="4.1596767306327820e-01" nType="-99"/>
          <Node pos="r" depth="2" NCoef="0" IVar="-1" Cut="0.0000000000000000e+00" cType="1" res="7.4279077351093292e-02" rms="1.6608777642250061e-01" purity="3.4325052052736282e-02" nType="-99"/>
        </Node>
      </Node>
    </BinaryTree>
    <BinaryTree type="DecisionTree" boostWeight="1.0000000000000000e+00" itree="30">
      <Node pos="s" depth="0" NCoef="0" IVar="13" Cut="6.1612851917743683e-02" cType="1" res="1.0957306949421763e-04" rms="2.5368291139602661e-01" purity="5.0000000000000000e-01" nType="0">
        <Node pos="l" depth="1" NCoef="0" IVar="13" Cut="3.2272990792989731e-02" cType="1" res="-5.6014261208474636e-03" rms="2.4151568114757538e-01" purity="8.8357204198837280e-01" nType="0">
          <Node pos="l" depth="2" NCoef="0" IVar="-1" Cut="0.0000000000000000e+00" cType="1" res="1.3339603319764137e-02" rms="2.2691440582275391e-01" purity="9.0279668569564819e-01" nType="-99"/>
          <Node pos="r" depth="2" NCoef="0" IVar="-1" Cut="0.0000000000000000e+00" cType="1" res="-2.8829655051231384e-01" rms="3.0061936378479004e-01" purity="7.8963416814804077e-01" nType="-99"/>
        </Node>
        <Node pos="r" depth="1" NCoef="0" IVar="19" Cut="4.7619053721427917e-01" cType="1" res="4.4906320981681347e-03" rms="2.6255074143409729e-01" purity="2.0575174689292908e-01" nType="0">
          <Node pos="l" depth="2" NCoef="0" IVar="-1" Cut="0.0000000000000000e+00" cType="1" res="-4.6590361744165421e-02" rms="1.8295006453990936e-01" purity="5.2464883774518967e-02" nType="-99"/>
          <Node pos="r" depth="2" NCoef="0" IVar="-1" Cut="0.0000000000000000e+00" cType="1" res="6.5944418311119080e-02" rms="3.3061406016349792e-01" purity="3.8089439272880554e-01" nType="-99"/>
        </Node>
      </Node>
    </BinaryTree>
    <BinaryTree type="DecisionTree" boostWeight="1.0000000000000000e+00" itree="31">
      <Node pos="s" depth="0" NCoef="0" IVar="26" Cut="1.2142607010900974e-02" cType="1" res="3.2382633071392775e-04" rms="2.5315040349960327e-01" purity="5.0000000000000000e-01" nType="0">
        <Node pos="l" depth="1" NCoef="0" IVar="1" Cut="1.3636791706085205e+00" cType="1" res="-3.6680332850664854e-03" rms="2.3904177546501160e-01" purity="5.9118962287902832e-01" nType="0">
          <Node pos="l" depth="2" NCoef="0" IVar="-1" Cut="0.0000000000000000e+00" cType="1" res="-1.0705353692173958e-02" rms="2.3671409487724304e-01" purity="5.9865653514862061e-01" nType="-99"/>
          <Node pos="r" depth="2" NCoef="0" IVar="-1" Cut="0.0000000000000000e+00" cType="1" res="-2.8382572531700134e-01" rms="2.6498261094093323e-01" purity="4.9570855498313904e-01" nType="-99"/>
        </Node>
        <Node pos="r" depth="1" NCoef="0" IVar="0" Cut="3.8584465026855469e+01" cType="1" res="5.9766205959022045e-03" rms="2.7177947759628296e-01" purity="3.7086811661720276e-01" nType="0">
          <Node pos="l" depth="2" NCoef="0" IVar="-1" Cut="0.0000000000000000e+00" cType="1" res="6.7588068544864655e-02" rms="2.7811533212661743e-01" purity="3.7470918893814087e-01" nType="-99"/>
          <Node pos="r" depth="2" NCoef="0" IVar="-1" Cut="0.0000000000000000e+00" cType="1" res="-2.4866320192813873e-01" rms="2.1474070847034454e-01" purity="3.4119355678558350e-01" nType="-99"/>
        </Node>
      </Node>
    </BinaryTree>
    <BinaryTree type="DecisionTree" boostWeight="1.0000000000000000e+00" itree="32">
      <Node pos="s" depth="0" NCoef="0" IVar="5" Cut="6.5839350223541260e-01" cType="1" res="7.5309304520487785e-05" rms="2.5250452756881714e-01" purity="5.0000000000000000e-01" nType="0">
        <Node pos="l" depth="1" NCoef="0" IVar="6" Cut="5.1787161827087402e+00" cType="1" res="-3.9084819145500660e-03" rms="2.6830083131790161e-01" purity="2.3290701210498810e-01" nType="0">
          <Node pos="l" depth="2" NCoef="0" IVar="-1" Cut="0.0000000000000000e+00" cType="1" res="-4.4831123203039169e-02" rms="2.6715627312660217e-01" purity="2.2998346388339996e-01" nType="-99"/>
          <Node pos="r" depth="2" NCoef="0" IVar="-1" Cut="0.0000000000000000e+00" cType="1" res="4.1372954845428467e-01" rms="2.9445278644561768e-01" purity="3.1938707828521729e-01" nType="-99"/>
        </Node>
        <Node pos="r" depth="1" NCoef="0" IVar="12" Cut="6.1869269609451294e-01" cType="1" res="5.1255263388156891e-03" rms="2.3083302378654480e-01" purity="8.3859145641326904e-01" nType="0">
          <Node pos="l" depth="2" NCoef="0" IVar="-1" Cut="0.0000000000000000e+00" cType="1" res="2.6716608554124832e-02" rms="2.2066678106784821e-01" purity="8.6418098211288452e-01" nType="-99"/>
          <Node pos="r" depth="2" NCoef="0" IVar="-1" Cut="0.0000000000000000e+00" cType="1" res="1.7026406526565552e-01" rms="3.3499687910079956e-01" purity="5.0420117378234863e-01" nType="-99"/>
        </Node>
      </Node>
    </BinaryTree>
    <BinaryTree type="DecisionTree" boostWeight="1.0000000000000000e+00" itree="33">
      <Node pos="s" depth="0" NCoef="0" IVar="10" Cut="6.1904764175415039e-01" cType="1" res="-3.1245752325048670e-05" rms="2.5211608409881592e-01" purity="5.0000000000000000e-01" nType="0">
        <Node pos="l" depth="1" NCoef="0" IVar="9" Cut="3.3333334326744080e-01" cType="1" res="2.2566411644220352e-03" rms="2.6528212428092957e-01" purity="3.4788712859153748e-01" nType="0">
          <Node pos="l" depth="2" NCoef="0" IVar="-1" Cut="0.0000000000000000e+00" cType="1" res="9.6574515104293823e-02" rms="2.9306167364120483e-01" purity="6.9719636440277100e-01" nType="-99"/>
          <Node pos="r" depth="2" NCoef="0" IVar="-1" Cut="0.0000000000000000e+00" cType="1" res="-8.6029395461082458e-03" rms="2.5792911648750305e-01" purity="2.6251801848411560e-01" nType="-99"/>
        </Node>
        <Node pos="r" depth="1" NCoef="0" IVar="22" Cut="1.8278930336236954e-02" cType="1" res="-6.1819124966859818e-03" rms="2.1259646117687225e-01" purity="9.0893441438674927e-01" nType="0">
          <Node pos="l" depth="2" NCoef="0" IVar="-1" Cut="0.0000000000000000e+00" cType="1" res="-3.7384469062089920e-02" rms="2.0029409229755402e-01" purity="9.2547768354415894e-01" nType="-99"/>
          <Node pos="r" depth="2" NCoef="0" IVar="-1" Cut="0.0000000000000000e+00" cType="1" res="-2.5796481966972351e-01" rms="3.3702790737152100e-01" purity="6.7881113290786743e-01" nType="-99"/>
        </Node>
      </Node>
    </BinaryTree>
    <BinaryTree type="DecisionTree" boostWeight="1.0000000000000000e+00" itree="34">
      <Node pos="s" depth="0" NCoef="0" IVar="23" Cut="1.2909337878227234e-01" cType="1" res="1.5693627938162535e-04" rms="2.5172880291938782e-01" purity="5.0000000000000000e-01" nType="0">
        <Node pos="l" depth="1" NCoef="0" IVar="23" Cut="1.2292777188122272e-02" cType="1" res="-4.7980682575143874e-04" rms="2.5066342949867249e-01" purity="5.0685411691665649e-01" nType="0">
          <Node pos="l" depth="2" NCoef="0" IVar="-1" Cut="0.0000000000000000e+00" cType="1" res="5.0412770360708237e-02" rms="2.4854907393455505e-01" purity="6.5956819057464600e-01" nType="-99"/>
          <Node pos="r" depth="2" NCoef="0" IVar="-1" Cut="0.0000000000000000e+00" cType="1" res="-5.5276557803153992e-02" rms="2.5248405337333679e-01" purity="3.6311265826225281e-01" nType="-99"/>
        </Node>
        <Node pos="r" depth="1" NCoef="0" IVar="-1" Cut="0.0000000000000000e+00" cType="1" res="1.3890571892261505e-01" rms="2.8064090013504028e-01" purity="2.9824456572532654e-01" nType="-99"/>
      </Node>
    </BinaryTree>
    <BinaryTree type="DecisionTree" boostWeight="1.0000000000000000e+00" itree="35">
      <Node pos="s" depth="0" NCoef="0" IVar="12" Cut="3.3319380879402161e-01" cType="1" res="1.7318698155577295e-05" rms="2.5146415829658508e-01" purity="5.0000000000000000e-01" nType="0">
        <Node pos="l" depth="1" NCoef="0" IVar="4" Cut="5.7754116058349609e+00" cType="1" res="1.8403207650408149e-03" rms="2.3917886614799500e-01" purity="5.8939200639724731e-01" nType="0">
          <Node pos="l" depth="2" NCoef="0" IVar="-1" Cut="0.0000000000000000e+00" cType="1" res="2.5768211111426353e-02" rms="2.3726032674312592e-01" purity="5.9808111190795898e-01" nType="-99"/>
          <Node pos="r" depth="2" NCoef="0" IVar="-1" Cut="0.0000000000000000e+00" cType="1" res="-2.2536145150661469e-01" rms="2.9129275679588318e-01" purity="3.1613439321517944e-01" nType="-99"/>
        </Node>
        <Node pos="r" depth="1" NCoef="0" IVar="1" Cut="4.7607398033142090e-01" cType="1" res="-4.2232554405927658e-03" rms="2.7790257334709167e-01" purity="2.9206097126007080e-01" nType="0">
          <Node pos="l" depth="2" NCoef="0" IVar="-1" Cut="0.0000000000000000e+00" cType="1" res="-2.0909476280212402e-01" rms="2.4901473522186279e-01" purity="2.9920724034309387e-01" nType="-99"/>
          <Node pos="r" depth="2" NCoef="0" IVar="-1" Cut="0.0000000000000000e+00" cType="1" res="-3.3817756921052933e-03" rms="2.8249821066856384e-01" purity="2.9080736637115479e-01" nType="-99"/>
        </Node>
      </Node>
    </BinaryTree>
    <BinaryTree type="DecisionTree" boostWeight="1.0000000000000000e+00" itree="36">
      <Node pos="s" depth="0" NCoef="0" IVar="0" Cut="6.2330280303955078e+01" cType="1" res="-4.9432778723712545e-06" rms="2.5115281343460083e-01" purity="5.0000000000000000e-01" nType="0">
        <Node pos="l" depth="1" NCoef="0" IVar="0" Cut="1.7475543975830078e+01" cType="1" res="6.0045614372938871e-04" rms="2.5402957201004028e-01" purity="4.9995914101600647e-01" nType="0">
          <Node pos="l" depth="2" NCoef="0" IVar="-1" Cut="0.0000000000000000e+00" cType="1" res="7.2843268513679504e-02" rms="2.8202247619628906e-01" purity="5.0330775976181030e-01" nType="-99"/>
          <Node pos="r" depth="2" NCoef="0" IVar="-1" Cut="0.0000000000000000e+00" cType="1" res="-8.8904783129692078e-02" rms="2.2347594797611237e-01" purity="4.9674370884895325e-01" nType="-99"/>
        </Node>
        <Node pos="r" depth="1" NCoef="0" IVar="16" Cut="1.2690362930297852e+00" cType="1" res="-1.1956535279750824e-02" rms="1.8503305315971375e-01" purity="5.0080609321594238e-01" nType="0">
          <Node pos="l" depth="2" NCoef="0" IVar="-1" Cut="0.0000000000000000e+00" cType="1" res="6.0123812407255173e-02" rms="1.7423528432846069e-01" purity="5.9745764732360840e-01" nType="-99"/>
          <Node pos="r" depth="2" NCoef="0" IVar="-1" Cut="0.0000000000000000e+00" cType="1" res="-4.0843558311462402e-01" rms="1.9810712337493896e-01" purity="3.4981656074523926e-01" nType="-99"/>
        </Node>
      </Node>
    </BinaryTree>
    <BinaryTree type="DecisionTree" boostWeight="1.0000000000000000e+00" itree="37">
      <Node pos="s" depth="0" NCoef="0" IVar="7" Cut="1.4336952567100525e-01" cType="1" res="5.6592700275359675e-05" rms="2.5024229288101196e-01" purity="5.0000000000000000e-01" nType="0">
        <Node pos="l" depth="1" NCoef="0" IVar="5" Cut="7.7007949352264404e-01" cType="1" res="2.0128474570810795e-03" rms="2.4049961566925049e-01" purity="5.0918924808502197e-01" nType="0">
          <Node pos="l" depth="2" NCoef="0" IVar="-1" Cut="0.0000000000000000e+00" cType="1" res="-4.0681059472262859e-03" rms="2.6062726974487305e-01" purity="3.4614440798759460e-01" nType="-99"/>
          <Node pos="r" depth="2" NCoef="0" IVar="-1" Cut="0.0000000000000000e+00" cType="1" res="1.0815743356943130e-01" rms="1.7927095293998718e-01" purity="9.2373222112655640e-01" nType="-99"/>
        </Node>
        <Node pos="r" depth="1" NCoef="0" IVar="1" Cut="1.1899447441101074e+00" cType="1" res="-1.2232810258865356e-02" rms="3.0410823225975037e-01" purity="4.4227212667465210e-01" nType="0">
          <Node pos="l" depth="2" NCoef="0" IVar="-1" Cut="0.0000000000000000e+00" cType="1" res="-3.0568061629310250e-04" rms="2.9468339681625366e-01" purity="5.3467237949371338e-01" nType="-99"/>
          <Node pos="r" depth="2" NCoef="0" IVar="-1" Cut="0.0000000000000000e+00" cType="1" res="-1.5437039732933044e-01" rms="3.1550323963165283e-01" purity="3.1911340355873108e-01" nType="-99"/>
        </Node>
      </Node>
    </BinaryTree>
    <BinaryTree type="DecisionTree" boostWeight="1.0000000000000000e+00" itree="38">
      <Node pos="s" depth="0" NCoef="0" IVar="16" Cut="1.3239701986312866e+00" cType="1" res="9.6425072115380317e-05" rms="2.5008165836334229e-01" purity="5.0000000000000000e-01" nType="0">
        <Node pos="l" depth="1" NCoef="0" IVar="1" Cut="2.2618184089660645e+00" cType="1" res="-2.0515513606369495e-03" rms="2.4751383066177368e-01" purity="5.3425675630569458e-01" nType="0">
          <Node pos="l" depth="2" NCoef="0" IVar="-1" Cut="0.0000000000000000e+00" cType="1" res="-3.2509870827198029e-02" rms="2.4094578623771667e-01" purity="5.3899312019348145e-01" nType="-99"/>
          <Node pos="r" depth="2" NCoef="0" IVar="-1" Cut="0.0000000000000000e+00" cType="1" res="1.1857867240905762e-01" rms="3.2984066009521484e-01" purity="4.6331575512886047e-01" nType="-99"/>
        </Node>
        <Node pos="r" depth="1" NCoef="0" IVar="13" Cut="1.2322570383548737e-01" cType="1" res="6.4388723112642765e-03" rms="2.5740990042686462e-01" purity="3.9884826540946960e-01" nType="0">
          <Node pos="l" depth="2" NCoef="0" IVar="-1" Cut="0.0000000000000000e+00" cType="1" res="-3.8524858653545380e-02" rms="2.6404327154159546e-01" purity="8.0448102951049805e-01" nType="-99"/>
          <Node pos="r" depth="2" NCoef="0" IVar="-1" Cut="0.0000000000000000e+00" cType="1" res="1.0210475325584412e-01" rms="2.5335946679115295e-01" purity="1.6975443065166473e-01" nType="-99"/>
        </Node>
      </Node>
    </BinaryTree>
    <BinaryTree type="DecisionTree" boostWeight="1.0000000000000000e+00" itree="39">
      <Node pos="s" depth="0" NCoef="0" IVar="25" Cut="4.8139849677681923e-03" cType="1" res="-2.0169160052319057e-05" rms="2.4985326826572418e-01" purity="5.0000000000000000e-01" nType="0">
        <Node pos="l" depth="1" NCoef="0" IVar="25" Cut="2.6130094192922115e-03" cType="1" res="5.3704041056334972e-04" rms="2.4961048364639282e-01" purity="5.1312375068664551e-01" nType="0">
          <Node pos="l" depth="2" NCoef="0" IVar="-1" Cut="0.0000000000000000e+00" cType="1" res="-6.3148103654384613e-03" rms="2.4792914092540741e-01" purity="5.3475630283355713e-01" nType="-99"/>
          <Node pos="r" depth="2" NCoef="0" IVar="-1" Cut="0.0000000000000000e+00" cType="1" res="9.9405713379383087e-02" rms="2.6436868309974670e-01" purity="3.1296613812446594e-01" nType="-99"/>
        </Node>
        <Node pos="r" depth="1" NCoef="0" IVar="22" Cut="1.0502554476261139e-02" cType="1" res="-1.3447451405227184e-02" rms="2.5526648759841919e-01" purity="1.8375210464000702e-01" nType="0">
          <Node pos="l" depth="2" NCoef="0" IVar="-1" Cut="0.0000000000000000e+00" cType="1" res="-1.8859295547008514e-01" rms="2.6585572957992554e-01" purity="2.3661638796329498e-01" nType="-99"/>
          <Node pos="r" depth="2" NCoef="0" IVar="-1" Cut="0.0000000000000000e+00" cType="1" res="2.1187031641602516e-02" rms="2.3897890746593475e-01" purity="1.1057500541210175e-01" nType="-99"/>
        </Node>
      </Node>
    </BinaryTree>
    <BinaryTree type="DecisionTree" boostWeight="1.0000000000000000e+00" itree="40">
      <Node pos="s" depth="0" NCoef="0" IVar="22" Cut="3.6637246608734131e-02" cType="1" res="-7.9517458289046772e-06" rms="2.4977260828018188e-01" purity="5.0000000000000000e-01" nType="0">
        <Node pos="l" depth="1" NCoef="0" IVar="22" Cut="1.7445565899834037e-03" cType="1" res="6.8834621924906969e-04" rms="2.5042584538459778e-01" purity="5.2479457855224609e-01" nType="0">
          <Node pos="l" depth="2" NCoef="0" IVar="-1" Cut="0.0000000000000000e+00" cType="1" res="6.2232125550508499e-02" rms="2.3296625912189484e-01" purity="7.2435140609741211e-01" nType="-99"/>
          <Node pos="r" depth="2" NCoef="0" IVar="-1" Cut="0.0000000000000000e+00" cType="1" res="-1.9508494064211845e-02" rms="2.5913116335868835e-01" purity="4.1923570632934570e-01" nType="-99"/>
        </Node>
        <Node pos="r" depth="1" NCoef="0" IVar="19" Cut="1.9047620892524719e-01" cType="1" res="-9.7499853000044823e-03" rms="2.4023544788360596e-01" purity="1.5309433639049530e-01" nType="0">
          <Node pos="l" depth="2" NCoef="0" IVar="-1" Cut="0.0000000000000000e+00" cType="1" res="2.1133334934711456e-01" rms="1.7237119376659393e-01" purity="4.1028160601854324e-02" nType="-99"/>
          <Node pos="r" depth="2" NCoef="0" IVar="-1" Cut="0.0000000000000000e+00" cType="1" res="-1.8619920313358307e-01" rms="2.9825356602668762e-01" purity="2.8159987926483154e-01" nType="-99"/>
        </Node>
      </Node>
    </BinaryTree>
    <BinaryTree type="DecisionTree" boostWeight="1.0000000000000000e+00" itree="41">
      <Node pos="s" depth="0" NCoef="0" IVar="22" Cut="9.1593125835061073e-03" cType="1" res="-1.4810438187851105e-05" rms="2.4949751794338226e-01" purity="5.0000000000000000e-01" nType="0">
        <Node pos="l" depth="1" NCoef="0" IVar="22" Cut="5.6698638945817947e-03" cType="1" res="-2.6289618108421564e-03" rms="2.4920076131820679e-01" purity="6.1372077465057373e-01" nType="0">
          <Node pos="l" depth="2" NCoef="0" IVar="-1" Cut="0.0000000000000000e+00" cType="1" res="3.1345633324235678e-03" rms="2.4597775936126709e-01" purity="6.5102130174636841e-01" nType="-99"/>
          <Node pos="r" depth="2" NCoef="0" IVar="-1" Cut="0.0000000000000000e+00" cType="1" res="-1.4664734899997711e-01" rms="2.6595178246498108e-01" purity="4.0429764986038208e-01" nType="-99"/>
        </Node>
        <Node pos="r" depth="1" NCoef="0" IVar="1" Cut="2.0232515335083008e+00" cType="1" res="6.1788163147866726e-03" rms="2.5009015202522278e-01" purity="2.3056493699550629e-01" nType="0">
          <Node pos="l" depth="2" NCoef="0" IVar="-1" Cut="0.0000000000000000e+00" cType="1" res="9.1758958995342255e-02" rms="2.4187654256820679e-01" purity="2.3583631217479706e-01" nType="-99"/>
          <Node pos="r" depth="2" NCoef="0" IVar="-1" Cut="0.0000000000000000e+00" cType="1" res="-1.2034497410058975e-01" rms="2.9033237695693970e-01" purity="2.0132215321063995e-01" nType="-99"/>
        </Node>
      </Node>
    </BinaryTree>
    <BinaryTree type="DecisionTree" boostWeight="1.0000000000000000e+00" itree="42">
      <Node pos="s" depth="0" NCoef="0" IVar="1" Cut="1.9046908617019653e+00" cType="1" res="-1.4291282241174486e-05" rms="2.4906800687313080e-01" purity="5.0000000000000000e-01" nType="0">
        <Node pos="l" depth="1" NCoef="0" IVar="24" Cut="8.5018025711178780e-03" cType="1" res="-2.0201734732836485e-03" rms="2.3934178054332733e-01" purity="5.2342963218688965e-01" nType="0">
          <Node pos="l" depth="2" NCoef="0" IVar="-1" Cut="0.0000000000000000e+00" cType="1" res="-4.3725982308387756e-02" rms="2.3703286051750183e-01" purity="5.5870717763900757e-01" nType="-99"/>
          <Node pos="r" depth="2" NCoef="0" IVar="-1" Cut="0.0000000000000000e+00" cType="1" res="5.6614186614751816e-02" rms="2.4656963348388672e-01" purity="4.0750446915626526e-01" nType="-99"/>
        </Node>
        <Node pos="r" depth="1" NCoef="0" IVar="24" Cut="-2.4330155923962593e-02" cType="1" res="8.3478838205337524e-03" rms="2.8592258691787720e-01" purity="4.0232580900192261e-01" nType="0">
          <Node pos="l" depth="2" NCoef="0" IVar="-1" Cut="0.0000000000000000e+00" cType="1" res="-1.9929499924182892e-01" rms="2.6443654298782349e-01" purity="1.6099551320075989e-01" nType="-99"/>
          <Node pos="r" depth="2" NCoef="0" IVar="-1" Cut="0.0000000000000000e+00" cType="1" res="9.4101078808307648e-02" rms="2.8902301192283630e-01" purity="4.4323498010635376e-01" nType="-99"/>
        </Node>
      </Node>
    </BinaryTree>
    <BinaryTree type="DecisionTree" boostWeight="1.0000000000000000e+00" itree="43">
      <Node pos="s" depth="0" NCoef="0" IVar="24" Cut="-7.9537313431501389e-03" cType="1" res="1.0076731086883228e-05" rms="2.4863837659358978e-01" purity="5.0000000000000000e-01" nType="0">
        <Node pos="l" depth="1" NCoef="0" IVar="15" Cut="3.0538225173950195e+00" cType="1" res="8.5775842890143394e-03" rms="2.5176122784614563e-01" purity="3.7030032277107239e-01" nType="0">
          <Node pos="l" depth="2" NCoef="0" IVar="-1" Cut="0.0000000000000000e+00" cType="1" res="1.0813793540000916e-01" rms="3.0965298414230347e-01" purity="6.4728605747222900e-01" nType="-99"/>
          <Node pos="r" depth="2" NCoef="0" IVar="-1" Cut="0.0000000000000000e+00" cType="1" res="-1.0604767501354218e-01" rms="1.5207123756408691e-01" purity="3.0116863548755646e-02" nType="-99"/>
        </Node>
        <Node pos="r" depth="1" NCoef="0" IVar="15" Cut="4.4039797782897949e+00" cType="1" res="-2.7373682241886854e-03" rms="2.4756582081317902e-01" purity="5.4159235954284668e-01" nType="0">
          <Node pos="l" depth="2" NCoef="0" IVar="-1" Cut="0.0000000000000000e+00" cType="1" res="-3.6288738250732422e-02" rms="2.7141448855400085e-01" purity="7.2179239988327026e-01" nType="-99"/>
          <Node pos="r" depth="2" NCoef="0" IVar="-1" Cut="0.0000000000000000e+00" cType="1" res="7.9430527985095978e-02" rms="1.6281762719154358e-01" purity="3.6092847585678101e-02" nType="-99"/>
        </Node>
      </Node>
    </BinaryTree>
    <BinaryTree type="DecisionTree" boostWeight="1.0000000000000000e+00" itree="44">
      <Node pos="s" depth="0" NCoef="0" IVar="26" Cut="2.8332749381661415e-02" cType="1" res="-1.0568830475676805e-05" rms="2.4833247065544128e-01" purity="5.0000000000000000e-01" nType="0">
        <Node pos="l" depth="1" NCoef="0" IVar="5" Cut="3.2755962014198303e-01" cType="1" res="1.5613626455888152e-03" rms="2.4649679660797119e-01" purity="5.7834666967391968e-01" nType="0">
          <Node pos="l" depth="2" NCoef="0" IVar="-1" Cut="0.0000000000000000e+00" cType="1" res="2.4195717275142670e-01" rms="2.4035178124904633e-01" purity="1.5041732788085938e-01" nType="-99"/>
          <Node pos="r" depth="2" NCoef="0" IVar="-1" Cut="0.0000000000000000e+00" cType="1" res="7.1399374864995480e-03" rms="2.4663373827934265e-01" purity="5.9064179658889771e-01" nType="-99"/>
        </Node>
        <Node pos="r" depth="1" NCoef="0" IVar="12" Cut="8.5671865940093994e-01" cType="1" res="-5.6350510567426682e-03" rms="2.5471290946006775e-01" purity="2.1967005729675293e-01" nType="0">
          <Node pos="l" depth="2" NCoef="0" IVar="-1" Cut="0.0000000000000000e+00" cType="1" res="-6.7416839301586151e-02" rms="2.5656682252883911e-01" purity="2.3106326162815094e-01" nType="-99"/>
          <Node pos="r" depth="2" NCoef="0" IVar="-1" Cut="0.0000000000000000e+00" cType="1" res="3.7551012635231018e-01" rms="2.2889156639575958e-01" purity="8.3839155733585358e-02" nType="-99"/>
        </Node>
      </Node>
    </BinaryTree>
    <BinaryTree type="DecisionTree" boostWeight="1.0000000000000000e+00" itree="45">
      <Node pos="s" depth="0" NCoef="0" IVar="8" Cut="5.2380955219268799e-01" cType="1" res="-1.3926370593253523e-04" rms="2.4805679917335510e-01" purity="5.0000000000000000e-01" nType="0">
        <Node pos="l" depth="1" NCoef="0" IVar="5" Cut="5.0763046741485596e-01" cType="1" res="-5.3387107327580452e-03" rms="1.9487383961677551e-01" purity="8.4000311791896820e-02" nType="0">
          <Node pos="l" depth="2" NCoef="0" IVar="-1" Cut="0.0000000000000000e+00" cType="1" res="-1.0038729012012482e-01" rms="1.9113886356353760e-01" purity="7.0381939411163330e-02" nType="-99"/>
          <Node pos="r" depth="2" NCoef="0" IVar="-1" Cut="0.0000000000000000e+00" cType="1" res="1.0638033598661423e-01" rms="2.1390144526958466e-01" purity="1.5979370474815369e-01" nType="-99"/>
        </Node>
        <Node pos="r" depth="1" NCoef="0" IVar="7" Cut="1.0032431781291962e-01" cType="1" res="1.7049007583409548e-03" rms="2.6433739066123962e-01" purity="6.4754873514175415e-01" nType="0">
          <Node pos="l" depth="2" NCoef="0" IVar="-1" Cut="0.0000000000000000e+00" cType="1" res="-1.3706119731068611e-02" rms="2.4211053550243378e-01" purity="6.5632766485214233e-01" nType="-99"/>
          <Node pos="r" depth="2" NCoef="0" IVar="-1" Cut="0.0000000000000000e+00" cType="1" res="5.3591318428516388e-02" rms="3.0961865186691284e-01" purity="6.2721556425094604e-01" nType="-99"/>
        </Node>
      </Node>
    </BinaryTree>
    <BinaryTree type="DecisionTree" boostWeight="1.0000000000000000e+00" itree="46">
      <Node pos="s" depth="0" NCoef="0" IVar="12" Cut="9.5198231935501099e-01" cType="1" res="-5.9170626627746969e-05" rms="2.4780310690402985e-01" purity="5.0000000000000000e-01" nType="0">
        <Node pos="l" depth="1" NCoef="0" IVar="22" Cut="1.8318623304367065e-02" cType="1" res="5.6335394037887454e-04" rms="2.5129711627960205e-01" purity="5.1919651031494141e-01" nType="0">
          <Node pos="l" depth="2" NCoef="0" IVar="-1" Cut="0.0000000000000000e+00" cType="1" res="1.4006140641868114e-02" rms="2.5325921177864075e-01" purity="5.8561450242996216e-01" nType="-99"/>
          <Node pos="r" depth="2" NCoef="0" IVar="-1" Cut="0.0000000000000000e+00" cType="1" res="-4.6401742845773697e-02" rms="2.4112765491008759e-01" purity="1.8587087094783783e-01" nType="-99"/>
        </Node>
        <Node pos="r" depth="1" NCoef="0" IVar="15" Cut="4.2620458602905273e+00" cType="1" res="-1.5577005222439766e-02" rms="1.3298903405666351e-01" purity="2.1483985707163811e-02" nType="0">
          <Node pos="l" depth="2" NCoef="0" IVar="-1" Cut="0.0000000000000000e+00" cType="1" res="-3.2238209247589111e-01" rms="1.9386337697505951e-01" purity="4.6779531985521317e-02" nType="-99"/>
          <Node pos="r" depth="2" NCoef="0" IVar="-1" Cut="0.0000000000000000e+00" cType="1" res="-2.9528605937957764e-01" rms="4.1174493730068207e-02" purity="1.6653800848871469e-03" nType="-99"/>
        </Node>
      </Node>
    </BinaryTree>
    <BinaryTree type="DecisionTree" boostWeight="1.0000000000000000e+00" itree="47">
      <Node pos="s" depth="0" NCoef="0" IVar="5" Cut="6.5839350223541260e-01" cType="1" res="-9.4800969236530364e-05" rms="2.4761222302913666e-01" purity="5.0000000000000000e-01" nType="0">
        <Node pos="l" depth="1" NCoef="0" IVar="19" Cut="5.7142847776412964e-01" cType="1" res="-2.4302536621689796e-03" rms="2.6256227493286133e-01" purity="2.3290701210498810e-01" nType="0">
          <Node pos="l" depth="2" NCoef="0" IVar="-1" Cut="0.0000000000000000e+00" cType="1" res="2.0927321165800095e-02" rms="2.3145709931850433e-01" purity="1.4243255555629730e-01" nType="-99"/>
          <Node pos="r" depth="2" NCoef="0" IVar="-1" Cut="0.0000000000000000e+00" cType="1" res="-7.9924829304218292e-02" rms="3.3489647507667542e-01" purity="4.8867210745811462e-01" nType="-99"/>
        </Node>
        <Node pos="r" depth="1" NCoef="0" IVar="15" Cut="4.1527118682861328e+00" cType="1" res="2.8658320661634207e-03" rms="2.2721636295318604e-01" purity="8.3859145641326904e-01" nType="0">
          <Node pos="l" depth="2" NCoef="0" IVar="-1" Cut="0.0000000000000000e+00" cType="1" res="3.8553804159164429e-02" rms="2.2753848135471344e-01" purity="8.8669800758361816e-01" nType="-99"/>
          <Node pos="r" depth="2" NCoef="0" IVar="-1" Cut="0.0000000000000000e+00" cType="1" res="-1.4819024503231049e-01" rms="2.2122186422348022e-01" purity="7.9557746648788452e-02" nType="-99"/>
        </Node>
      </Node>
    </BinaryTree>
    <BinaryTree type="DecisionTree" boostWeight="1.0000000000000000e+00" itree="48">
      <Node pos="s" depth="0" NCoef="0" IVar="26" Cut="1.2142607010900974e-02" cType="1" res="1.8542890757089481e-05" rms="2.4746692180633545e-01" purity="5.0000000000000000e-01" nType="0">
        <Node pos="l" depth="1" NCoef="0" IVar="26" Cut="1.0350943543016911e-02" cType="1" res="-2.5341890286654234e-03" rms="2.3322883248329163e-01" purity="5.9118962287902832e-01" nType="0">
          <Node pos="l" depth="2" NCoef="0" IVar="-1" Cut="0.0000000000000000e+00" cType="1" res="-2.0552007481455803e-03" rms="2.2945010662078857e-01" purity="6.4047193527221680e-01" nType="-99"/>
          <Node pos="r" depth="2" NCoef="0" IVar="-1" Cut="0.0000000000000000e+00" cType="1" res="-1.3188728690147400e-01" rms="2.5217559933662415e-01" purity="3.2676109671592712e-01" nType="-99"/>
        </Node>
        <Node pos="r" depth="1" NCoef="0" IVar="19" Cut="4.2857149243354797e-01" cType="1" res="3.6334167234599590e-03" rms="2.6628839969635010e-01" purity="3.7086811661720276e-01" nType="0">
          <Node pos="l" depth="2" NCoef="0" IVar="-1" Cut="0.0000000000000000e+00" cType="1" res="-4.7042265534400940e-02" rms="1.9759751856327057e-01" purity="5.8151762932538986e-02" nType="-99"/>
          <Node pos="r" depth="2" NCoef="0" IVar="-1" Cut="0.0000000000000000e+00" cType="1" res="5.3179841488599777e-02" rms="3.0829194188117981e-01" purity="6.0839146375656128e-01" nType="-99"/>
        </Node>
      </Node>
    </BinaryTree>
    <BinaryTree type="DecisionTree" boostWeight="1.0000000000000000e+00" itree="49">
      <Node pos="s" depth="0" NCoef="0" IVar="10" Cut="3.3333334326744080e-01" cType="1" res="6.3516145019093528e-06" rms="2.4718649685382843e-01" purity="5.0000000000000000e-01" nType="0">
        <Node pos="l" depth="1" NCoef="0" IVar="13" Cut="2.4645140767097473e-01" cType="1" res="3.9282138459384441e-03" rms="2.0552878081798553e-01" purity="1.2966316938400269e-01" nType="0">
          <Node pos="l" depth="2" NCoef="0" IVar="-1" Cut="0.0000000000000000e+00" cType="1" res="8.2401230931282043e-02" rms="2.9850912094116211e-01" purity="3.6562994122505188e-01" nType="-99"/>
          <Node pos="r" depth="2" NCoef="0" IVar="-1" Cut="0.0000000000000000e+00" cType="1" res="3.6948975175619125e-03" rms="1.5057261288166046e-01" purity="3.1371787190437317e-02" nType="-99"/>
        </Node>
        <Node pos="r" depth="1" NCoef="0" IVar="14" Cut="2.8164401650428772e-01" cType="1" res="-1.7830228898674250e-03" rms="2.6399910449981689e-01" purity="6.6896855831146240e-01" nType="0">
          <Node pos="l" depth="2" NCoef="0" IVar="-1" Cut="0.0000000000000000e+00" cType="1" res="1.0076964972540736e-03" rms="2.6925918459892273e-01" purity="7.5893443822860718e-01" nType="-99"/>
          <Node pos="r" depth="2" NCoef="0" IVar="-1" Cut="0.0000000000000000e+00" cType="1" res="-1.5402446687221527e-01" rms="2.2489914298057556e-01" purity="6.2029462307691574e-02" nType="-99"/>
        </Node>
      </Node>
    </BinaryTree>
    <BinaryTree type="DecisionTree" boostWeight="1.0000000000000000e+00" itree="50">
      <Node pos="s" depth="0" NCoef="0" IVar="13" Cut="1.8483854830265045e-01" cType="1" res="-1.0389668750576675e-04" rms="2.4690924584865570e-01" purity="5.0000000000000000e-01" nType="0">
        <Node pos="l" depth="1" NCoef="0" IVar="15" Cut="2.4178686141967773e+00" cType="1" res="-3.0084881000220776e-03" rms="2.6581478118896484e-01" purity="7.8236210346221924e-01" nType="0">
          <Node pos="l" depth="2" NCoef="0" IVar="-1" Cut="0.0000000000000000e+00" cType="1" res="-7.3231537826359272e-03" rms="2.6394629478454590e-01" purity="8.2698762416839600e-01" nType="-99"/>
          <Node pos="r" depth="2" NCoef="0" IVar="-1" Cut="0.0000000000000000e+00" cType="1" res="-1.7484699189662933e-01" rms="2.8711673617362976e-01" purity="2.1754242479801178e-01" nType="-99"/>
        </Node>
        <Node pos="r" depth="1" NCoef="0" IVar="10" Cut="5.2380955219268799e-01" cType="1" res="4.1411626152694225e-03" rms="2.1625690162181854e-01" purity="8.7327882647514343e-02" nType="0">
          <Node pos="l" depth="2" NCoef="0" IVar="-1" Cut="0.0000000000000000e+00" cType="1" res="1.5613590367138386e-02" rms="2.0256385207176208e-01" purity="7.1667738258838654e-02" nType="-99"/>
          <Node pos="r" depth="2" NCoef="0" IVar="-1" Cut="0.0000000000000000e+00" cType="1" res="2.0588253438472748e-01" rms="3.3966460824012756e-01" purity="2.7835682034492493e-01" nType="-99"/>
        </Node>
      </Node>
    </BinaryTree>
    <BinaryTree type="DecisionTree" boostWeight="1.0000000000000000e+00" itree="51">
      <Node pos="s" depth="0" NCoef="0" IVar="11" Cut="1.3904762268066406e+01" cType="1" res="-6.2684652220923454e-05" rms="2.4661085009574890e-01" purity="5.0000000000000000e-01" nType="0">
        <Node pos="l" depth="1" NCoef="0" IVar="1" Cut="2.3802158832550049e+00" cType="1" res="-2.3613923694938421e-03" rms="2.5736916065216064e-01" purity="6.6883951425552368e-01" nType="0">
          <Node pos="l" depth="2" NCoef="0" IVar="-1" Cut="0.0000000000000000e+00" cType="1" res="-1.2080897577106953e-02" rms="2.5413289666175842e-01" purity="6.7143541574478149e-01" nType="-99"/>
          <Node pos="r" depth="2" NCoef="0" IVar="-1" Cut="0.0000000000000000e+00" cType="1" res="-2.1820594370365143e-01" rms="3.6712554097175598e-01" purity="5.5893999338150024e-01" nType="-99"/>
        </Node>
        <Node pos="r" depth="1" NCoef="0" IVar="17" Cut="3.6899080276489258e+00" cType="1" res="3.0671937856823206e-03" rms="2.3112219572067261e-01" purity="2.7011123299598694e-01" nType="0">
          <Node pos="l" depth="2" NCoef="0" IVar="-1" Cut="0.0000000000000000e+00" cType="1" res="6.4604833722114563e-02" rms="2.4202331900596619e-01" purity="3.5097572207450867e-01" nType="-99"/>
          <Node pos="r" depth="2" NCoef="0" IVar="-1" Cut="0.0000000000000000e+00" cType="1" res="-4.4181533157825470e-02" rms="2.1062578260898590e-01" purity="1.2939010560512543e-01" nType="-99"/>
        </Node>
      </Node>
    </BinaryTree>
    <BinaryTree type="DecisionTree" boostWeight="1.0000000000000000e+00" itree="52">
      <Node pos="s" depth="0" NCoef="0" IVar="16" Cut="2.6479403972625732e+00" cType="1" res="1.2623409929801710e-05" rms="2.4643458425998688e-01" purity="5.0000000000000000e-01" nType="0">
        <Node pos="l" depth="1" NCoef="0" IVar="23" Cut="1.2909337878227234e-01" cType="1" res="9.5881451852619648e-04" rms="2.4511305987834930e-01" purity="5.2370822429656982e-01" nType="0">
          <Node pos="l" depth="2" NCoef="0" IVar="-1" Cut="0.0000000000000000e+00" cType="1" res="1.2788377702236176e-02" rms="2.4451714754104614e-01" purity="5.3028100728988647e-01" nType="-99"/>
          <Node pos="r" depth="2" NCoef="0" IVar="-1" Cut="0.0000000000000000e+00" cType="1" res="-1.2449803203344345e-01" rms="2.6506501436233521e-01" purity="2.8804451227188110e-01" nType="-99"/>
        </Node>
        <Node pos="r" depth="1" NCoef="0" IVar="12" Cut="2.3799557983875275e-01" cType="1" res="-6.6388500854372978e-03" rms="2.5543290376663208e-01" purity="3.3333724737167358e-01" nType="0">
          <Node pos="l" depth="2" NCoef="0" IVar="-1" Cut="0.0000000000000000e+00" cType="1" res="1.3228271156549454e-02" rms="2.4863313138484955e-01" purity="4.2563804984092712e-01" nType="-99"/>
          <Node pos="r" depth="2" NCoef="0" IVar="-1" Cut="0.0000000000000000e+00" cType="1" res="-1.4107075333595276e-01" rms="2.6388815045356750e-01" purity="2.0913434028625488e-01" nType="-99"/>
        </Node>
      </Node>
    </BinaryTree>
    <BinaryTree type="DecisionTree" boostWeight="1.0000000000000000e+00" itree="53">
      <Node pos="s" depth="0" NCoef="0" IVar="13" Cut="6.1612851917743683e-02" cType="1" res="-2.3873582904343493e-05" rms="2.4624910950660706e-01" purity="5.0000000000000000e-01" nType="0">
        <Node pos="l" depth="1" NCoef="0" IVar="7" Cut="7.1008868515491486e-02" cType="1" res="-2.5922479107975960e-03" rms="2.3512193560600281e-01" purity="8.8357204198837280e-01" nType="0">
          <Node pos="l" depth="2" NCoef="0" IVar="-1" Cut="0.0000000000000000e+00" cType="1" res="4.1462846100330353e-02" rms="1.9804847240447998e-01" purity="9.2150962352752686e-01" nType="-99"/>
          <Node pos="r" depth="2" NCoef="0" IVar="-1" Cut="0.0000000000000000e+00" cType="1" res="-7.1266554296016693e-02" rms="2.6932701468467712e-01" purity="8.4262257814407349e-01" nType="-99"/>
        </Node>
        <Node pos="r" depth="1" NCoef="0" IVar="0" Cut="3.1257156372070312e+01" cType="1" res="1.9463946809992194e-03" rms="2.5443789362907410e-01" purity="2.0575174689292908e-01" nType="0">
          <Node pos="l" depth="2" NCoef="0" IVar="-1" Cut="0.0000000000000000e+00" cType="1" res="3.5514989867806435e-03" rms="2.6513379812240601e-01" purity="2.2719314694404602e-01" nType="-99"/>
          <Node pos="r" depth="2" NCoef="0" IVar="-1" Cut="0.0000000000000000e+00" cType="1" res="1.2472615391016006e-01" rms="1.9515715539455414e-01" purity="1.0315473377704620e-01" nType="-99"/>
        </Node>
      </Node>
    </BinaryTree>
    <BinaryTree type="DecisionTree" boostWeight="1.0000000000000000e+00" itree="54">
      <Node pos="s" depth="0" NCoef="0" IVar="12" Cut="1.4279735088348389e-01" cType="1" res="4.2935927922371775e-05" rms="2.4614210426807404e-01" purity="5.0000000000000000e-01" nType="0">
        <Node pos="l" depth="1" NCoef="0" IVar="23" Cut="4.6656399965286255e-02" cType="1" res="-4.3553691357374191e-03" rms="2.2180321812629700e-01" purity="6.3206988573074341e-01" nType="0">
          <Node pos="l" depth="2" NCoef="0" IVar="-1" Cut="0.0000000000000000e+00" cType="1" res="-1.8847119063138962e-02" rms="2.2151717543601990e-01" purity="7.2546023130416870e-01" nType="-99"/>
          <Node pos="r" depth="2" NCoef="0" IVar="-1" Cut="0.0000000000000000e+00" cType="1" res="-1.1946327984333038e-01" rms="2.2251042723655701e-01" purity="3.3553344011306763e-01" nType="-99"/>
        </Node>
        <Node pos="r" depth="1" NCoef="0" IVar="22" Cut="9.1394660994410515e-03" cType="1" res="2.5918430183082819e-03" rms="2.5916895270347595e-01" purity="4.2346283793449402e-01" nType="0">
          <Node pos="l" depth="2" NCoef="0" IVar="-1" Cut="0.0000000000000000e+00" cType="1" res="4.5134564861655235e-03" rms="2.6434841752052307e-01" purity="5.2700942754745483e-01" nType="-99"/>
          <Node pos="r" depth="2" NCoef="0" IVar="-1" Cut="0.0000000000000000e+00" cType="1" res="5.8557581156492233e-02" rms="2.4807931482791901e-01" purity="2.0962834358215332e-01" nType="-99"/>
        </Node>
      </Node>
    </BinaryTree>
    <BinaryTree type="DecisionTree" boostWeight="1.0000000000000000e+00" itree="55">
      <Node pos="s" depth="0" NCoef="0" IVar="25" Cut="-9.6290878718718886e-04" cType="1" res="-8.6697073129471391e-06" rms="2.4603922665119171e-01" purity="5.0000000000000000e-01" nType="0">
        <Node pos="l" depth="1" NCoef="0" IVar="25" Cut="-1.5131469117477536e-03" cType="1" res="-3.1939842738211155e-03" rms="2.5314813852310181e-01" purity="4.1168704628944397e-01" nType="0">
          <Node pos="l" depth="2" NCoef="0" IVar="-1" Cut="0.0000000000000000e+00" cType="1" res="1.7149554332718253e-03" rms="2.5596511363983154e-01" purity="3.5717439651489258e-01" nType="-99"/>
          <Node pos="r" depth="2" NCoef="0" IVar="-1" Cut="0.0000000000000000e+00" cType="1" res="-1.1716071516275406e-01" rms="2.4456894397735596e-01" purity="5.6904214620590210e-01" nType="-99"/>
        </Node>
        <Node pos="r" depth="1" NCoef="0" IVar="4" Cut="1.1784720420837402e+01" cType="1" res="1.4218104770407081e-03" rms="2.4276539683341980e-01" purity="5.3966009616851807e-01" nType="0">
          <Node pos="l" depth="2" NCoef="0" IVar="-1" Cut="0.0000000000000000e+00" cType="1" res="1.6943024471402168e-02" rms="2.4302300810813904e-01" purity="5.5575823783874512e-01" nType="-99"/>
          <Node pos="r" depth="2" NCoef="0" IVar="-1" Cut="0.0000000000000000e+00" cType="1" res="-1.1857812851667404e-01" rms="2.3560322821140289e-01" purity="1.2051346898078918e-01" nType="-99"/>
        </Node>
      </Node>
    </BinaryTree>
    <BinaryTree type="DecisionTree" boostWeight="1.0000000000000000e+00" itree="56">
      <Node pos="s" depth="0" NCoef="0" IVar="4" Cut="7.8545928001403809e+00" cType="1" res="1.4750886293768417e-05" rms="2.4595619738101959e-01" purity="5.0000000000000000e-01" nType="0">
        <Node pos="l" depth="1" NCoef="0" IVar="25" Cut="-2.8885400388389826e-03" cType="1" res="-6.7288038553670049e-04" rms="2.4473558366298676e-01" purity="5.2429240942001343e-01" nType="0">
          <Node pos="l" depth="2" NCoef="0" IVar="-1" Cut="0.0000000000000000e+00" cType="1" res="-6.5138459205627441e-02" rms="2.5859740376472473e-01" purity="2.6248705387115479e-01" nType="-99"/>
          <Node pos="r" depth="2" NCoef="0" IVar="-1" Cut="0.0000000000000000e+00" cType="1" res="2.1215484011918306e-03" rms="2.4295078217983246e-01" purity="5.5666828155517578e-01" nType="-99"/>
        </Node>
        <Node pos="r" depth="1" NCoef="0" IVar="10" Cut="3.3333334326744080e-01" cType="1" res="9.1929091140627861e-03" rms="2.6153078675270081e-01" purity="1.7575740814208984e-01" nType="0">
          <Node pos="l" depth="2" NCoef="0" IVar="-1" Cut="0.0000000000000000e+00" cType="1" res="-1.4909067749977112e-01" rms="1.7464393377304077e-01" purity="4.9602553248405457e-02" nType="-99"/>
          <Node pos="r" depth="2" NCoef="0" IVar="-1" Cut="0.0000000000000000e+00" cType="1" res="1.4542637765407562e-01" rms="3.0263826251029968e-01" purity="2.5405600666999817e-01" nType="-99"/>
        </Node>
      </Node>
    </BinaryTree>
    <BinaryTree type="DecisionTree" boostWeight="1.0000000000000000e+00" itree="57">
      <Node pos="s" depth="0" NCoef="0" IVar="25" Cut="-1.6047859098762274e-03" cType="1" res="-2.5568324417690746e-05" rms="2.4583768844604492e-01" purity="5.0000000000000000e-01" nType="0">
        <Node pos="l" depth="1" NCoef="0" IVar="0" Cut="3.0461462020874023e+01" cType="1" res="4.2664636857807636e-03" rms="2.5573965907096863e-01" purity="3.4866976737976074e-01" nType="0">
          <Node pos="l" depth="2" NCoef="0" IVar="-1" Cut="0.0000000000000000e+00" cType="1" res="5.6008432060480118e-02" rms="2.6603481173515320e-01" purity="3.6477062106132507e-01" nType="-99"/>
          <Node pos="r" depth="2" NCoef="0" IVar="-1" Cut="0.0000000000000000e+00" cType="1" res="-1.2697304785251617e-01" rms="2.0081873238086700e-01" purity="2.7429300546646118e-01" nType="-99"/>
        </Node>
        <Node pos="r" depth="1" NCoef="0" IVar="3" Cut="7.6174721121788025e-02" cType="1" res="-1.2309369631111622e-03" rms="2.4297063052654266e-01" purity="5.4249936342239380e-01" nType="0">
          <Node pos="l" depth="2" NCoef="0" IVar="-1" Cut="0.0000000000000000e+00" cType="1" res="-7.0529002696275711e-03" rms="2.4227815866470337e-01" purity="5.5023771524429321e-01" nType="-99"/>
          <Node pos="r" depth="2" NCoef="0" IVar="-1" Cut="0.0000000000000000e+00" cType="1" res="-1.7545402050018311e-01" rms="2.7464178204536438e-01" purity="1.5315598249435425e-01" nType="-99"/>
        </Node>
      </Node>
    </BinaryTree>
    <BinaryTree type="DecisionTree" boostWeight="1.0000000000000000e+00" itree="58">
      <Node pos="s" depth="0" NCoef="0" IVar="1" Cut="2.0237333774566650e+00" cType="1" res="-6.6777292886399664e-06" rms="2.4565050005912781e-01" purity="5.0000000000000000e-01" nType="0">
        <Node pos="l" depth="1" NCoef="0" IVar="12" Cut="8.0918496847152710e-01" cType="1" res="-8.7914342293515801e-04" rms="2.3676420748233795e-01" purity="5.1351541280746460e-01" nType="0">
          <Node pos="l" depth="2" NCoef="0" IVar="-1" Cut="0.0000000000000000e+00" cType="1" res="-2.6483918190933764e-04" rms="2.3999580740928650e-01" purity="5.5952107906341553e-01" nType="-99"/>
          <Node pos="r" depth="2" NCoef="0" IVar="-1" Cut="0.0000000000000000e+00" cType="1" res="-1.1870488524436951e-01" rms="2.0349723100662231e-01" purity="7.8309305012226105e-02" nType="-99"/>
        </Node>
        <Node pos="r" depth="1" NCoef="0" IVar="17" Cut="2.4164123535156250e+00" cType="1" res="5.3906850516796112e-03" rms="2.9467001557350159e-01" purity="4.1638898849487305e-01" nType="0">
          <Node pos="l" depth="2" NCoef="0" IVar="-1" Cut="0.0000000000000000e+00" cType="1" res="-3.3991079777479172e-02" rms="3.0057302117347717e-01" purity="4.8116230964660645e-01" nType="-99"/>
          <Node pos="r" depth="2" NCoef="0" IVar="-1" Cut="0.0000000000000000e+00" cType="1" res="2.1228423714637756e-01" rms="2.7865111827850342e-01" purity="2.6354199647903442e-01" nType="-99"/>
        </Node>
      </Node>
    </BinaryTree>
    <BinaryTree type="DecisionTree" boostWeight="1.0000000000000000e+00" itree="59">
      <Node pos="s" depth="0" NCoef="0" IVar="12" Cut="5.2359026670455933e-01" cType="1" res="-6.0064390709158033e-05" rms="2.4535705149173737e-01" purity="5.0000000000000000e-01" nType="0">
        <Node pos="l" depth="1" NCoef="0" IVar="12" Cut="4.7370445728302002e-01" cType="1" res="-1.3261398999020457e-03" rms="2.3838034272193909e-01" purity="5.6290596723556519e-01" nType="0">
          <Node pos="l" depth="2" NCoef="0" IVar="-1" Cut="0.0000000000000000e+00" cType="1" res="-6.9091357290744781e-03" rms="2.3670975863933563e-01" purity="5.6826782226562500e-01" nType="-99"/>
          <Node pos="r" depth="2" NCoef="0" IVar="-1" Cut="0.0000000000000000e+00" cType="1" res="-1.4950692653656006e-01" rms="2.9436382651329041e-01" purity="3.5820531845092773e-01" nType="-99"/>
        </Node>
        <Node pos="r" depth="1" NCoef="0" IVar="13" Cut="1.0126608610153198e-01" cType="1" res="4.7244052402675152e-03" rms="2.7004590630531311e-01" purity="2.6227989792823792e-01" nType="0">
          <Node pos="l" depth="2" NCoef="0" IVar="-1" Cut="0.0000000000000000e+00" cType="1" res="7.3862269520759583e-02" rms="3.5354176163673401e-01" purity="6.2966483831405640e-01" nType="-99"/>
          <Node pos="r" depth="2" NCoef="0" IVar="-1" Cut="0.0000000000000000e+00" cType="1" res="-1.7223387956619263e-02" rms="2.1233294904232025e-01" purity="6.6585376858711243e-02" nType="-99"/>
        </Node>
      </Node>
    </BinaryTree>
    <BinaryTree type="DecisionTree" boostWeight="1.0000000000000000e+00" itree="60">
      <Node pos="s" depth="0" NCoef="0" IVar="15" Cut="4.4039797782897949e+00" cType="1" res="1.2322861948632635e-05" rms="2.4523444473743439e-01" purity="5.0000000000000000e-01" nType="0">
