<?xml version="1.0"?>
<MethodSetup Method="BDT::Shrinkage .01">
  <GeneralInfo>
    <Info name="TMVA Release" value="4.2.1 [262657]"/>
    <Info name="ROOT Release" value="6.14/07 [396807]"/>
    <Info name="Creator" value="mchristos"/>
    <Info name="Date" value="Wed Nov 21 11:29:45 2018"/>
    <Info name="Host" value="Linux cmsbuild02.cern.ch 2.6.32-754.3.5.el6.x86_64 #1 SMP Wed Aug 15 08:57:36 CEST 2018 x86_64 x86_64 x86_64 GNU/Linux"/>
    <Info name="Dir" value="/cms/mchristos/ANN/FireMVA/2016"/>
    <Info name="Training events" value="106990"/>
    <Info name="TrainingTime" value="4.25945001e+01"/>
    <Info name="AnalysisType" value="Classification"/>
  </GeneralInfo>
  <Options>
    <Option name="V" modified="Yes">False</Option>
    <Option name="VerbosityLevel" modified="No">Default</Option>
    <Option name="VarTransform" modified="No">None</Option>
    <Option name="H" modified="Yes">False</Option>
    <Option name="CreateMVAPdfs" modified="No">False</Option>
    <Option name="IgnoreNegWeightsInTraining" modified="No">False</Option>
    <Option name="NTrees" modified="Yes">150</Option>
    <Option name="MaxDepth" modified="Yes">2</Option>
    <Option name="MinNodeSize" modified="Yes">2.5%</Option>
    <Option name="nCuts" modified="Yes">20</Option>
    <Option name="BoostType" modified="Yes">Grad</Option>
    <Option name="AdaBoostR2Loss" modified="No">quadratic</Option>
    <Option name="UseBaggedBoost" modified="No">False</Option>
    <Option name="Shrinkage" modified="Yes">1.000000e-02</Option>
    <Option name="AdaBoostBeta" modified="No">5.000000e-01</Option>
    <Option name="UseRandomisedTrees" modified="No">False</Option>
    <Option name="UseNvars" modified="No">5</Option>
    <Option name="UsePoissonNvars" modified="No">True</Option>
    <Option name="BaggedSampleFraction" modified="No">6.000000e-01</Option>
    <Option name="UseYesNoLeaf" modified="No">True</Option>
    <Option name="NegWeightTreatment" modified="No">pray</Option>
    <Option name="Css" modified="No">1.000000e+00</Option>
    <Option name="Cts_sb" modified="No">1.000000e+00</Option>
    <Option name="Ctb_ss" modified="No">1.000000e+00</Option>
    <Option name="Cbb" modified="No">1.000000e+00</Option>
    <Option name="NodePurityLimit" modified="No">5.000000e-01</Option>
    <Option name="SeparationType" modified="No">giniindex</Option>
    <Option name="RegressionLossFunctionBDTG" modified="No">huber</Option>
    <Option name="HuberQuantile" modified="No">7.000000e-01</Option>
    <Option name="DoBoostMonitor" modified="No">False</Option>
    <Option name="UseFisherCuts" modified="No">False</Option>
    <Option name="MinLinCorrForFisher" modified="No">8.000000e-01</Option>
    <Option name="UseExclusiveVars" modified="No">False</Option>
    <Option name="DoPreselection" modified="No">False</Option>
    <Option name="SigToBkgFraction" modified="No">1.000000e+00</Option>
    <Option name="PruneMethod" modified="No">nopruning</Option>
    <Option name="PruneStrength" modified="No">0.000000e+00</Option>
    <Option name="PruningValFraction" modified="No">5.000000e-01</Option>
    <Option name="SkipNormalization" modified="No">False</Option>
    <Option name="nEventsMin" modified="No">0</Option>
    <Option name="UseBaggedGrad" modified="No">False</Option>
    <Option name="GradBaggingFraction" modified="No">6.000000e-01</Option>
    <Option name="UseNTrainEvents" modified="No">0</Option>
    <Option name="NNodesMax" modified="No">0</Option>
  </Options>
  <Variables NVar="27">
    <Variable VarIndex="0" Expression="ElectronPt" Label="ElectronPt" Title="ElectronPt" Unit="" Internal="ElectronPt" Type="F" Min="1.00000029e+01" Max="7.12531372e+02"/>
    <Variable VarIndex="1" Expression="abs(ElectronEta)" Label="abs(ElectronEta)" Title="abs(ElectronEta)" Unit="" Internal="abs_ElectronEta_" Type="F" Min="2.89801610e-05" Max="2.49977112e+00"/>
    <Variable VarIndex="2" Expression="ElectronDXY" Label="ElectronDXY" Title="ElectronDXY" Unit="" Internal="ElectronDXY" Type="F" Min="2.20267484e-08" Max="9.99909341e-02"/>
    <Variable VarIndex="3" Expression="ElectronDZ" Label="ElectronDZ" Title="ElectronDZ" Unit="" Internal="ElectronDZ" Type="F" Min="4.56618388e-08" Max="1.99988604e-01"/>
    <Variable VarIndex="4" Expression="ElectronSIP3D" Label="ElectronSIP3D" Title="ElectronSIP3D" Unit="" Internal="ElectronSIP3D" Type="F" Min="8.30443460e-04" Max="5.47749519e+01"/>
    <Variable VarIndex="5" Expression="ElectronPtRatio" Label="ElectronPtRatio" Title="ElectronPtRatio" Unit="" Internal="ElectronPtRatio" Type="F" Min="-1.00000000e+00" Max="5.81726551e+00"/>
    <Variable VarIndex="6" Expression="ElectronPtRel" Label="ElectronPtRel" Title="ElectronPtRel" Unit="" Internal="ElectronPtRel" Type="F" Min="-1.00000000e+00" Max="4.26082794e+02"/>
    <Variable VarIndex="7" Expression="ElectronJetLRM" Label="ElectronJetLRM" Title="ElectronJetLRM" Unit="" Internal="ElectronJetLRM" Type="F" Min="-1.00000000e+00" Max="3.14764947e-01"/>
    <Variable VarIndex="8" Expression="ElectronJetFD" Label="ElectronJetFD" Title="ElectronJetFD" Unit="" Internal="ElectronJetFD" Type="F" Min="-1.00000000e+00" Max="1.00000000e+00"/>
    <Variable VarIndex="9" Expression="ElectronJetInOutRatio" Label="ElectronJetInOutRatio" Title="ElectronJetInOutRatio" Unit="" Internal="ElectronJetInOutRatio" Type="F" Min="-9.99900000e+03" Max="1.00000000e+00"/>
    <Variable VarIndex="10" Expression="ElectronJetZest" Label="ElectronJetZest" Title="ElectronJetZest" Unit="" Internal="ElectronJetZest" Type="F" Min="-1.00000000e+00" Max="1.00000000e+00"/>
    <Variable VarIndex="11" Expression="ElectronJetNoOfConst" Label="ElectronJetNoOfConst" Title="ElectronJetNoOfConst" Unit="" Internal="ElectronJetNoOfConst" Type="F" Min="0.00000000e+00" Max="5.70000000e+01"/>
    <Variable VarIndex="12" Expression="ElectronJetCSV" Label="ElectronJetCSV" Title="ElectronJetCSV" Unit="" Internal="ElectronJetCSV" Type="F" Min="0.00000000e+00" Max="9.99967813e-01"/>
    <Variable VarIndex="13" Expression="ElectronRelPFIsoPUCorr" Label="ElectronRelPFIsoPUCorr" Title="ElectronRelPFIsoPUCorr" Unit="" Internal="ElectronRelPFIsoPUCorr" Type="F" Min="0.00000000e+00" Max="9.99988317e-01"/>
    <Variable VarIndex="14" Expression="ElectronRelTrkIso" Label="ElectronRelTrkIso" Title="ElectronRelTrkIso" Unit="" Internal="ElectronRelTrkIso" Type="F" Min="0.00000000e+00" Max="5.43433167e+02"/>
    <Variable VarIndex="15" Expression="ElectronPFChargedHadronIso" Label="ElectronPFChargedHadronIso" Title="ElectronPFChargedHadronIso" Unit="" Internal="ElectronPFChargedHadronIso" Type="F" Min="0.00000000e+00" Max="1.95124496e+02"/>
    <Variable VarIndex="16" Expression="ElectronPFNeutralHadronIso" Label="ElectronPFNeutralHadronIso" Title="ElectronPFNeutralHadronIso" Unit="" Internal="ElectronPFNeutralHadronIso" Type="F" Min="0.00000000e+00" Max="8.49326248e+01"/>
    <Variable VarIndex="17" Expression="ElectronPFPhotonIso" Label="ElectronPFPhotonIso" Title="ElectronPFPhotonIso" Unit="" Internal="ElectronPFPhotonIso" Type="F" Min="0.00000000e+00" Max="5.09028748e+02"/>
    <Variable VarIndex="18" Expression="ElectronJetMuonEnergyFraction" Label="ElectronJetMuonEnergyFraction" Title="ElectronJetMuonEnergyFraction" Unit="" Internal="ElectronJetMuonEnergyFraction" Type="F" Min="0.00000000e+00" Max="9.05217230e-01"/>
    <Variable VarIndex="19" Expression="ElectronJetElectronEnergyFraction" Label="ElectronJetElectronEnergyFraction" Title="ElectronJetElectronEnergyFraction" Unit="" Internal="ElectronJetElectronEnergyFraction" Type="F" Min="0.00000000e+00" Max="1.00000012e+00"/>
    <Variable VarIndex="20" Expression="ElectronMissingHits" Label="ElectronMissingHits" Title="ElectronMissingHits" Unit="" Internal="ElectronMissingHits" Type="F" Min="0.00000000e+00" Max="3.00000000e+00"/>
    <Variable VarIndex="21" Expression="ElectronPassConversionVeto" Label="ElectronPassConversionVeto" Title="ElectronPassConversionVeto" Unit="" Internal="ElectronPassConversionVeto" Type="F" Min="1.00000000e+00" Max="1.00000000e+00"/>
    <Variable VarIndex="22" Expression="ElectronEInverseMinusPInverse" Label="ElectronEInverseMinusPInverse" Title="ElectronEInverseMinusPInverse" Unit="" Internal="ElectronEInverseMinusPInverse" Type="F" Min="6.37706554e-09" Max="2.97991425e-01"/>
    <Variable VarIndex="23" Expression="ElectronHoE" Label="ElectronHoE" Title="ElectronHoE" Unit="" Internal="ElectronHoE" Type="F" Min="0.00000000e+00" Max="3.55959296e-01"/>
    <Variable VarIndex="24" Expression="ElectronDeltaPhiTrkSC" Label="ElectronDeltaPhiTrkSC" Title="ElectronDeltaPhiTrkSC" Unit="" Internal="ElectronDeltaPhiTrkSC" Type="F" Min="-2.27979422e-01" Max="2.27120370e-01"/>
    <Variable VarIndex="25" Expression="ElectronDeltaEtaTrkSeedSC" Label="ElectronDeltaEtaTrkSeedSC" Title="ElectronDeltaEtaTrkSeedSC" Unit="" Internal="ElectronDeltaEtaTrkSeedSC" Type="F" Min="-8.94999504e-03" Max="8.94991495e-03"/>
    <Variable VarIndex="26" Expression="ElectronFull5x5SigmaIEtaIEta" Label="ElectronFull5x5SigmaIEtaIEta" Title="ElectronFull5x5SigmaIEtaIEta" Unit="" Internal="ElectronFull5x5SigmaIEtaIEta" Type="F" Min="0.00000000e+00" Max="3.69998217e-02"/>
  </Variables>
  <Spectators NSpec="0"/>
  <Classes NClass="2">
    <Class Name="Background" Index="0"/>
    <Class Name="Signal" Index="1"/>
  </Classes>
  <Transformations NTransformations="0"/>
  <MVAPdfs/>
  <Weights NTrees="150" AnalysisType="1">
    <BinaryTree type="DecisionTree" boostWeight="1.0000000000000000e+00" itree="0">
      <Node pos="s" depth="0" NCoef="0" IVar="12" Cut="5.7141017913818359e-01" cType="1" res="-5.1866788666973750e-17" rms="5.0000000000000000e-01" purity="5.0000000000000000e-01" nType="0">
        <Node pos="l" depth="1" NCoef="0" IVar="19" Cut="4.7619052231311798e-02" cType="1" res="-1.8106952309608459e-01" rms="4.6606203913688660e-01" purity="3.1893047690391541e-01" nType="0">
          <Node pos="l" depth="2" NCoef="0" IVar="-1" Cut="0.0000000000000000e+00" cType="1" res="-5.8132465928792953e-03" rms="4.0683585405349731e-01" purity="2.0933768153190613e-01" nType="-99"/>
          <Node pos="r" depth="2" NCoef="0" IVar="-1" Cut="0.0000000000000000e+00" cType="1" res="-2.6588125620037317e-03" rms="4.8200288414955139e-01" purity="3.6705935001373291e-01" nType="-99"/>
        </Node>
        <Node pos="r" depth="1" NCoef="0" IVar="12" Cut="8.1630170345306396e-01" cType="1" res="2.4228680133819580e-01" rms="4.3737524747848511e-01" purity="7.4228680133819580e-01" nType="0">
          <Node pos="l" depth="2" NCoef="0" IVar="-1" Cut="0.0000000000000000e+00" cType="1" res="2.1946870256215334e-03" rms="4.8780977725982666e-01" purity="6.0973435640335083e-01" nType="-99"/>
          <Node pos="r" depth="2" NCoef="0" IVar="-1" Cut="0.0000000000000000e+00" cType="1" res="6.0136211104691029e-03" rms="3.9948830008506775e-01" purity="8.0068099498748779e-01" nType="-99"/>
        </Node>
      </Node>
    </BinaryTree>
    <BinaryTree type="DecisionTree" boostWeight="1.0000000000000000e+00" itree="1">
      <Node pos="s" depth="0" NCoef="0" IVar="12" Cut="5.7141017913818359e-01" cType="1" res="1.4779950596732760e-09" rms="4.9900004267692566e-01" purity="5.0000000000000000e-01" nType="0">
        <Node pos="l" depth="1" NCoef="0" IVar="19" Cut="4.7619052231311798e-02" cType="1" res="-1.7925883829593658e-01" rms="4.6594944596290588e-01" purity="3.1893047690391541e-01" nType="0">
          <Node pos="l" depth="2" NCoef="0" IVar="-1" Cut="0.0000000000000000e+00" cType="1" res="-5.7553094811737537e-03" rms="4.0683585405349731e-01" purity="2.0933768153190613e-01" nType="-99"/>
          <Node pos="r" depth="2" NCoef="0" IVar="-1" Cut="0.0000000000000000e+00" cType="1" res="-2.6322430931031704e-03" rms="4.8200291395187378e-01" purity="3.6705935001373291e-01" nType="-99"/>
        </Node>
        <Node pos="r" depth="1" NCoef="0" IVar="12" Cut="8.1630170345306396e-01" cType="1" res="2.3986396193504333e-01" rms="4.3719911575317383e-01" purity="7.4228680133819580e-01" nType="0">
          <Node pos="l" depth="2" NCoef="0" IVar="-1" Cut="0.0000000000000000e+00" cType="1" res="2.1727506536990404e-03" rms="4.8780974745750427e-01" purity="6.0973435640335083e-01" nType="-99"/>
          <Node pos="r" depth="2" NCoef="0" IVar="-1" Cut="0.0000000000000000e+00" cType="1" res="5.9537007473409176e-03" rms="3.9948830008506775e-01" purity="8.0068099498748779e-01" nType="-99"/>
        </Node>
      </Node>
    </BinaryTree>
    <BinaryTree type="DecisionTree" boostWeight="1.0000000000000000e+00" itree="2">
      <Node pos="s" depth="0" NCoef="0" IVar="12" Cut="5.7141017913818359e-01" cType="1" res="1.9195077527456306e-08" rms="4.9801802635192871e-01" purity="5.0000000000000000e-01" nType="0">
        <Node pos="l" depth="1" NCoef="0" IVar="26" Cut="1.0571377351880074e-02" cType="1" res="-1.7746630311012268e-01" rms="4.6583902835845947e-01" purity="3.1893047690391541e-01" nType="0">
          <Node pos="l" depth="2" NCoef="0" IVar="-1" Cut="0.0000000000000000e+00" cType="1" res="-1.7325840890407562e-03" rms="4.9191540479660034e-01" purity="4.1065540909767151e-01" nType="-99"/>
          <Node pos="r" depth="2" NCoef="0" IVar="-1" Cut="0.0000000000000000e+00" cType="1" res="-4.6713803894817829e-03" rms="4.3971177935600281e-01" purity="2.6229959726333618e-01" nType="-99"/>
        </Node>
        <Node pos="r" depth="1" NCoef="0" IVar="12" Cut="8.1630170345306396e-01" cType="1" res="2.3746542632579803e-01" rms="4.3702644109725952e-01" purity="7.4228680133819580e-01" nType="0">
          <Node pos="l" depth="2" NCoef="0" IVar="-1" Cut="0.0000000000000000e+00" cType="1" res="2.1510540973395109e-03" rms="4.8780974745750427e-01" purity="6.0973435640335083e-01" nType="-99"/>
          <Node pos="r" depth="2" NCoef="0" IVar="-1" Cut="0.0000000000000000e+00" cType="1" res="5.8947978541254997e-03" rms="3.9948830008506775e-01" purity="8.0068099498748779e-01" nType="-99"/>
        </Node>
      </Node>
    </BinaryTree>
    <BinaryTree type="DecisionTree" boostWeight="1.0000000000000000e+00" itree="3">
      <Node pos="s" depth="0" NCoef="0" IVar="12" Cut="5.7141017913818359e-01" cType="1" res="5.0864294109942421e-08" rms="4.9705341458320618e-01" purity="5.0000000000000000e-01" nType="0">
        <Node pos="l" depth="1" NCoef="0" IVar="19" Cut="4.7619052231311798e-02" cType="1" res="-1.7569170892238617e-01" rms="4.6573022007942200e-01" purity="3.1893047690391541e-01" nType="0">
          <Node pos="l" depth="2" NCoef="0" IVar="-1" Cut="0.0000000000000000e+00" cType="1" res="-5.6531871668994427e-03" rms="4.0684151649475098e-01" purity="2.0933768153190613e-01" nType="-99"/>
          <Node pos="r" depth="2" NCoef="0" IVar="-1" Cut="0.0000000000000000e+00" cType="1" res="-2.5751485954970121e-03" rms="4.8192226886749268e-01" purity="3.6705935001373291e-01" nType="-99"/>
        </Node>
        <Node pos="r" depth="1" NCoef="0" IVar="12" Cut="8.1630170345306396e-01" cType="1" res="2.3509094119071960e-01" rms="4.3685713410377502e-01" purity="7.4228680133819580e-01" nType="0">
          <Node pos="l" depth="2" NCoef="0" IVar="-1" Cut="0.0000000000000000e+00" cType="1" res="2.1295933984220028e-03" rms="4.8780974745750427e-01" purity="6.0973435640335083e-01" nType="-99"/>
          <Node pos="r" depth="2" NCoef="0" IVar="-1" Cut="0.0000000000000000e+00" cType="1" res="5.8368807658553123e-03" rms="3.9948830008506775e-01" purity="8.0068099498748779e-01" nType="-99"/>
        </Node>
      </Node>
    </BinaryTree>
    <BinaryTree type="DecisionTree" boostWeight="1.0000000000000000e+00" itree="4">
      <Node pos="s" depth="0" NCoef="0" IVar="12" Cut="5.7141017913818359e-01" cType="1" res="9.0242174621835147e-08" rms="4.9610590934753418e-01" purity="5.0000000000000000e-01" nType="0">
        <Node pos="l" depth="1" NCoef="0" IVar="26" Cut="1.0571377351880074e-02" cType="1" res="-1.7393489181995392e-01" rms="4.6562302112579346e-01" purity="3.1893047690391541e-01" nType="0">
          <Node pos="l" depth="2" NCoef="0" IVar="-1" Cut="0.0000000000000000e+00" cType="1" res="-1.6889113467186689e-03" rms="4.9189725518226624e-01" purity="4.1065540909767151e-01" nType="-99"/>
          <Node pos="r" depth="2" NCoef="0" IVar="-1" Cut="0.0000000000000000e+00" cType="1" res="-4.5852409675717354e-03" rms="4.3962907791137695e-01" purity="2.6229959726333618e-01" nType="-99"/>
        </Node>
        <Node pos="r" depth="1" NCoef="0" IVar="12" Cut="8.3670908212661743e-01" cType="1" res="2.3274026811122894e-01" rms="4.3669116497039795e-01" purity="7.4228680133819580e-01" nType="0">
          <Node pos="l" depth="2" NCoef="0" IVar="-1" Cut="0.0000000000000000e+00" cType="1" res="2.3603562731295824e-03" rms="4.8437991738319397e-01" purity="6.2330853939056396e-01" nType="-99"/>
          <Node pos="r" depth="2" NCoef="0" IVar="-1" Cut="0.0000000000000000e+00" cType="1" res="5.9034754522144794e-03" rms="3.9476549625396729e-01" purity="8.0685532093048096e-01" nType="-99"/>
        </Node>
      </Node>
    </BinaryTree>
    <BinaryTree type="DecisionTree" boostWeight="1.0000000000000000e+00" itree="5">
      <Node pos="s" depth="0" NCoef="0" IVar="12" Cut="6.1902767419815063e-01" cType="1" res="1.4486354871223739e-07" rms="4.9517521262168884e-01" purity="5.0000000000000000e-01" nType="0">
        <Node pos="l" depth="1" NCoef="0" IVar="19" Cut="4.7619052231311798e-02" cType="1" res="-1.6483566164970398e-01" rms="4.6829825639724731e-01" purity="3.2680562138557434e-01" nType="0">
          <Node pos="l" depth="2" NCoef="0" IVar="-1" Cut="0.0000000000000000e+00" cType="1" res="-5.4998337291181087e-03" rms="4.0902331471443176e-01" purity="2.1259608864784241e-01" nType="-99"/>
          <Node pos="r" depth="2" NCoef="0" IVar="-1" Cut="0.0000000000000000e+00" cType="1" res="-2.3400713689625263e-03" rms="4.8412871360778809e-01" purity="3.7650603055953979e-01" nType="-99"/>
        </Node>
        <Node pos="r" depth="1" NCoef="0" IVar="12" Cut="8.5485124588012695e-01" cType="1" res="2.4072888493537903e-01" rms="4.3056386709213257e-01" purity="7.5293576717376709e-01" nType="0">
          <Node pos="l" depth="2" NCoef="0" IVar="-1" Cut="0.0000000000000000e+00" cType="1" res="2.8039647731930017e-03" rms="4.7736790776252747e-01" purity="6.4773756265640259e-01" nType="-99"/>
          <Node pos="r" depth="2" NCoef="0" IVar="-1" Cut="0.0000000000000000e+00" cType="1" res="5.9454590082168579e-03" rms="3.9086419343948364e-01" purity="8.1180953979492188e-01" nType="-99"/>
        </Node>
      </Node>
    </BinaryTree>
    <BinaryTree type="DecisionTree" boostWeight="1.0000000000000000e+00" itree="6">
      <Node pos="s" depth="0" NCoef="0" IVar="12" Cut="5.7141017913818359e-01" cType="1" res="2.1373648451117333e-07" rms="4.9426817893981934e-01" purity="5.0000000000000000e-01" nType="0">
        <Node pos="l" depth="1" NCoef="0" IVar="26" Cut="1.0571377351880074e-02" cType="1" res="-1.7054444551467896e-01" rms="4.6540901064872742e-01" purity="3.1893047690391541e-01" nType="0">
          <Node pos="l" depth="2" NCoef="0" IVar="-1" Cut="0.0000000000000000e+00" cType="1" res="-1.6480564372614026e-03" rms="4.9187874794006348e-01" purity="4.1065540909767151e-01" nType="-99"/>
          <Node pos="r" depth="2" NCoef="0" IVar="-1" Cut="0.0000000000000000e+00" cType="1" res="-4.5025534927845001e-03" rms="4.3954569101333618e-01" purity="2.6229959726333618e-01" nType="-99"/>
        </Node>
        <Node pos="r" depth="1" NCoef="0" IVar="12" Cut="8.1630170345306396e-01" cType="1" res="2.2820383310317993e-01" rms="4.3630748987197876e-01" purity="7.4228680133819580e-01" nType="0">
          <Node pos="l" depth="2" NCoef="0" IVar="-1" Cut="0.0000000000000000e+00" cType="1" res="2.0665756892412901e-03" rms="4.8771178722381592e-01" purity="6.0973435640335083e-01" nType="-99"/>
          <Node pos="r" depth="2" NCoef="0" IVar="-1" Cut="0.0000000000000000e+00" cType="1" res="5.6714043021202087e-03" rms="3.9942535758018494e-01" purity="8.0068099498748779e-01" nType="-99"/>
        </Node>
      </Node>
    </BinaryTree>
    <BinaryTree type="DecisionTree" boostWeight="1.0000000000000000e+00" itree="7">
      <Node pos="s" depth="0" NCoef="0" IVar="12" Cut="5.7141017913818359e-01" cType="1" res="2.9163027193135349e-07" rms="4.9336963891983032e-01" purity="5.0000000000000000e-01" nType="0">
        <Node pos="l" depth="1" NCoef="0" IVar="19" Cut="4.7619052231311798e-02" cType="1" res="-1.6883917152881622e-01" rms="4.6530646085739136e-01" purity="3.1893047690391541e-01" nType="0">
          <Node pos="l" depth="2" NCoef="0" IVar="-1" Cut="0.0000000000000000e+00" cType="1" res="-5.4582795128226280e-03" rms="4.0685307979583740e-01" purity="2.0933768153190613e-01" nType="-99"/>
          <Node pos="r" depth="2" NCoef="0" IVar="-1" Cut="0.0000000000000000e+00" cType="1" res="-2.4667850229889154e-03" rms="4.8176771402359009e-01" purity="3.6705935001373291e-01" nType="-99"/>
        </Node>
        <Node pos="r" depth="1" NCoef="0" IVar="12" Cut="8.1630170345306396e-01" cType="1" res="2.2592221200466156e-01" rms="4.3615084886550903e-01" purity="7.4228680133819580e-01" nType="0">
          <Node pos="l" depth="2" NCoef="0" IVar="-1" Cut="0.0000000000000000e+00" cType="1" res="2.0460276864469051e-03" rms="4.8771178722381592e-01" purity="6.0973435640335083e-01" nType="-99"/>
          <Node pos="r" depth="2" NCoef="0" IVar="-1" Cut="0.0000000000000000e+00" cType="1" res="5.6171063333749771e-03" rms="3.9942538738250732e-01" purity="8.0068099498748779e-01" nType="-99"/>
        </Node>
      </Node>
    </BinaryTree>
    <BinaryTree type="DecisionTree" boostWeight="1.0000000000000000e+00" itree="8">
      <Node pos="s" depth="0" NCoef="0" IVar="12" Cut="5.7141017913818359e-01" cType="1" res="3.5988628610539308e-07" rms="4.9248713254928589e-01" purity="5.0000000000000000e-01" nType="0">
        <Node pos="l" depth="1" NCoef="0" IVar="26" Cut="1.0571377351880074e-02" cType="1" res="-1.6715100407600403e-01" rms="4.6520549058914185e-01" purity="3.1893047690391541e-01" nType="0">
          <Node pos="l" depth="2" NCoef="0" IVar="-1" Cut="0.0000000000000000e+00" cType="1" res="-1.6064384253695607e-03" rms="4.9186134338378906e-01" purity="4.1065540909767151e-01" nType="-99"/>
          <Node pos="r" depth="2" NCoef="0" IVar="-1" Cut="0.0000000000000000e+00" cType="1" res="-4.4208439067006111e-03" rms="4.3946811556816101e-01" purity="2.6229959726333618e-01" nType="-99"/>
        </Node>
        <Node pos="r" depth="1" NCoef="0" IVar="12" Cut="8.3670908212661743e-01" cType="1" res="2.2366344928741455e-01" rms="4.3599724769592285e-01" purity="7.4228680133819580e-01" nType="0">
          <Node pos="l" depth="2" NCoef="0" IVar="-1" Cut="0.0000000000000000e+00" cType="1" res="2.2673646453768015e-03" rms="4.8420423269271851e-01" purity="6.2330853939056396e-01" nType="-99"/>
          <Node pos="r" depth="2" NCoef="0" IVar="-1" Cut="0.0000000000000000e+00" cType="1" res="5.6833191774785519e-03" rms="3.9474719762802124e-01" purity="8.0685532093048096e-01" nType="-99"/>
        </Node>
      </Node>
    </BinaryTree>
    <BinaryTree type="DecisionTree" boostWeight="1.0000000000000000e+00" itree="9">
      <Node pos="s" depth="0" NCoef="0" IVar="12" Cut="6.1902767419815063e-01" cType="1" res="4.5857572672503011e-07" rms="4.9162033200263977e-01" purity="5.0000000000000000e-01" nType="0">
        <Node pos="l" depth="1" NCoef="0" IVar="19" Cut="4.7619052231311798e-02" cType="1" res="-1.5841843187808990e-01" rms="4.6777337789535522e-01" purity="3.2680562138557434e-01" nType="0">
          <Node pos="l" depth="2" NCoef="0" IVar="-1" Cut="0.0000000000000000e+00" cType="1" res="-5.3162649273872375e-03" rms="4.0897223353385925e-01" purity="2.1259608864784241e-01" nType="-99"/>
          <Node pos="r" depth="2" NCoef="0" IVar="-1" Cut="0.0000000000000000e+00" cType="1" res="-2.2398389410227537e-03" rms="4.8385590314865112e-01" purity="3.7650603055953979e-01" nType="-99"/>
        </Node>
        <Node pos="r" depth="1" NCoef="0" IVar="12" Cut="8.5485124588012695e-01" cType="1" res="2.3135782778263092e-01" rms="4.3002930283546448e-01" purity="7.5293576717376709e-01" nType="0">
          <Node pos="l" depth="2" NCoef="0" IVar="-1" Cut="0.0000000000000000e+00" cType="1" res="2.6918726507574320e-03" rms="4.7721680998802185e-01" purity="6.4773756265640259e-01" nType="-99"/>
          <Node pos="r" depth="2" NCoef="0" IVar="-1" Cut="0.0000000000000000e+00" cType="1" res="5.7272436097264290e-03" rms="3.9086419343948364e-01" purity="8.1180953979492188e-01" nType="-99"/>
        </Node>
      </Node>
    </BinaryTree>
    <BinaryTree type="DecisionTree" boostWeight="1.0000000000000000e+00" itree="10">
      <Node pos="s" depth="0" NCoef="0" IVar="12" Cut="5.7141017913818359e-01" cType="1" res="5.5942382459761575e-07" rms="4.9077516794204712e-01" purity="5.0000000000000000e-01" nType="0">
        <Node pos="l" depth="1" NCoef="0" IVar="26" Cut="1.0571377351880074e-02" cType="1" res="-1.6389286518096924e-01" rms="4.6500375866889954e-01" purity="3.1893047690391541e-01" nType="0">
          <Node pos="l" depth="2" NCoef="0" IVar="-1" Cut="0.0000000000000000e+00" cType="1" res="-1.5675181057304144e-03" rms="4.9184355139732361e-01" purity="4.1065540909767151e-01" nType="-99"/>
          <Node pos="r" depth="2" NCoef="0" IVar="-1" Cut="0.0000000000000000e+00" cType="1" res="-4.3423175811767578e-03" rms="4.3938976526260376e-01" purity="2.6229959726333618e-01" nType="-99"/>
        </Node>
        <Node pos="r" depth="1" NCoef="0" IVar="12" Cut="7.9589438438415527e-01" cType="1" res="2.1930426359176636e-01" rms="4.3564108014106750e-01" purity="7.4228680133819580e-01" nType="0">
          <Node pos="l" depth="2" NCoef="0" IVar="-1" Cut="0.0000000000000000e+00" cType="1" res="1.7606698675081134e-03" rms="4.9004003405570984e-01" purity="5.9835976362228394e-01" nType="-99"/>
          <Node pos="r" depth="2" NCoef="0" IVar="-1" Cut="0.0000000000000000e+00" cType="1" res="5.3711170330643654e-03" rms="4.0313288569450378e-01" purity="7.9535186290740967e-01" nType="-99"/>
        </Node>
      </Node>
    </BinaryTree>
    <BinaryTree type="DecisionTree" boostWeight="1.0000000000000000e+00" itree="11">
      <Node pos="s" depth="0" NCoef="0" IVar="12" Cut="5.7141017913818359e-01" cType="1" res="6.6553633359944797e-07" rms="4.8993849754333496e-01" purity="5.0000000000000000e-01" nType="0">
        <Node pos="l" depth="1" NCoef="0" IVar="19" Cut="4.7619052231311798e-02" cType="1" res="-1.6225419938564301e-01" rms="4.6490716934204102e-01" purity="3.1893047690391541e-01" nType="0">
          <Node pos="l" depth="2" NCoef="0" IVar="-1" Cut="0.0000000000000000e+00" cType="1" res="-5.2740685641765594e-03" rms="4.0686479210853577e-01" purity="2.0933768153190613e-01" nType="-99"/>
          <Node pos="r" depth="2" NCoef="0" IVar="-1" Cut="0.0000000000000000e+00" cType="1" res="-2.3634061217308044e-03" rms="4.8162171244621277e-01" purity="3.6705935001373291e-01" nType="-99"/>
        </Node>
        <Node pos="r" depth="1" NCoef="0" IVar="12" Cut="8.1630170345306396e-01" cType="1" res="2.1711182594299316e-01" rms="4.3549606204032898e-01" purity="7.4228680133819580e-01" nType="0">
          <Node pos="l" depth="2" NCoef="0" IVar="-1" Cut="0.0000000000000000e+00" cType="1" res="1.9640093669295311e-03" rms="4.8758348822593689e-01" purity="6.0973435640335083e-01" nType="-99"/>
          <Node pos="r" depth="2" NCoef="0" IVar="-1" Cut="0.0000000000000000e+00" cType="1" res="5.4115001112222672e-03" rms="3.9936673641204834e-01" purity="8.0068099498748779e-01" nType="-99"/>
        </Node>
      </Node>
    </BinaryTree>
    <BinaryTree type="DecisionTree" boostWeight="1.0000000000000000e+00" itree="12">
      <Node pos="s" depth="0" NCoef="0" IVar="12" Cut="5.7141017913818359e-01" cType="1" res="7.6751496180804679e-07" rms="4.8911681771278381e-01" purity="5.0000000000000000e-01" nType="0">
        <Node pos="l" depth="1" NCoef="0" IVar="26" Cut="1.0571377351880074e-02" cType="1" res="-1.6063196957111359e-01" rms="4.6481207013130188e-01" purity="3.1893047690391541e-01" nType="0">
          <Node pos="l" depth="2" NCoef="0" IVar="-1" Cut="0.0000000000000000e+00" cType="1" res="-1.5278384089469910e-03" rms="4.9182683229446411e-01" purity="4.1065540909767151e-01" nType="-99"/>
          <Node pos="r" depth="2" NCoef="0" IVar="-1" Cut="0.0000000000000000e+00" cType="1" res="-4.2646545916795731e-03" rms="4.3931701779365540e-01" purity="2.6229959726333618e-01" nType="-99"/>
        </Node>
        <Node pos="r" depth="1" NCoef="0" IVar="12" Cut="8.3670908212661743e-01" cType="1" res="2.1494136750698090e-01" rms="4.3535369634628296e-01" purity="7.4228680133819580e-01" nType="0">
          <Node pos="l" depth="2" NCoef="0" IVar="-1" Cut="0.0000000000000000e+00" cType="1" res="2.1767807193100452e-03" rms="4.8401206731796265e-01" purity="6.2330853939056396e-01" nType="-99"/>
          <Node pos="r" depth="2" NCoef="0" IVar="-1" Cut="0.0000000000000000e+00" cType="1" res="5.4773488081991673e-03" rms="3.9472988247871399e-01" purity="8.0685532093048096e-01" nType="-99"/>
        </Node>
      </Node>
    </BinaryTree>
    <BinaryTree type="DecisionTree" boostWeight="1.0000000000000000e+00" itree="13">
      <Node pos="s" depth="0" NCoef="0" IVar="12" Cut="6.1902767419815063e-01" cType="1" res="8.8814567789086141e-07" rms="4.8830977082252502e-01" purity="5.0000000000000000e-01" nType="0">
        <Node pos="l" depth="1" NCoef="0" IVar="19" Cut="4.7619052231311798e-02" cType="1" res="-1.5224760770797729e-01" rms="4.6728259325027466e-01" purity="3.2680562138557434e-01" nType="0">
          <Node pos="l" depth="2" NCoef="0" IVar="-1" Cut="0.0000000000000000e+00" cType="1" res="-5.1424610428512096e-03" rms="4.0893131494522095e-01" purity="2.1259608864784241e-01" nType="-99"/>
          <Node pos="r" depth="2" NCoef="0" IVar="-1" Cut="0.0000000000000000e+00" cType="1" res="-2.1440656855702400e-03" rms="4.8360198736190796e-01" purity="3.7650603055953979e-01" nType="-99"/>
        </Node>
        <Node pos="r" depth="1" NCoef="0" IVar="12" Cut="8.5485124588012695e-01" cType="1" res="2.2234691679477692e-01" rms="4.2953646183013916e-01" purity="7.5293576717376709e-01" nType="0">
          <Node pos="l" depth="2" NCoef="0" IVar="-1" Cut="0.0000000000000000e+00" cType="1" res="2.5829009246081114e-03" rms="4.7705665230751038e-01" purity="6.4773756265640259e-01" nType="-99"/>
          <Node pos="r" depth="2" NCoef="0" IVar="-1" Cut="0.0000000000000000e+00" cType="1" res="5.5230432190001011e-03" rms="3.9086419343948364e-01" purity="8.1180953979492188e-01" nType="-99"/>
        </Node>
      </Node>
    </BinaryTree>
    <BinaryTree type="DecisionTree" boostWeight="1.0000000000000000e+00" itree="14">
      <Node pos="s" depth="0" NCoef="0" IVar="12" Cut="5.7141017913818359e-01" cType="1" res="1.0141563961951761e-06" rms="4.8752251267433167e-01" purity="5.0000000000000000e-01" nType="0">
        <Node pos="l" depth="1" NCoef="0" IVar="22" Cut="1.4190176501870155e-02" cType="1" res="-1.5750102698802948e-01" rms="4.6462193131446838e-01" purity="3.1893047690391541e-01" nType="0">
          <Node pos="l" depth="2" NCoef="0" IVar="-1" Cut="0.0000000000000000e+00" cType="1" res="-2.1420954726636410e-03" rms="4.8063921928405762e-01" purity="3.6965882778167725e-01" nType="-99"/>
          <Node pos="r" depth="2" NCoef="0" IVar="-1" Cut="0.0000000000000000e+00" cType="1" res="-4.8670289106667042e-03" rms="4.2286819219589233e-01" purity="2.3358504474163055e-01" nType="-99"/>
        </Node>
        <Node pos="r" depth="1" NCoef="0" IVar="12" Cut="7.9589438438415527e-01" cType="1" res="2.1075248718261719e-01" rms="4.3502271175384521e-01" purity="7.4228680133819580e-01" nType="0">
          <Node pos="l" depth="2" NCoef="0" IVar="-1" Cut="0.0000000000000000e+00" cType="1" res="1.6866187797859311e-03" rms="4.8995390534400940e-01" purity="5.9835976362228394e-01" nType="-99"/>
          <Node pos="r" depth="2" NCoef="0" IVar="-1" Cut="0.0000000000000000e+00" cType="1" res="5.1782247610390186e-03" rms="4.0303489565849304e-01" purity="7.9535186290740967e-01" nType="-99"/>
        </Node>
      </Node>
    </BinaryTree>
    <BinaryTree type="DecisionTree" boostWeight="1.0000000000000000e+00" itree="15">
      <Node pos="s" depth="0" NCoef="0" IVar="12" Cut="5.7141017913818359e-01" cType="1" res="1.1734613281078055e-06" rms="4.8674297332763672e-01" purity="5.0000000000000000e-01" nType="0">
        <Node pos="l" depth="1" NCoef="0" IVar="4" Cut="2.6091220378875732e+00" cType="1" res="-1.5592630207538605e-01" rms="4.6452978253364563e-01" purity="3.1893047690391541e-01" nType="0">
          <Node pos="l" depth="2" NCoef="0" IVar="-1" Cut="0.0000000000000000e+00" cType="1" res="-3.8117845542728901e-03" rms="4.4979542493820190e-01" purity="2.8444764018058777e-01" nType="-99"/>
          <Node pos="r" depth="2" NCoef="0" IVar="-1" Cut="0.0000000000000000e+00" cType="1" res="-6.2451389385387301e-04" rms="4.9521949887275696e-01" purity="4.4506898522377014e-01" nType="-99"/>
        </Node>
        <Node pos="r" depth="1" NCoef="0" IVar="19" Cut="4.7619048506021500e-02" cType="1" res="2.0864573121070862e-01" rms="4.3488800525665283e-01" purity="7.4228680133819580e-01" nType="0">
          <Node pos="l" depth="2" NCoef="0" IVar="-1" Cut="0.0000000000000000e+00" cType="1" res="-1.7957593081519008e-04" rms="4.9514463543891907e-01" purity="5.1865524053573608e-01" nType="-99"/>
          <Node pos="r" depth="2" NCoef="0" IVar="-1" Cut="0.0000000000000000e+00" cType="1" res="4.7339508309960365e-03" rms="4.1913753747940063e-01" purity="7.6982951164245605e-01" nType="-99"/>
        </Node>
      </Node>
    </BinaryTree>
    <BinaryTree type="DecisionTree" boostWeight="1.0000000000000000e+00" itree="16">
      <Node pos="s" depth="0" NCoef="0" IVar="12" Cut="6.1902767419815063e-01" cType="1" res="1.2853602129325736e-06" rms="4.8597726225852966e-01" purity="5.0000000000000000e-01" nType="0">
        <Node pos="l" depth="1" NCoef="0" IVar="19" Cut="4.7619052231311798e-02" cType="1" res="-1.4779688417911530e-01" rms="4.6691837906837463e-01" purity="3.2680562138557434e-01" nType="0">
          <Node pos="l" depth="2" NCoef="0" IVar="-1" Cut="0.0000000000000000e+00" cType="1" res="-5.0368811935186386e-03" rms="4.0886676311492920e-01" purity="2.1259608864784241e-01" nType="-99"/>
          <Node pos="r" depth="2" NCoef="0" IVar="-1" Cut="0.0000000000000000e+00" cType="1" res="-2.0667680073529482e-03" rms="4.8328149318695068e-01" purity="3.7650603055953979e-01" nType="-99"/>
        </Node>
        <Node pos="r" depth="1" NCoef="0" IVar="12" Cut="8.5485124588012695e-01" cType="1" res="2.1584798395633698e-01" rms="4.2919129133224487e-01" purity="7.5293576717376709e-01" nType="0">
          <Node pos="l" depth="2" NCoef="0" IVar="-1" Cut="0.0000000000000000e+00" cType="1" res="2.4900212883949280e-03" rms="4.7678473591804504e-01" purity="6.4773756265640259e-01" nType="-99"/>
          <Node pos="r" depth="2" NCoef="0" IVar="-1" Cut="0.0000000000000000e+00" cType="1" res="5.3858496248722076e-03" rms="3.9082142710685730e-01" purity="8.1180953979492188e-01" nType="-99"/>
        </Node>
      </Node>
    </BinaryTree>
    <BinaryTree type="DecisionTree" boostWeight="1.0000000000000000e+00" itree="17">
      <Node pos="s" depth="0" NCoef="0" IVar="12" Cut="5.7141017913818359e-01" cType="1" res="1.4265586969486321e-06" rms="4.8522913455963135e-01" purity="5.0000000000000000e-01" nType="0">
        <Node pos="l" depth="1" NCoef="0" IVar="22" Cut="1.4190176501870155e-02" cType="1" res="-1.5288706123828888e-01" rms="4.6434482932090759e-01" purity="3.1893047690391541e-01" nType="0">
          <Node pos="l" depth="2" NCoef="0" IVar="-1" Cut="0.0000000000000000e+00" cType="1" res="-2.0620729774236679e-03" rms="4.8040127754211426e-01" purity="3.6965882778167725e-01" nType="-99"/>
          <Node pos="r" depth="2" NCoef="0" IVar="-1" Cut="0.0000000000000000e+00" cType="1" res="-4.7623631544411182e-03" rms="4.2279267311096191e-01" purity="2.3358504474163055e-01" nType="-99"/>
        </Node>
        <Node pos="r" depth="1" NCoef="0" IVar="19" Cut="4.7619048506021500e-02" cType="1" res="2.0457956194877625e-01" rms="4.3457251787185669e-01" purity="7.4228680133819580e-01" nType="0">
          <Node pos="l" depth="2" NCoef="0" IVar="-1" Cut="0.0000000000000000e+00" cType="1" res="-2.0624100579880178e-04" rms="4.9476924538612366e-01" purity="5.1865524053573608e-01" nType="-99"/>
          <Node pos="r" depth="2" NCoef="0" IVar="-1" Cut="0.0000000000000000e+00" cType="1" res="4.6518072485923767e-03" rms="4.1902032494544983e-01" purity="7.6982951164245605e-01" nType="-99"/>
        </Node>
      </Node>
    </BinaryTree>
    <BinaryTree type="DecisionTree" boostWeight="1.0000000000000000e+00" itree="18">
      <Node pos="s" depth="0" NCoef="0" IVar="12" Cut="6.6664522886276245e-01" cType="1" res="1.5508089745708276e-06" rms="4.8448851704597473e-01" purity="5.0000000000000000e-01" nType="0">
        <Node pos="l" depth="1" NCoef="0" IVar="12" Cut="2.8570249676704407e-01" cType="1" res="-1.3848581910133362e-01" rms="4.6895706653594971e-01" purity="3.3498835563659668e-01" nType="0">
          <Node pos="l" depth="2" NCoef="0" IVar="-1" Cut="0.0000000000000000e+00" cType="1" res="-3.8146728184074163e-03" rms="4.4762432575225830e-01" purity="2.8034487366676331e-01" nType="-99"/>
          <Node pos="r" depth="2" NCoef="0" IVar="-1" Cut="0.0000000000000000e+00" cType="1" res="-7.7054923167452216e-04" rms="4.9268451333045959e-01" purity="4.4115740060806274e-01" nType="-99"/>
        </Node>
        <Node pos="r" depth="1" NCoef="0" IVar="12" Cut="8.7299084663391113e-01" cType="1" res="2.2160506248474121e-01" rms="4.2264366149902344e-01" purity="7.6404690742492676e-01" nType="0">
          <Node pos="l" depth="2" NCoef="0" IVar="-1" Cut="0.0000000000000000e+00" cType="1" res="2.8954201843589544e-03" rms="4.6720090508460999e-01" purity="6.7471867799758911e-01" nType="-99"/>
          <Node pos="r" depth="2" NCoef="0" IVar="-1" Cut="0.0000000000000000e+00" cType="1" res="5.4002059623599052e-03" rms="3.8673177361488342e-01" purity="8.1683009862899780e-01" nType="-99"/>
        </Node>
      </Node>
    </BinaryTree>
    <BinaryTree type="DecisionTree" boostWeight="1.0000000000000000e+00" itree="19">
      <Node pos="s" depth="0" NCoef="0" IVar="12" Cut="6.6664522886276245e-01" cType="1" res="1.7448071503167739e-06" rms="4.8376518487930298e-01" purity="5.0000000000000000e-01" nType="0">
        <Node pos="l" depth="1" NCoef="0" IVar="12" Cut="2.8570249676704407e-01" cType="1" res="-1.3710126280784607e-01" rms="4.6884819865226746e-01" purity="3.3498835563659668e-01" nType="0">
          <Node pos="l" depth="2" NCoef="0" IVar="-1" Cut="0.0000000000000000e+00" cType="1" res="-3.7782976869493723e-03" rms="4.4762501120567322e-01" purity="2.8034487366676331e-01" nType="-99"/>
          <Node pos="r" depth="2" NCoef="0" IVar="-1" Cut="0.0000000000000000e+00" cType="1" res="-7.6289247954264283e-04" rms="4.9268469214439392e-01" purity="4.4115740060806274e-01" nType="-99"/>
        </Node>
        <Node pos="r" depth="1" NCoef="0" IVar="19" Cut="4.7619048506021500e-02" cType="1" res="2.1939003467559814e-01" rms="4.2256051301956177e-01" purity="7.6404690742492676e-01" nType="0">
          <Node pos="l" depth="2" NCoef="0" IVar="-1" Cut="0.0000000000000000e+00" cType="1" res="7.2840182110667229e-04" rms="4.9081307649612427e-01" purity="5.7254445552825928e-01" nType="-99"/>
          <Node pos="r" depth="2" NCoef="0" IVar="-1" Cut="0.0000000000000000e+00" cType="1" res="4.8154201358556747e-03" rms="4.1000443696975708e-01" purity="7.8418165445327759e-01" nType="-99"/>
        </Node>
      </Node>
    </BinaryTree>
    <BinaryTree type="DecisionTree" boostWeight="1.0000000000000000e+00" itree="20">
      <Node pos="s" depth="0" NCoef="0" IVar="12" Cut="5.7141017913818359e-01" cType="1" res="1.9090116438746918e-06" rms="4.8305499553680420e-01" purity="5.0000000000000000e-01" nType="0">
        <Node pos="l" depth="1" NCoef="0" IVar="26" Cut="1.0571377351880074e-02" cType="1" res="-1.4845339953899384e-01" rms="4.6407949924468994e-01" purity="3.1893047690391541e-01" nType="0">
          <Node pos="l" depth="2" NCoef="0" IVar="-1" Cut="0.0000000000000000e+00" cType="1" res="-1.3199168024584651e-03" rms="4.9111047387123108e-01" purity="4.1065540909767151e-01" nType="-99"/>
          <Node pos="r" depth="2" NCoef="0" IVar="-1" Cut="0.0000000000000000e+00" cType="1" res="-4.0133842267096043e-03" rms="4.3887892365455627e-01" purity="2.6229959726333618e-01" nType="-99"/>
        </Node>
        <Node pos="r" depth="1" NCoef="0" IVar="19" Cut="4.7619048506021500e-02" cType="1" res="1.9864805042743683e-01" rms="4.3409714102745056e-01" purity="7.4228680133819580e-01" nType="0">
          <Node pos="l" depth="2" NCoef="0" IVar="-1" Cut="0.0000000000000000e+00" cType="1" res="-2.3871299345046282e-04" rms="4.9438378214836121e-01" purity="5.1865524053573608e-01" nType="-99"/>
          <Node pos="r" depth="2" NCoef="0" IVar="-1" Cut="0.0000000000000000e+00" cType="1" res="4.5321863144636154e-03" rms="4.1882628202438354e-01" purity="7.6982951164245605e-01" nType="-99"/>
        </Node>
      </Node>
    </BinaryTree>
    <BinaryTree type="DecisionTree" boostWeight="1.0000000000000000e+00" itree="21">
      <Node pos="s" depth="0" NCoef="0" IVar="12" Cut="6.6664522886276245e-01" cType="1" res="2.0154743651801255e-06" rms="4.8235020041465759e-01" purity="5.0000000000000000e-01" nType="0">
        <Node pos="l" depth="1" NCoef="0" IVar="12" Cut="2.8570249676704407e-01" cType="1" res="-1.3446898758411407e-01" rms="4.6856099367141724e-01" purity="3.3498835563659668e-01" nType="0">
          <Node pos="l" depth="2" NCoef="0" IVar="-1" Cut="0.0000000000000000e+00" cType="1" res="-3.7143374793231487e-03" rms="4.4755017757415771e-01" purity="2.8034487366676331e-01" nType="-99"/>
          <Node pos="r" depth="2" NCoef="0" IVar="-1" Cut="0.0000000000000000e+00" cType="1" res="-7.3865917511284351e-04" rms="4.9243867397308350e-01" purity="4.4115740060806274e-01" nType="-99"/>
        </Node>
        <Node pos="r" depth="1" NCoef="0" IVar="12" Cut="8.7299084663391113e-01" cType="1" res="2.1517865359783173e-01" rms="4.2238327860832214e-01" purity="7.6404690742492676e-01" nType="0">
          <Node pos="l" depth="2" NCoef="0" IVar="-1" Cut="0.0000000000000000e+00" cType="1" res="2.7888624463230371e-03" rms="4.6689409017562866e-01" purity="6.7471867799758911e-01" nType="-99"/>
          <Node pos="r" depth="2" NCoef="0" IVar="-1" Cut="0.0000000000000000e+00" cType="1" res="5.2753430791199207e-03" rms="3.8666856288909912e-01" purity="8.1683009862899780e-01" nType="-99"/>
        </Node>
      </Node>
    </BinaryTree>
    <BinaryTree type="DecisionTree" boostWeight="1.0000000000000000e+00" itree="22">
      <Node pos="s" depth="0" NCoef="0" IVar="12" Cut="6.6664522886276245e-01" cType="1" res="2.2157796593091916e-06" rms="4.8166379332542419e-01" purity="5.0000000000000000e-01" nType="0">
        <Node pos="l" depth="1" NCoef="0" IVar="12" Cut="2.8570249676704407e-01" cType="1" res="-1.3312463462352753e-01" rms="4.6845734119415283e-01" purity="3.3498835563659668e-01" nType="0">
          <Node pos="l" depth="2" NCoef="0" IVar="-1" Cut="0.0000000000000000e+00" cType="1" res="-3.6791607271879911e-03" rms="4.4755098223686218e-01" purity="2.8034487366676331e-01" nType="-99"/>
          <Node pos="r" depth="2" NCoef="0" IVar="-1" Cut="0.0000000000000000e+00" cType="1" res="-7.3132076067849994e-04" rms="4.9243888258934021e-01" purity="4.4115740060806274e-01" nType="-99"/>
        </Node>
        <Node pos="r" depth="1" NCoef="0" IVar="12" Cut="8.7299084663391113e-01" cType="1" res="2.1302796900272369e-01" rms="4.2230215668678284e-01" purity="7.6404690742492676e-01" nType="0">
          <Node pos="l" depth="2" NCoef="0" IVar="-1" Cut="0.0000000000000000e+00" cType="1" res="2.7621109038591385e-03" rms="4.6689468622207642e-01" purity="6.7471867799758911e-01" nType="-99"/>
          <Node pos="r" depth="2" NCoef="0" IVar="-1" Cut="0.0000000000000000e+00" cType="1" res="5.2289874292910099e-03" rms="3.8666871190071106e-01" purity="8.1683009862899780e-01" nType="-99"/>
        </Node>
      </Node>
    </BinaryTree>
    <BinaryTree type="DecisionTree" boostWeight="1.0000000000000000e+00" itree="23">
      <Node pos="s" depth="0" NCoef="0" IVar="12" Cut="5.7141017913818359e-01" cType="1" res="2.4157056941476185e-06" rms="4.8099011182785034e-01" purity="5.0000000000000000e-01" nType="0">
        <Node pos="l" depth="1" NCoef="0" IVar="22" Cut="1.4190176501870155e-02" cType="1" res="-1.4414775371551514e-01" rms="4.6382263302803040e-01" purity="3.1893047690391541e-01" nType="0">
          <Node pos="l" depth="2" NCoef="0" IVar="-1" Cut="0.0000000000000000e+00" cType="1" res="-1.9004904897883534e-03" rms="4.7988048195838928e-01" purity="3.6965882778167725e-01" nType="-99"/>
          <Node pos="r" depth="2" NCoef="0" IVar="-1" Cut="0.0000000000000000e+00" cType="1" res="-4.5828167349100113e-03" rms="4.2250627279281616e-01" purity="2.3358504474163055e-01" nType="-99"/>
        </Node>
        <Node pos="r" depth="1" NCoef="0" IVar="19" Cut="4.7619048506021500e-02" cType="1" res="1.9288791716098785e-01" rms="4.3364277482032776e-01" purity="7.4228680133819580e-01" nType="0">
          <Node pos="l" depth="2" NCoef="0" IVar="-1" Cut="0.0000000000000000e+00" cType="1" res="-2.9548336169682443e-04" rms="4.9374973773956299e-01" purity="5.1865524053573608e-01" nType="-99"/>
          <Node pos="r" depth="2" NCoef="0" IVar="-1" Cut="0.0000000000000000e+00" cType="1" res="4.4200066477060318e-03" rms="4.1859337687492371e-01" purity="7.6982951164245605e-01" nType="-99"/>
        </Node>
      </Node>
    </BinaryTree>
    <BinaryTree type="DecisionTree" boostWeight="1.0000000000000000e+00" itree="24">
      <Node pos="s" depth="0" NCoef="0" IVar="12" Cut="6.6664522886276245e-01" cType="1" res="2.5541239665471949e-06" rms="4.8031952977180481e-01" purity="5.0000000000000000e-01" nType="0">
        <Node pos="l" depth="1" NCoef="0" IVar="19" Cut="4.7619052231311798e-02" cType="1" res="-1.3056869804859161e-01" rms="4.6818155050277710e-01" purity="3.3498835563659668e-01" nType="0">
          <Node pos="l" depth="2" NCoef="0" IVar="-1" Cut="0.0000000000000000e+00" cType="1" res="-4.7690467908978462e-03" rms="4.1057008504867554e-01" purity="2.1592056751251221e-01" nType="-99"/>
          <Node pos="r" depth="2" NCoef="0" IVar="-1" Cut="0.0000000000000000e+00" cType="1" res="-1.7120821867138147e-03" rms="4.8384863138198853e-01" purity="3.8614594936370850e-01" nType="-99"/>
        </Node>
        <Node pos="r" depth="1" NCoef="0" IVar="11" Cut="1.4095237731933594e+01" cType="1" res="2.0893891155719757e-01" rms="4.2213028669357300e-01" purity="7.6404690742492676e-01" nType="0">
          <Node pos="l" depth="2" NCoef="0" IVar="-1" Cut="0.0000000000000000e+00" cType="1" res="2.9849233105778694e-03" rms="4.5481553673744202e-01" purity="7.0200520753860474e-01" nType="-99"/>
          <Node pos="r" depth="2" NCoef="0" IVar="-1" Cut="0.0000000000000000e+00" cType="1" res="5.3352979011833668e-03" rms="3.8287773728370667e-01" purity="8.1880247592926025e-01" nType="-99"/>
        </Node>
      </Node>
    </BinaryTree>
    <BinaryTree type="DecisionTree" boostWeight="1.0000000000000000e+00" itree="25">
      <Node pos="s" depth="0" NCoef="0" IVar="12" Cut="5.7141017913818359e-01" cType="1" res="2.6984293981513474e-06" rms="4.7966742515563965e-01" purity="5.0000000000000000e-01" nType="0">
        <Node pos="l" depth="1" NCoef="0" IVar="11" Cut="1.3571428298950195e+01" cType="1" res="-1.4139495790004730e-01" rms="4.6363928914070129e-01" purity="3.1893047690391541e-01" nType="0">
          <Node pos="l" depth="2" NCoef="0" IVar="-1" Cut="0.0000000000000000e+00" cType="1" res="-4.0559074841439724e-03" rms="4.3552595376968384e-01" purity="2.5831016898155212e-01" nType="-99"/>
          <Node pos="r" depth="2" NCoef="0" IVar="-1" Cut="0.0000000000000000e+00" cType="1" res="-1.4615729451179504e-03" rms="4.8485788702964783e-01" purity="3.8844230771064758e-01" nType="-99"/>
        </Node>
        <Node pos="r" depth="1" NCoef="0" IVar="19" Cut="4.7619048506021500e-02" cType="1" res="1.8920509517192841e-01" rms="4.3331471085548401e-01" purity="7.4228680133819580e-01" nType="0">
          <Node pos="l" depth="2" NCoef="0" IVar="-1" Cut="0.0000000000000000e+00" cType="1" res="-3.1578281777910888e-04" rms="4.9334615468978882e-01" purity="5.1865524053573608e-01" nType="-99"/>
          <Node pos="r" depth="2" NCoef="0" IVar="-1" Cut="0.0000000000000000e+00" cType="1" res="4.3466528877615929e-03" rms="4.1845315694808960e-01" purity="7.6982951164245605e-01" nType="-99"/>
        </Node>
      </Node>
    </BinaryTree>
    <BinaryTree type="DecisionTree" boostWeight="1.0000000000000000e+00" itree="26">
      <Node pos="s" depth="0" NCoef="0" IVar="12" Cut="6.6664522886276245e-01" cType="1" res="2.8429758458514698e-06" rms="4.7901856899261475e-01" purity="5.0000000000000000e-01" nType="0">
        <Node pos="l" depth="1" NCoef="0" IVar="26" Cut="1.0571377351880074e-02" cType="1" res="-1.2806184589862823e-01" rms="4.6790993213653564e-01" purity="3.3498835563659668e-01" nType="0">
          <Node pos="l" depth="2" NCoef="0" IVar="-1" Cut="0.0000000000000000e+00" cType="1" res="-8.3574315067380667e-04" rms="4.9221530556678772e-01" purity="4.3192300200462341e-01" nType="-99"/>
          <Node pos="r" depth="2" NCoef="0" IVar="-1" Cut="0.0000000000000000e+00" cType="1" res="-3.6811032332479954e-03" rms="4.4339907169342041e-01" purity="2.7400571107864380e-01" nType="-99"/>
        </Node>
        <Node pos="r" depth="1" NCoef="0" IVar="15" Cut="7.8161902427673340e+00" cType="1" res="2.0492826402187347e-01" rms="4.2196321487426758e-01" purity="7.6404690742492676e-01" nType="0">
          <Node pos="l" depth="2" NCoef="0" IVar="-1" Cut="0.0000000000000000e+00" cType="1" res="3.0508635099977255e-03" rms="4.5202022790908813e-01" purity="7.0836067199707031e-01" nType="-99"/>
          <Node pos="r" depth="2" NCoef="0" IVar="-1" Cut="0.0000000000000000e+00" cType="1" res="5.4030264727771282e-03" rms="3.7625506520271301e-01" purity="8.2640981674194336e-01" nType="-99"/>
        </Node>
      </Node>
    </BinaryTree>
    <BinaryTree type="DecisionTree" boostWeight="1.0000000000000000e+00" itree="27">
      <Node pos="s" depth="0" NCoef="0" IVar="12" Cut="5.7141017913818359e-01" cType="1" res="3.0139747195789823e-06" rms="4.7838765382766724e-01" purity="5.0000000000000000e-01" nType="0">
        <Node pos="l" depth="1" NCoef="0" IVar="22" Cut="1.4190176501870155e-02" cType="1" res="-1.3869553804397583e-01" rms="4.6345856785774231e-01" purity="3.1893047690391541e-01" nType="0">
          <Node pos="l" depth="2" NCoef="0" IVar="-1" Cut="0.0000000000000000e+00" cType="1" res="-1.8036183901131153e-03" rms="4.7950145602226257e-01" purity="3.6965882778167725e-01" nType="-99"/>
          <Node pos="r" depth="2" NCoef="0" IVar="-1" Cut="0.0000000000000000e+00" cType="1" res="-4.4663879089057446e-03" rms="4.2241659760475159e-01" purity="2.3358504474163055e-01" nType="-99"/>
        </Node>
        <Node pos="r" depth="1" NCoef="0" IVar="12" Cut="8.3670908212661743e-01" cType="1" res="1.8559376895427704e-01" rms="4.3299460411071777e-01" purity="7.4228680133819580e-01" nType="0">
          <Node pos="l" depth="2" NCoef="0" IVar="-1" Cut="0.0000000000000000e+00" cType="1" res="1.7913831397891045e-03" rms="4.8193386197090149e-01" purity="6.2330853939056396e-01" nType="-99"/>
          <Node pos="r" depth="2" NCoef="0" IVar="-1" Cut="0.0000000000000000e+00" cType="1" res="4.8519112169742584e-03" rms="3.9419057965278625e-01" purity="8.0685532093048096e-01" nType="-99"/>
        </Node>
      </Node>
    </BinaryTree>
    <BinaryTree type="DecisionTree" boostWeight="1.0000000000000000e+00" itree="28">
      <Node pos="s" depth="0" NCoef="0" IVar="12" Cut="5.7141017913818359e-01" cType="1" res="3.2062823720480083e-06" rms="4.7775942087173462e-01" purity="5.0000000000000000e-01" nType="0">
        <Node pos="l" depth="1" NCoef="0" IVar="4" Cut="2.6091220378875732e+00" cType="1" res="-1.3730899989604950e-01" rms="4.6337205171585083e-01" purity="3.1893047690391541e-01" nType="0">
          <Node pos="l" depth="2" NCoef="0" IVar="-1" Cut="0.0000000000000000e+00" cType="1" res="-3.4416539128869772e-03" rms="4.4889548420906067e-01" purity="2.8444764018058777e-01" nType="-99"/>
          <Node pos="r" depth="2" NCoef="0" IVar="-1" Cut="0.0000000000000000e+00" cType="1" res="-3.1233407207764685e-04" rms="4.9409851431846619e-01" purity="4.4506898522377014e-01" nType="-99"/>
        </Node>
        <Node pos="r" depth="1" NCoef="0" IVar="19" Cut="4.7619048506021500e-02" cType="1" res="1.8373891711235046e-01" rms="4.3287914991378784e-01" purity="7.4228680133819580e-01" nType="0">
          <Node pos="l" depth="2" NCoef="0" IVar="-1" Cut="0.0000000000000000e+00" cType="1" res="-3.7017994327470660e-04" rms="4.9277713894844055e-01" purity="5.1865524053573608e-01" nType="-99"/>
          <Node pos="r" depth="2" NCoef="0" IVar="-1" Cut="0.0000000000000000e+00" cType="1" res="4.2412765324115753e-03" rms="4.1821661591529846e-01" purity="7.6982951164245605e-01" nType="-99"/>
        </Node>
      </Node>
    </BinaryTree>
    <BinaryTree type="DecisionTree" boostWeight="1.0000000000000000e+00" itree="29">
      <Node pos="s" depth="0" NCoef="0" IVar="12" Cut="6.6664522886276245e-01" cType="1" res="3.3525382150401128e-06" rms="4.7714197635650635e-01" purity="5.0000000000000000e-01" nType="0">
        <Node pos="l" depth="1" NCoef="0" IVar="19" Cut="4.7619052231311798e-02" cType="1" res="-1.2438798695802689e-01" rms="4.6751293540000916e-01" purity="3.3498835563659668e-01" nType="0">
          <Node pos="l" depth="2" NCoef="0" IVar="-1" Cut="0.0000000000000000e+00" cType="1" res="-4.6216817572712898e-03" rms="4.1041639447212219e-01" purity="2.1592056751251221e-01" nType="-99"/>
          <Node pos="r" depth="2" NCoef="0" IVar="-1" Cut="0.0000000000000000e+00" cType="1" res="-1.6073164297267795e-03" rms="4.8323565721511841e-01" purity="3.8614594936370850e-01" nType="-99"/>
        </Node>
        <Node pos="r" depth="1" NCoef="0" IVar="11" Cut="1.4095237731933594e+01" cType="1" res="1.9905079901218414e-01" rms="4.2171099781990051e-01" purity="7.6404690742492676e-01" nType="0">
          <Node pos="l" depth="2" NCoef="0" IVar="-1" Cut="0.0000000000000000e+00" cType="1" res="2.8126358520239592e-03" rms="4.5447799563407898e-01" purity="7.0200520753860474e-01" nType="-99"/>
          <Node pos="r" depth="2" NCoef="0" IVar="-1" Cut="0.0000000000000000e+00" cType="1" res="5.1488261669874191e-03" rms="3.8256227970123291e-01" purity="8.1880247592926025e-01" nType="-99"/>
        </Node>
      </Node>
    </BinaryTree>
    <BinaryTree type="DecisionTree" boostWeight="1.0000000000000000e+00" itree="30">
      <Node pos="s" depth="0" NCoef="0" IVar="12" Cut="5.7141017913818359e-01" cType="1" res="3.5026355362788308e-06" rms="4.7654131054878235e-01" purity="5.0000000000000000e-01" nType="0">
        <Node pos="l" depth="1" NCoef="0" IVar="11" Cut="1.3571428298950195e+01" cType="1" res="-1.3468678295612335e-01" rms="4.6319437026977539e-01" purity="3.1893047690391541e-01" nType="0">
          <Node pos="l" depth="2" NCoef="0" IVar="-1" Cut="0.0000000000000000e+00" cType="1" res="-3.9179297164082527e-03" rms="4.3520113825798035e-01" purity="2.5831016898155212e-01" nType="-99"/>
          <Node pos="r" depth="2" NCoef="0" IVar="-1" Cut="0.0000000000000000e+00" cType="1" res="-1.3449608813971281e-03" rms="4.8448348045349121e-01" purity="3.8844230771064758e-01" nType="-99"/>
        </Node>
        <Node pos="r" depth="1" NCoef="0" IVar="19" Cut="4.7619048506021500e-02" cType="1" res="1.8023084104061127e-01" rms="4.3257132172584534e-01" purity="7.4228680133819580e-01" nType="0">
          <Node pos="l" depth="2" NCoef="0" IVar="-1" Cut="0.0000000000000000e+00" cType="1" res="-3.8867222610861063e-04" rms="4.9240073561668396e-01" purity="5.1865524053573608e-01" nType="-99"/>
          <Node pos="r" depth="2" NCoef="0" IVar="-1" Cut="0.0000000000000000e+00" cType="1" res="4.1719875298440456e-03" rms="4.1808620095252991e-01" purity="7.6982951164245605e-01" nType="-99"/>
        </Node>
      </Node>
    </BinaryTree>
    <BinaryTree type="DecisionTree" boostWeight="1.0000000000000000e+00" itree="31">
      <Node pos="s" depth="0" NCoef="0" IVar="12" Cut="6.6664522886276245e-01" cType="1" res="3.6502895000012359e-06" rms="4.7594380378723145e-01" purity="5.0000000000000000e-01" nType="0">
        <Node pos="l" depth="1" NCoef="0" IVar="26" Cut="1.0571377351880074e-02" cType="1" res="-1.2200006097555161e-01" rms="4.6725443005561829e-01" purity="3.3498835563659668e-01" nType="0">
          <Node pos="l" depth="2" NCoef="0" IVar="-1" Cut="0.0000000000000000e+00" cType="1" res="-7.4631575262174010e-04" rms="4.9159255623817444e-01" purity="4.3192300200462341e-01" nType="-99"/>
          <Node pos="r" depth="2" NCoef="0" IVar="-1" Cut="0.0000000000000000e+00" cType="1" res="-3.5496528726071119e-03" rms="4.4301542639732361e-01" purity="2.7400571107864380e-01" nType="-99"/>
        </Node>
        <Node pos="r" depth="1" NCoef="0" IVar="15" Cut="7.8161902427673340e+00" cType="1" res="1.9523046910762787e-01" rms="4.2155101895332336e-01" purity="7.6404690742492676e-01" nType="0">
          <Node pos="l" depth="2" NCoef="0" IVar="-1" Cut="0.0000000000000000e+00" cType="1" res="2.8815255500376225e-03" rms="4.5169880986213684e-01" purity="7.0836067199707031e-01" nType="-99"/>
          <Node pos="r" depth="2" NCoef="0" IVar="-1" Cut="0.0000000000000000e+00" cType="1" res="5.2203345112502575e-03" rms="3.7594133615493774e-01" purity="8.2640981674194336e-01" nType="-99"/>
        </Node>
      </Node>
    </BinaryTree>
    <BinaryTree type="DecisionTree" boostWeight="1.0000000000000000e+00" itree="32">
      <Node pos="s" depth="0" NCoef="0" IVar="12" Cut="5.7141017913818359e-01" cType="1" res="3.8250232137215789e-06" rms="4.7536268830299377e-01" purity="5.0000000000000000e-01" nType="0">
        <Node pos="l" depth="1" NCoef="0" IVar="22" Cut="1.4190176501870155e-02" cType="1" res="-1.3211540877819061e-01" rms="4.6301919221878052e-01" purity="3.1893047690391541e-01" nType="0">
          <Node pos="l" depth="2" NCoef="0" IVar="-1" Cut="0.0000000000000000e+00" cType="1" res="-1.6850008396431804e-03" rms="4.7903481125831604e-01" purity="3.6965882778167725e-01" nType="-99"/>
          <Node pos="r" depth="2" NCoef="0" IVar="-1" Cut="0.0000000000000000e+00" cType="1" res="-4.3297833763062954e-03" rms="4.2227667570114136e-01" purity="2.3358504474163055e-01" nType="-99"/>
        </Node>
        <Node pos="r" depth="1" NCoef="0" IVar="12" Cut="8.3670908212661743e-01" cType="1" res="1.7679087817668915e-01" rms="4.3227073550224304e-01" purity="7.4228680133819580e-01" nType="0">
          <Node pos="l" depth="2" NCoef="0" IVar="-1" Cut="0.0000000000000000e+00" cType="1" res="1.6669408651068807e-03" rms="4.8116865754127502e-01" purity="6.2330853939056396e-01" nType="-99"/>
          <Node pos="r" depth="2" NCoef="0" IVar="-1" Cut="0.0000000000000000e+00" cType="1" res="4.6743992716073990e-03" rms="3.9396217465400696e-01" purity="8.0685532093048096e-01" nType="-99"/>
        </Node>
      </Node>
    </BinaryTree>
    <BinaryTree type="DecisionTree" boostWeight="1.0000000000000000e+00" itree="33">
      <Node pos="s" depth="0" NCoef="0" IVar="12" Cut="6.6664522886276245e-01" cType="1" res="4.0187692320614588e-06" rms="4.7478389739990234e-01" purity="5.0000000000000000e-01" nType="0">
        <Node pos="l" depth="1" NCoef="0" IVar="4" Cut="2.6091220378875732e+00" cType="1" res="-1.1961054056882858e-01" rms="4.6703258156776428e-01" purity="3.3498835563659668e-01" nType="0">
          <Node pos="l" depth="2" NCoef="0" IVar="-1" Cut="0.0000000000000000e+00" cType="1" res="-3.1624380499124527e-03" rms="4.5220467448234558e-01" purity="2.9516202211380005e-01" nType="-99"/>
          <Node pos="r" depth="2" NCoef="0" IVar="-1" Cut="0.0000000000000000e+00" cType="1" res="4.6199937060009688e-05" rms="4.9390918016433716e-01" purity="4.6697357296943665e-01" nType="-99"/>
        </Node>
        <Node pos="r" depth="1" NCoef="0" IVar="11" Cut="1.4095237731933594e+01" cType="1" res="1.9140778481960297e-01" rms="4.2139226198196411e-01" purity="7.6404690742492676e-01" nType="0">
          <Node pos="l" depth="2" NCoef="0" IVar="-1" Cut="0.0000000000000000e+00" cType="1" res="2.6830274146050215e-03" rms="4.5423963665962219e-01" purity="7.0200520753860474e-01" nType="-99"/>
          <Node pos="r" depth="2" NCoef="0" IVar="-1" Cut="0.0000000000000000e+00" cType="1" res="5.0037521868944168e-03" rms="3.8235098123550415e-01" purity="8.1880247592926025e-01" nType="-99"/>
        </Node>
      </Node>
    </BinaryTree>
    <BinaryTree type="DecisionTree" boostWeight="1.0000000000000000e+00" itree="34">
      <Node pos="s" depth="0" NCoef="0" IVar="12" Cut="5.7141017913818359e-01" cType="1" res="4.2142637539654970e-06" rms="4.7422218322753906e-01" purity="5.0000000000000000e-01" nType="0">
        <Node pos="l" depth="1" NCoef="0" IVar="11" Cut="1.3571428298950195e+01" cType="1" res="-1.2957242131233215e-01" rms="4.6284767985343933e-01" purity="3.1893047690391541e-01" nType="0">
          <Node pos="l" depth="2" NCoef="0" IVar="-1" Cut="0.0000000000000000e+00" cType="1" res="-3.8104520644992590e-03" rms="4.3497431278228760e-01" purity="2.5831016898155212e-01" nType="-99"/>
          <Node pos="r" depth="2" NCoef="0" IVar="-1" Cut="0.0000000000000000e+00" cType="1" res="-1.2594071449711919e-03" rms="4.8420569300651550e-01" purity="3.8844230771064758e-01" nType="-99"/>
        </Node>
        <Node pos="r" depth="1" NCoef="0" IVar="19" Cut="4.7619048506021500e-02" cType="1" res="1.7338904738426208e-01" rms="4.3199536204338074e-01" purity="7.4228680133819580e-01" nType="0">
          <Node pos="l" depth="2" NCoef="0" IVar="-1" Cut="0.0000000000000000e+00" cType="1" res="-4.6639944775961339e-04" rms="4.9156832695007324e-01" purity="5.1865524053573608e-01" nType="-99"/>
          <Node pos="r" depth="2" NCoef="0" IVar="-1" Cut="0.0000000000000000e+00" cType="1" res="4.0424754843115807e-03" rms="4.1773629188537598e-01" purity="7.6982951164245605e-01" nType="-99"/>
        </Node>
      </Node>
    </BinaryTree>
    <BinaryTree type="DecisionTree" boostWeight="1.0000000000000000e+00" itree="35">
      <Node pos="s" depth="0" NCoef="0" IVar="12" Cut="6.6664522886276245e-01" cType="1" res="4.3578829718171619e-06" rms="4.7366237640380859e-01" purity="5.0000000000000000e-01" nType="0">
        <Node pos="l" depth="1" NCoef="0" IVar="19" Cut="4.7619052231311798e-02" cType="1" res="-1.1731379479169846e-01" rms="4.6678411960601807e-01" purity="3.3498835563659668e-01" nType="0">
          <Node pos="l" depth="2" NCoef="0" IVar="-1" Cut="0.0000000000000000e+00" cType="1" res="-4.4602472335100174e-03" rms="4.1018036007881165e-01" purity="2.1592056751251221e-01" nType="-99"/>
          <Node pos="r" depth="2" NCoef="0" IVar="-1" Cut="0.0000000000000000e+00" cType="1" res="-1.4847853453829885e-03" rms="4.8256096243858337e-01" purity="3.8614594936370850e-01" nType="-99"/>
        </Node>
        <Node pos="r" depth="1" NCoef="0" IVar="15" Cut="7.8161902427673340e+00" cType="1" res="1.8773348629474640e-01" rms="4.2123714089393616e-01" purity="7.6404690742492676e-01" nType="0">
          <Node pos="l" depth="2" NCoef="0" IVar="-1" Cut="0.0000000000000000e+00" cType="1" res="2.7539685834199190e-03" rms="4.5147228240966797e-01" purity="7.0836067199707031e-01" nType="-99"/>
          <Node pos="r" depth="2" NCoef="0" IVar="-1" Cut="0.0000000000000000e+00" cType="1" res="5.0775408744812012e-03" rms="3.7573564052581787e-01" purity="8.2640981674194336e-01" nType="-99"/>
        </Node>
      </Node>
    </BinaryTree>
    <BinaryTree type="DecisionTree" boostWeight="1.0000000000000000e+00" itree="36">
      <Node pos="s" depth="0" NCoef="0" IVar="12" Cut="5.7141017913818359e-01" cType="1" res="4.5137217057344969e-06" rms="4.7311809659004211e-01" purity="5.0000000000000000e-01" nType="0">
        <Node pos="l" depth="1" NCoef="0" IVar="22" Cut="1.4190176501870155e-02" cType="1" res="-1.2709872424602509e-01" rms="4.6267595887184143e-01" purity="3.1893047690391541e-01" nType="0">
          <Node pos="l" depth="2" NCoef="0" IVar="-1" Cut="0.0000000000000000e+00" cType="1" res="-1.5967022627592087e-03" rms="4.7871175408363342e-01" purity="3.6965882778167725e-01" nType="-99"/>
          <Node pos="r" depth="2" NCoef="0" IVar="-1" Cut="0.0000000000000000e+00" cType="1" res="-4.2228470556437969e-03" rms="4.2213958501815796e-01" purity="2.3358504474163055e-01" nType="-99"/>
        </Node>
        <Node pos="r" depth="1" NCoef="0" IVar="19" Cut="4.7619048506021500e-02" cType="1" res="1.7007972300052643e-01" rms="4.3170988559722900e-01" purity="7.4228680133819580e-01" nType="0">
          <Node pos="l" depth="2" NCoef="0" IVar="-1" Cut="0.0000000000000000e+00" cType="1" res="-4.8312288708984852e-04" rms="4.9122005701065063e-01" purity="5.1865524053573608e-01" nType="-99"/>
          <Node pos="r" depth="2" NCoef="0" IVar="-1" Cut="0.0000000000000000e+00" cType="1" res="3.9775911718606949e-03" rms="4.1761666536331177e-01" purity="7.6982951164245605e-01" nType="-99"/>
        </Node>
      </Node>
    </BinaryTree>
    <BinaryTree type="DecisionTree" boostWeight="1.0000000000000000e+00" itree="37">
      <Node pos="s" depth="0" NCoef="0" IVar="12" Cut="6.1902767419815063e-01" cType="1" res="4.6493264562741388e-06" rms="4.7257637977600098e-01" purity="5.0000000000000000e-01" nType="0">
        <Node pos="l" depth="1" NCoef="0" IVar="4" Cut="2.6091220378875732e+00" cType="1" res="-1.2044518440961838e-01" rms="4.6462619304656982e-01" purity="3.2680562138557434e-01" nType="0">
          <Node pos="l" depth="2" NCoef="0" IVar="-1" Cut="0.0000000000000000e+00" cType="1" res="-3.1393105164170265e-03" rms="4.5011201500892639e-01" purity="2.8964242339134216e-01" nType="-99"/>
          <Node pos="r" depth="2" NCoef="0" IVar="-1" Cut="0.0000000000000000e+00" cType="1" res="-1.5946370695019141e-05" rms="4.9358305335044861e-01" purity="4.5607057213783264e-01" nType="-99"/>
        </Node>
        <Node pos="r" depth="1" NCoef="0" IVar="12" Cut="8.5485124588012695e-01" cType="1" res="1.7591142654418945e-01" rms="4.2670688033103943e-01" purity="7.5293576717376709e-01" nType="0">
          <Node pos="l" depth="2" NCoef="0" IVar="-1" Cut="0.0000000000000000e+00" cType="1" res="1.8766938010230660e-03" rms="4.7409579157829285e-01" purity="6.4773756265640259e-01" nType="-99"/>
          <Node pos="r" depth="2" NCoef="0" IVar="-1" Cut="0.0000000000000000e+00" cType="1" res="4.5982869341969490e-03" rms="3.9003482460975647e-01" purity="8.1180953979492188e-01" nType="-99"/>
        </Node>
      </Node>
    </BinaryTree>
    <BinaryTree type="DecisionTree" boostWeight="1.0000000000000000e+00" itree="38">
      <Node pos="s" depth="0" NCoef="0" IVar="12" Cut="5.7141017913818359e-01" cType="1" res="4.8598840294289403e-06" rms="4.7204685211181641e-01" purity="5.0000000000000000e-01" nType="0">
        <Node pos="l" depth="1" NCoef="0" IVar="11" Cut="1.3571428298950195e+01" cType="1" res="-1.2461129575967789e-01" rms="4.6251001954078674e-01" purity="3.1893047690391541e-01" nType="0">
          <Node pos="l" depth="2" NCoef="0" IVar="-1" Cut="0.0000000000000000e+00" cType="1" res="-3.7077462766319513e-03" rms="4.3473267555236816e-01" purity="2.5831016898155212e-01" nType="-99"/>
          <Node pos="r" depth="2" NCoef="0" IVar="-1" Cut="0.0000000000000000e+00" cType="1" res="-1.1750679695978761e-03" rms="4.8393738269805908e-01" purity="3.8844230771064758e-01" nType="-99"/>
        </Node>
        <Node pos="r" depth="1" NCoef="0" IVar="19" Cut="4.7619048506021500e-02" cType="1" res="1.6675214469432831e-01" rms="4.3147441744804382e-01" purity="7.4228680133819580e-01" nType="0">
          <Node pos="l" depth="2" NCoef="0" IVar="-1" Cut="0.0000000000000000e+00" cType="1" res="-5.0389976240694523e-04" rms="4.9094426631927490e-01" purity="5.1865524053573608e-01" nType="-99"/>
          <Node pos="r" depth="2" NCoef="0" IVar="-1" Cut="0.0000000000000000e+00" cType="1" res="3.9129843935370445e-03" rms="4.1753104329109192e-01" purity="7.6982951164245605e-01" nType="-99"/>
        </Node>
      </Node>
    </BinaryTree>
    <BinaryTree type="DecisionTree" boostWeight="1.0000000000000000e+00" itree="39">
      <Node pos="s" depth="0" NCoef="0" IVar="12" Cut="6.6664522886276245e-01" cType="1" res="4.9996147026831750e-06" rms="4.7152334451675415e-01" purity="5.0000000000000000e-01" nType="0">
        <Node pos="l" depth="1" NCoef="0" IVar="26" Cut="1.0571377351880074e-02" cType="1" res="-1.1287443339824677e-01" rms="4.6628516912460327e-01" purity="3.3498835563659668e-01" nType="0">
          <Node pos="l" depth="2" NCoef="0" IVar="-1" Cut="0.0000000000000000e+00" cType="1" res="-5.9909356059506536e-04" rms="4.9054297804832458e-01" purity="4.3192300200462341e-01" nType="-99"/>
          <Node pos="r" depth="2" NCoef="0" IVar="-1" Cut="0.0000000000000000e+00" cType="1" res="-3.3603324554860592e-03" rms="4.4241774082183838e-01" purity="2.7400571107864380e-01" nType="-99"/>
        </Node>
        <Node pos="r" depth="1" NCoef="0" IVar="11" Cut="1.4095237731933594e+01" cType="1" res="1.8063142895698547e-01" rms="4.2092761397361755e-01" purity="7.6404690742492676e-01" nType="0">
          <Node pos="l" depth="2" NCoef="0" IVar="-1" Cut="0.0000000000000000e+00" cType="1" res="2.4934569373726845e-03" rms="4.5384830236434937e-01" purity="7.0200520753860474e-01" nType="-99"/>
          <Node pos="r" depth="2" NCoef="0" IVar="-1" Cut="0.0000000000000000e+00" cType="1" res="4.8071201890707016e-03" rms="3.8198235630989075e-01" purity="8.1880247592926025e-01" nType="-99"/>
        </Node>
      </Node>
    </BinaryTree>
    <BinaryTree type="DecisionTree" boostWeight="1.0000000000000000e+00" itree="40">
      <Node pos="s" depth="0" NCoef="0" IVar="12" Cut="5.7141017913818359e-01" cType="1" res="5.1716729103645775e-06" rms="4.7101318836212158e-01" purity="5.0000000000000000e-01" nType="0">
        <Node pos="l" depth="1" NCoef="0" IVar="22" Cut="1.4190176501870155e-02" cType="1" res="-1.2223242223262787e-01" rms="4.6234241127967834e-01" purity="3.1893047690391541e-01" nType="0">
          <Node pos="l" depth="2" NCoef="0" IVar="-1" Cut="0.0000000000000000e+00" cType="1" res="-1.5110714593902230e-03" rms="4.7838991880416870e-01" purity="3.6965882778167725e-01" nType="-99"/>
          <Node pos="r" depth="2" NCoef="0" IVar="-1" Cut="0.0000000000000000e+00" cType="1" res="-4.1195359081029892e-03" rms="4.2202115058898926e-01" purity="2.3358504474163055e-01" nType="-99"/>
        </Node>
        <Node pos="r" depth="1" NCoef="0" IVar="12" Cut="8.3670908212661743e-01" cType="1" res="1.6356973350048065e-01" rms="4.3120220303535461e-01" purity="7.4228680133819580e-01" nType="0">
          <Node pos="l" depth="2" NCoef="0" IVar="-1" Cut="0.0000000000000000e+00" cType="1" res="1.4849003637209535e-03" rms="4.8009222745895386e-01" purity="6.2330853939056396e-01" nType="-99"/>
          <Node pos="r" depth="2" NCoef="0" IVar="-1" Cut="0.0000000000000000e+00" cType="1" res="4.4085388071835041e-03" rms="3.9362743496894836e-01" purity="8.0685532093048096e-01" nType="-99"/>
        </Node>
      </Node>
    </BinaryTree>
    <BinaryTree type="DecisionTree" boostWeight="1.0000000000000000e+00" itree="41">
      <Node pos="s" depth="0" NCoef="0" IVar="12" Cut="6.6664522886276245e-01" cType="1" res="5.3528269745584112e-06" rms="4.7050595283508301e-01" purity="5.0000000000000000e-01" nType="0">
        <Node pos="l" depth="1" NCoef="0" IVar="12" Cut="2.8570249676704407e-01" cType="1" res="-1.1066173017024994e-01" rms="4.6607804298400879e-01" purity="3.3498835563659668e-01" nType="0">
          <Node pos="l" depth="2" NCoef="0" IVar="-1" Cut="0.0000000000000000e+00" cType="1" res="-3.2041554804891348e-03" rms="4.4623690843582153e-01" purity="2.8034487366676331e-01" nType="-99"/>
          <Node pos="r" depth="2" NCoef="0" IVar="-1" Cut="0.0000000000000000e+00" cType="1" res="-3.9308960549533367e-04" rms="4.8968735337257385e-01" purity="4.4115740060806274e-01" nType="-99"/>
        </Node>
        <Node pos="r" depth="1" NCoef="0" IVar="15" Cut="7.8161902427673340e+00" cType="1" res="1.7709162831306458e-01" rms="4.2077875137329102e-01" purity="7.6404690742492676e-01" nType="0">
          <Node pos="l" depth="2" NCoef="0" IVar="-1" Cut="0.0000000000000000e+00" cType="1" res="2.5677511002868414e-03" rms="4.5110318064689636e-01" purity="7.0836067199707031e-01" nType="-99"/>
          <Node pos="r" depth="2" NCoef="0" IVar="-1" Cut="0.0000000000000000e+00" cType="1" res="4.8826821148395538e-03" rms="3.7538021802902222e-01" purity="8.2640981674194336e-01" nType="-99"/>
        </Node>
      </Node>
    </BinaryTree>
    <BinaryTree type="DecisionTree" boostWeight="1.0000000000000000e+00" itree="42">
      <Node pos="s" depth="0" NCoef="0" IVar="12" Cut="5.7141017913818359e-01" cType="1" res="5.5352666095132008e-06" rms="4.7001272439956665e-01" purity="5.0000000000000000e-01" nType="0">
        <Node pos="l" depth="1" NCoef="0" IVar="11" Cut="1.6285715103149414e+01" cType="1" res="-1.1983580887317657e-01" rms="4.6218568086624146e-01" purity="3.1893047690391541e-01" nType="0">
          <Node pos="l" depth="2" NCoef="0" IVar="-1" Cut="0.0000000000000000e+00" cType="1" res="-3.2169921323657036e-03" rms="4.4499191641807556e-01" purity="2.7903044223785400e-01" nType="-99"/>
          <Node pos="r" depth="2" NCoef="0" IVar="-1" Cut="0.0000000000000000e+00" cType="1" res="-4.1858668555505574e-04" rms="4.9023094773292542e-01" purity="4.2216110229492188e-01" nType="-99"/>
        </Node>
        <Node pos="r" depth="1" NCoef="0" IVar="19" Cut="4.7619048506021500e-02" cType="1" res="1.6036370396614075e-01" rms="4.3097895383834839e-01" purity="7.4228680133819580e-01" nType="0">
          <Node pos="l" depth="2" NCoef="0" IVar="-1" Cut="0.0000000000000000e+00" cType="1" res="-5.7880673557519913e-04" rms="4.9025872349739075e-01" purity="5.1865524053573608e-01" nType="-99"/>
          <Node pos="r" depth="2" NCoef="0" IVar="-1" Cut="0.0000000000000000e+00" cType="1" res="3.7932491395622492e-03" rms="4.1722825169563293e-01" purity="7.6982951164245605e-01" nType="-99"/>
        </Node>
      </Node>
    </BinaryTree>
    <BinaryTree type="DecisionTree" boostWeight="1.0000000000000000e+00" itree="43">
      <Node pos="s" depth="0" NCoef="0" IVar="12" Cut="6.6664522886276245e-01" cType="1" res="5.6717949519224931e-06" rms="4.6952226758003235e-01" purity="5.0000000000000000e-01" nType="0">
        <Node pos="l" depth="1" NCoef="0" IVar="19" Cut="4.7619052231311798e-02" cType="1" res="-1.0853739827871323e-01" rms="4.6584692597389221e-01" purity="3.3498835563659668e-01" nType="0">
          <Node pos="l" depth="2" NCoef="0" IVar="-1" Cut="0.0000000000000000e+00" cType="1" res="-4.2691500857472420e-03" rms="4.0989759564399719e-01" purity="2.1592056751251221e-01" nType="-99"/>
          <Node pos="r" depth="2" NCoef="0" IVar="-1" Cut="0.0000000000000000e+00" cType="1" res="-1.3295542448759079e-03" rms="4.8161968588829041e-01" purity="3.8614594936370850e-01" nType="-99"/>
        </Node>
        <Node pos="r" depth="1" NCoef="0" IVar="11" Cut="1.4095237731933594e+01" cType="1" res="1.7369316518306732e-01" rms="4.2063319683074951e-01" purity="7.6404690742492676e-01" nType="0">
          <Node pos="l" depth="2" NCoef="0" IVar="-1" Cut="0.0000000000000000e+00" cType="1" res="2.3764439392834902e-03" rms="4.5362856984138489e-01" purity="7.0200520753860474e-01" nType="-99"/>
          <Node pos="r" depth="2" NCoef="0" IVar="-1" Cut="0.0000000000000000e+00" cType="1" res="4.6773715876042843e-03" rms="3.8179126381874084e-01" purity="8.1880247592926025e-01" nType="-99"/>
        </Node>
      </Node>
    </BinaryTree>
    <BinaryTree type="DecisionTree" boostWeight="1.0000000000000000e+00" itree="44">
      <Node pos="s" depth="0" NCoef="0" IVar="12" Cut="5.7141017913818359e-01" cType="1" res="5.8173127399641089e-06" rms="4.6904414892196655e-01" purity="5.0000000000000000e-01" nType="0">
        <Node pos="l" depth="1" NCoef="0" IVar="22" Cut="1.4190176501870155e-02" cType="1" res="-1.1754767596721649e-01" rms="4.6202060580253601e-01" purity="3.1893047690391541e-01" nType="0">
          <Node pos="l" depth="2" NCoef="0" IVar="-1" Cut="0.0000000000000000e+00" cType="1" res="-1.4284081989899278e-03" rms="4.7809302806854248e-01" purity="3.6965882778167725e-01" nType="-99"/>
          <Node pos="r" depth="2" NCoef="0" IVar="-1" Cut="0.0000000000000000e+00" cType="1" res="-4.0207090787589550e-03" rms="4.2187502980232239e-01" purity="2.3358504474163055e-01" nType="-99"/>
        </Node>
        <Node pos="r" depth="1" NCoef="0" IVar="19" Cut="4.7619048506021500e-02" cType="1" res="1.5730263292789459e-01" rms="4.3071985244750977e-01" purity="7.4228680133819580e-01" nType="0">
          <Node pos="l" depth="2" NCoef="0" IVar="-1" Cut="0.0000000000000000e+00" cType="1" res="-5.9250177582725883e-04" rms="4.8994758725166321e-01" purity="5.1865524053573608e-01" nType="-99"/>
          <Node pos="r" depth="2" NCoef="0" IVar="-1" Cut="0.0000000000000000e+00" cType="1" res="3.7333997897803783e-03" rms="4.1712236404418945e-01" purity="7.6982951164245605e-01" nType="-99"/>
        </Node>
      </Node>
    </BinaryTree>
    <BinaryTree type="DecisionTree" boostWeight="1.0000000000000000e+00" itree="45">
      <Node pos="s" depth="0" NCoef="0" IVar="12" Cut="6.6664522886276245e-01" cType="1" res="5.9401068028819282e-06" rms="4.6856951713562012e-01" purity="5.0000000000000000e-01" nType="0">
        <Node pos="l" depth="1" NCoef="0" IVar="26" Cut="1.0571377351880074e-02" cType="1" res="-1.0645393282175064e-01" rms="4.6561831235885620e-01" purity="3.3498835563659668e-01" nType="0">
          <Node pos="l" depth="2" NCoef="0" IVar="-1" Cut="0.0000000000000000e+00" cType="1" res="-4.9943954218178988e-04" rms="4.8981651663780212e-01" purity="4.3192300200462341e-01" nType="-99"/>
          <Node pos="r" depth="2" NCoef="0" IVar="-1" Cut="0.0000000000000000e+00" cType="1" res="-3.2252690289169550e-03" rms="4.4205155968666077e-01" purity="2.7400571107864380e-01" nType="-99"/>
        </Node>
        <Node pos="r" depth="1" NCoef="0" IVar="15" Cut="7.8161902427673340e+00" cType="1" res="1.7035995423793793e-01" rms="4.2049098014831543e-01" purity="7.6404690742492676e-01" nType="0">
          <Node pos="l" depth="2" NCoef="0" IVar="-1" Cut="0.0000000000000000e+00" cType="1" res="2.4522682651877403e-03" rms="4.5089158415794373e-01" purity="7.0836067199707031e-01" nType="-99"/>
          <Node pos="r" depth="2" NCoef="0" IVar="-1" Cut="0.0000000000000000e+00" cType="1" res="4.7575291246175766e-03" rms="3.7517693638801575e-01" purity="8.2640981674194336e-01" nType="-99"/>
        </Node>
      </Node>
    </BinaryTree>
    <BinaryTree type="DecisionTree" boostWeight="1.0000000000000000e+00" itree="46">
      <Node pos="s" depth="0" NCoef="0" IVar="12" Cut="5.7141017913818359e-01" cType="1" res="6.1086257119313814e-06" rms="4.6810701489448547e-01" purity="5.0000000000000000e-01" nType="0">
        <Node pos="l" depth="1" NCoef="0" IVar="4" Cut="2.6091220378875732e+00" cType="1" res="-1.1530400067567825e-01" rms="4.6185818314552307e-01" purity="3.1893047690391541e-01" nType="0">
          <Node pos="l" depth="2" NCoef="0" IVar="-1" Cut="0.0000000000000000e+00" cType="1" res="-3.0045083258301020e-03" rms="4.4777244329452515e-01" purity="2.8444764018058777e-01" nType="-99"/>
          <Node pos="r" depth="2" NCoef="0" IVar="-1" Cut="0.0000000000000000e+00" cType="1" res="3.3741904189810157e-05" rms="4.9270755052566528e-01" purity="4.4506898522377014e-01" nType="-99"/>
        </Node>
        <Node pos="r" depth="1" NCoef="0" IVar="19" Cut="4.7619048506021500e-02" cType="1" res="1.5430107712745667e-01" rms="4.3046647310256958e-01" purity="7.4228680133819580e-01" nType="0">
          <Node pos="l" depth="2" NCoef="0" IVar="-1" Cut="0.0000000000000000e+00" cType="1" res="-6.0843356186524034e-04" rms="4.8967641592025757e-01" purity="5.1865524053573608e-01" nType="-99"/>
          <Node pos="r" depth="2" NCoef="0" IVar="-1" Cut="0.0000000000000000e+00" cType="1" res="3.6750794388353825e-03" rms="4.1700527071952820e-01" purity="7.6982951164245605e-01" nType="-99"/>
        </Node>
      </Node>
    </BinaryTree>
    <BinaryTree type="DecisionTree" boostWeight="1.0000000000000000e+00" itree="47">
      <Node pos="s" depth="0" NCoef="0" IVar="12" Cut="7.1426272392272949e-01" cType="1" res="6.2353287830774207e-06" rms="4.6764770150184631e-01" purity="5.0000000000000000e-01" nType="0">
        <Node pos="l" depth="1" NCoef="0" IVar="12" Cut="2.7209123969078064e-01" cType="1" res="-9.9601633846759796e-02" rms="4.6682497859001160e-01" purity="3.4428364038467407e-01" nType="0">
          <Node pos="l" depth="2" NCoef="0" IVar="-1" Cut="0.0000000000000000e+00" cType="1" res="-3.1128511764109135e-03" rms="4.4484528899192810e-01" purity="2.7811202406883240e-01" nType="-99"/>
          <Node pos="r" depth="2" NCoef="0" IVar="-1" Cut="0.0000000000000000e+00" cType="1" res="-2.7927049086429179e-04" rms="4.8840105533599854e-01" purity="4.5166787505149841e-01" nType="-99"/>
        </Node>
        <Node pos="r" depth="1" NCoef="0" IVar="15" Cut="7.4273252487182617e+00" cType="1" res="1.7540499567985535e-01" rms="4.1450253129005432e-01" purity="7.7419978380203247e-01" nType="0">
          <Node pos="l" depth="2" NCoef="0" IVar="-1" Cut="0.0000000000000000e+00" cType="1" res="2.5213391054421663e-03" rms="4.4790682196617126e-01" purity="7.1589255332946777e-01" nType="-99"/>
          <Node pos="r" depth="2" NCoef="0" IVar="-1" Cut="0.0000000000000000e+00" cType="1" res="4.8013594932854176e-03" rms="3.7018847465515137e-01" purity="8.3271539211273193e-01" nType="-99"/>
        </Node>
      </Node>
    </BinaryTree>
    <BinaryTree type="DecisionTree" boostWeight="1.0000000000000000e+00" itree="48">
      <Node pos="s" depth="0" NCoef="0" IVar="12" Cut="7.1426272392272949e-01" cType="1" res="6.4284040490747429e-06" rms="4.6719396114349365e-01" purity="5.0000000000000000e-01" nType="0">
        <Node pos="l" depth="1" NCoef="0" IVar="26" Cut="1.0571377351880074e-02" cType="1" res="-9.8606027662754059e-02" rms="4.6672981977462769e-01" purity="3.4428364038467407e-01" nType="0">
          <Node pos="l" depth="2" NCoef="0" IVar="-1" Cut="0.0000000000000000e+00" cType="1" res="-3.0868759495206177e-04" rms="4.8905226588249207e-01" purity="4.4478148221969604e-01" nType="-99"/>
          <Node pos="r" depth="2" NCoef="0" IVar="-1" Cut="0.0000000000000000e+00" cType="1" res="-3.1137058977037668e-03" rms="4.4364801049232483e-01" purity="2.7978375554084778e-01" nType="-99"/>
        </Node>
        <Node pos="r" depth="1" NCoef="0" IVar="15" Cut="7.4273252487182617e+00" cType="1" res="1.7365238070487976e-01" rms="4.1443565487861633e-01" purity="7.7419978380203247e-01" nType="0">
          <Node pos="l" depth="2" NCoef="0" IVar="-1" Cut="0.0000000000000000e+00" cType="1" res="2.4985270574688911e-03" rms="4.4790911674499512e-01" purity="7.1589255332946777e-01" nType="-99"/>
          <Node pos="r" depth="2" NCoef="0" IVar="-1" Cut="0.0000000000000000e+00" cType="1" res="4.7629028558731079e-03" rms="3.7019303441047668e-01" purity="8.3271539211273193e-01" nType="-99"/>
        </Node>
      </Node>
    </BinaryTree>
    <BinaryTree type="DecisionTree" boostWeight="1.0000000000000000e+00" itree="49">
      <Node pos="s" depth="0" NCoef="0" IVar="12" Cut="5.7141017913818359e-01" cType="1" res="6.6334660004940815e-06" rms="4.6674859523773193e-01" purity="5.0000000000000000e-01" nType="0">
        <Node pos="l" depth="1" NCoef="0" IVar="11" Cut="1.6285715103149414e+01" cType="1" res="-1.1206110566854477e-01" rms="4.6161788702011108e-01" purity="3.1893047690391541e-01" nType="0">
          <Node pos="l" depth="2" NCoef="0" IVar="-1" Cut="0.0000000000000000e+00" cType="1" res="-3.0634193681180477e-03" rms="4.4454139471054077e-01" purity="2.7903044223785400e-01" nType="-99"/>
          <Node pos="r" depth="2" NCoef="0" IVar="-1" Cut="0.0000000000000000e+00" cType="1" res="-2.8759715496562421e-04" rms="4.8972254991531372e-01" purity="4.2216110229492188e-01" nType="-99"/>
        </Node>
        <Node pos="r" depth="1" NCoef="0" IVar="19" Cut="4.7619048506021500e-02" cType="1" res="1.4996303617954254e-01" rms="4.3004143238067627e-01" purity="7.4228680133819580e-01" nType="0">
          <Node pos="l" depth="2" NCoef="0" IVar="-1" Cut="0.0000000000000000e+00" cType="1" res="-6.4426171593368053e-04" rms="4.8907831311225891e-01" purity="5.1865524053573608e-01" nType="-99"/>
          <Node pos="r" depth="2" NCoef="0" IVar="-1" Cut="0.0000000000000000e+00" cType="1" res="3.5925155971199274e-03" rms="4.1675776243209839e-01" purity="7.6982951164245605e-01" nType="-99"/>
        </Node>
      </Node>
    </BinaryTree>
    <BinaryTree type="DecisionTree" boostWeight="1.0000000000000000e+00" itree="50">
      <Node pos="s" depth="0" NCoef="0" IVar="12" Cut="7.1426272392272949e-01" cType="1" res="6.7547889557317831e-06" rms="4.6631076931953430e-01" purity="5.0000000000000000e-01" nType="0">
        <Node pos="l" depth="1" NCoef="0" IVar="12" Cut="2.7209123969078064e-01" cType="1" res="-9.6749663352966309e-02" rms="4.6647989749908447e-01" purity="3.4428364038467407e-01" nType="0">
          <Node pos="l" depth="2" NCoef="0" IVar="-1" Cut="0.0000000000000000e+00" cType="1" res="-3.0449256300926208e-03" rms="4.4471228122711182e-01" purity="2.7811202406883240e-01" nType="-99"/>
          <Node pos="r" depth="2" NCoef="0" IVar="-1" Cut="0.0000000000000000e+00" cType="1" res="-2.4813125492073596e-04" rms="4.8810073733329773e-01" purity="4.5166787505149841e-01" nType="-99"/>
        </Node>
        <Node pos="r" depth="1" NCoef="0" IVar="11" Cut="1.4095237731933594e+01" cType="1" res="1.7038442194461823e-01" rms="4.1431176662445068e-01" purity="7.7419978380203247e-01" nType="0">
          <Node pos="l" depth="2" NCoef="0" IVar="-1" Cut="0.0000000000000000e+00" cType="1" res="2.3672538809478283e-03" rms="4.4886142015457153e-01" purity="7.1304321289062500e-01" nType="-99"/>
          <Node pos="r" depth="2" NCoef="0" IVar="-1" Cut="0.0000000000000000e+00" cType="1" res="4.6265926212072372e-03" rms="3.7432506680488586e-01" purity="8.2792550325393677e-01" nType="-99"/>
        </Node>
      </Node>
    </BinaryTree>
    <BinaryTree type="DecisionTree" boostWeight="1.0000000000000000e+00" itree="51">
      <Node pos="s" depth="0" NCoef="0" IVar="12" Cut="7.1426272392272949e-01" cType="1" res="6.9418128987308592e-06" rms="4.6587947010993958e-01" purity="5.0000000000000000e-01" nType="0">
        <Node pos="l" depth="1" NCoef="0" IVar="19" Cut="4.7619052231311798e-02" cType="1" res="-9.5782577991485596e-02" rms="4.6638768911361694e-01" purity="3.4428364038467407e-01" nType="0">
          <Node pos="l" depth="2" NCoef="0" IVar="-1" Cut="0.0000000000000000e+00" cType="1" res="-4.0801502764225006e-03" rms="4.1129389405250549e-01" purity="2.1891158819198608e-01" nType="-99"/>
          <Node pos="r" depth="2" NCoef="0" IVar="-1" Cut="0.0000000000000000e+00" cType="1" res="-1.0722659062594175e-03" rms="4.8133650422096252e-01" purity="3.9718180894851685e-01" nType="-99"/>
        </Node>
        <Node pos="r" depth="1" NCoef="0" IVar="15" Cut="7.4273252487182617e+00" cType="1" res="1.6868200898170471e-01" rms="4.1424724459648132e-01" purity="7.7419978380203247e-01" nType="0">
          <Node pos="l" depth="2" NCoef="0" IVar="-1" Cut="0.0000000000000000e+00" cType="1" res="2.4168856907635927e-03" rms="4.4779232144355774e-01" purity="7.1589255332946777e-01" nType="-99"/>
          <Node pos="r" depth="2" NCoef="0" IVar="-1" Cut="0.0000000000000000e+00" cType="1" res="4.6695647761225700e-03" rms="3.7009280920028687e-01" purity="8.3271539211273193e-01" nType="-99"/>
        </Node>
      </Node>
    </BinaryTree>
    <BinaryTree type="DecisionTree" boostWeight="1.0000000000000000e+00" itree="52">
      <Node pos="s" depth="0" NCoef="0" IVar="12" Cut="5.7141017913818359e-01" cType="1" res="7.1081512942328118e-06" rms="4.6545490622520447e-01" purity="5.0000000000000000e-01" nType="0">
        <Node pos="l" depth="1" NCoef="0" IVar="22" Cut="1.4190176501870155e-02" cType="1" res="-1.0890943557024002e-01" rms="4.6138060092926025e-01" purity="3.1893047690391541e-01" nType="0">
          <Node pos="l" depth="2" NCoef="0" IVar="-1" Cut="0.0000000000000000e+00" cType="1" res="-1.2680749641731381e-03" rms="4.7735768556594849e-01" purity="3.6965882778167725e-01" nType="-99"/>
          <Node pos="r" depth="2" NCoef="0" IVar="-1" Cut="0.0000000000000000e+00" cType="1" res="-3.8515042979270220e-03" rms="4.2162820696830750e-01" purity="2.3358504474163055e-01" nType="-99"/>
        </Node>
        <Node pos="r" depth="1" NCoef="0" IVar="19" Cut="4.7619048506021500e-02" cType="1" res="1.4574694633483887e-01" rms="4.2963656783103943e-01" purity="7.4228680133819580e-01" nType="0">
          <Node pos="l" depth="2" NCoef="0" IVar="-1" Cut="0.0000000000000000e+00" cType="1" res="-6.7517667775973678e-04" rms="4.8846438527107239e-01" purity="5.1865524053573608e-01" nType="-99"/>
          <Node pos="r" depth="2" NCoef="0" IVar="-1" Cut="0.0000000000000000e+00" cType="1" res="3.5118304658681154e-03" rms="4.1654130816459656e-01" purity="7.6982951164245605e-01" nType="-99"/>
        </Node>
      </Node>
    </BinaryTree>
    <BinaryTree type="DecisionTree" boostWeight="1.0000000000000000e+00" itree="53">
      <Node pos="s" depth="0" NCoef="0" IVar="12" Cut="5.7141017913818359e-01" cType="1" res="7.2133329922507983e-06" rms="4.6503698825836182e-01" purity="5.0000000000000000e-01" nType="0">
        <Node pos="l" depth="1" NCoef="0" IVar="11" Cut="1.3571428298950195e+01" cType="1" res="-1.0782083868980408e-01" rms="4.6130290627479553e-01" purity="3.1893047690391541e-01" nType="0">
          <Node pos="l" depth="2" NCoef="0" IVar="-1" Cut="0.0000000000000000e+00" cType="1" res="-3.3697625622153282e-03" rms="4.3391561508178711e-01" purity="2.5831016898155212e-01" nType="-99"/>
          <Node pos="r" depth="2" NCoef="0" IVar="-1" Cut="0.0000000000000000e+00" cType="1" res="-8.7971304310485721e-04" rms="4.8277619481086731e-01" purity="3.8844230771064758e-01" nType="-99"/>
        </Node>
        <Node pos="r" depth="1" NCoef="0" IVar="12" Cut="8.5711640119552612e-01" cType="1" res="1.4429055154323578e-01" rms="4.2954909801483154e-01" purity="7.4228680133819580e-01" nType="0">
          <Node pos="l" depth="2" NCoef="0" IVar="-1" Cut="0.0000000000000000e+00" cType="1" res="1.3731357175856829e-03" rms="4.7459864616394043e-01" purity="6.3556981086730957e-01" nType="-99"/>
          <Node pos="r" depth="2" NCoef="0" IVar="-1" Cut="0.0000000000000000e+00" cType="1" res="4.1271452791988850e-03" rms="3.8903272151947021e-01" purity="8.1223374605178833e-01" nType="-99"/>
        </Node>
      </Node>
    </BinaryTree>
    <BinaryTree type="DecisionTree" boostWeight="1.0000000000000000e+00" itree="54">
      <Node pos="s" depth="0" NCoef="0" IVar="12" Cut="7.1426272392272949e-01" cType="1" res="7.3770588642219082e-06" rms="4.6462586522102356e-01" purity="5.0000000000000000e-01" nType="0">
        <Node pos="l" depth="1" NCoef="0" IVar="26" Cut="1.0571377351880074e-02" cType="1" res="-9.3081988394260406e-02" rms="4.6602842211723328e-01" purity="3.4428364038467407e-01" nType="0">
          <Node pos="l" depth="2" NCoef="0" IVar="-1" Cut="0.0000000000000000e+00" cType="1" res="-2.2952920699026436e-04" rms="4.8835438489913940e-01" purity="4.4478148221969604e-01" nType="-99"/>
          <Node pos="r" depth="2" NCoef="0" IVar="-1" Cut="0.0000000000000000e+00" cType="1" res="-2.9931545723229647e-03" rms="4.4324174523353577e-01" purity="2.7978375554084778e-01" nType="-99"/>
        </Node>
        <Node pos="r" depth="1" NCoef="0" IVar="11" Cut="1.4095237731933594e+01" cType="1" res="1.6392776370048523e-01" rms="4.1406467556953430e-01" purity="7.7419978380203247e-01" nType="0">
          <Node pos="l" depth="2" NCoef="0" IVar="-1" Cut="0.0000000000000000e+00" cType="1" res="2.2585478145629168e-03" rms="4.4868189096450806e-01" purity="7.1304321289062500e-01" nType="-99"/>
          <Node pos="r" depth="2" NCoef="0" IVar="-1" Cut="0.0000000000000000e+00" cType="1" res="4.5084641315042973e-03" rms="3.7417396903038025e-01" purity="8.2792550325393677e-01" nType="-99"/>
        </Node>
      </Node>
    </BinaryTree>
    <BinaryTree type="DecisionTree" boostWeight="1.0000000000000000e+00" itree="55">
      <Node pos="s" depth="0" NCoef="0" IVar="12" Cut="5.7141017913818359e-01" cType="1" res="7.5622729127644561e-06" rms="4.6422132849693298e-01" purity="5.0000000000000000e-01" nType="0">
        <Node pos="l" depth="1" NCoef="0" IVar="22" Cut="1.4190176501870155e-02" cType="1" res="-1.0580227524042130e-01" rms="4.6114525198936462e-01" purity="3.1893047690391541e-01" nType="0">
          <Node pos="l" depth="2" NCoef="0" IVar="-1" Cut="0.0000000000000000e+00" cType="1" res="-1.2158252066001296e-03" rms="4.7714230418205261e-01" purity="3.6965882778167725e-01" nType="-99"/>
          <Node pos="r" depth="2" NCoef="0" IVar="-1" Cut="0.0000000000000000e+00" cType="1" res="-3.7821466103196144e-03" rms="4.2157229781150818e-01" purity="2.3358504474163055e-01" nType="-99"/>
        </Node>
        <Node pos="r" depth="1" NCoef="0" IVar="19" Cut="4.7619048506021500e-02" cType="1" res="1.4159035682678223e-01" rms="4.2928287386894226e-01" purity="7.4228680133819580e-01" nType="0">
          <Node pos="l" depth="2" NCoef="0" IVar="-1" Cut="0.0000000000000000e+00" cType="1" res="-7.0924538886174560e-04" rms="4.8795622587203979e-01" purity="5.1865524053573608e-01" nType="-99"/>
          <Node pos="r" depth="2" NCoef="0" IVar="-1" Cut="0.0000000000000000e+00" cType="1" res="3.4326149616390467e-03" rms="4.1635414958000183e-01" purity="7.6982951164245605e-01" nType="-99"/>
        </Node>
      </Node>
    </BinaryTree>
    <BinaryTree type="DecisionTree" boostWeight="1.0000000000000000e+00" itree="56">
      <Node pos="s" depth="0" NCoef="0" IVar="12" Cut="7.1426272392272949e-01" cType="1" res="7.6584510679822415e-06" rms="4.6382343769073486e-01" purity="5.0000000000000000e-01" nType="0">
        <Node pos="l" depth="1" NCoef="0" IVar="19" Cut="4.7619052231311798e-02" cType="1" res="-9.1329835355281830e-02" rms="4.6579143404960632e-01" purity="3.4428364038467407e-01" nType="0">
          <Node pos="l" depth="2" NCoef="0" IVar="-1" Cut="0.0000000000000000e+00" cType="1" res="-3.9682565256953239e-03" rms="4.1122123599052429e-01" purity="2.1891158819198608e-01" nType="-99"/>
          <Node pos="r" depth="2" NCoef="0" IVar="-1" Cut="0.0000000000000000e+00" cType="1" res="-1.0003077331930399e-03" rms="4.8077872395515442e-01" purity="3.9718180894851685e-01" nType="-99"/>
        </Node>
        <Node pos="r" depth="1" NCoef="0" IVar="15" Cut="7.4273252487182617e+00" cType="1" res="1.6084319353103638e-01" rms="4.1394719481468201e-01" purity="7.7419978380203247e-01" nType="0">
          <Node pos="l" depth="2" NCoef="0" IVar="-1" Cut="0.0000000000000000e+00" cType="1" res="2.2812220267951488e-03" rms="4.4756257534027100e-01" purity="7.1589255332946777e-01" nType="-99"/>
          <Node pos="r" depth="2" NCoef="0" IVar="-1" Cut="0.0000000000000000e+00" cType="1" res="4.5290775597095490e-03" rms="3.6988034844398499e-01" purity="8.3271539211273193e-01" nType="-99"/>
        </Node>
      </Node>
    </BinaryTree>
    <BinaryTree type="DecisionTree" boostWeight="1.0000000000000000e+00" itree="57">
      <Node pos="s" depth="0" NCoef="0" IVar="12" Cut="5.7141017913818359e-01" cType="1" res="7.8149532782845199e-06" rms="4.6343138813972473e-01" purity="5.0000000000000000e-01" nType="0">
        <Node pos="l" depth="1" NCoef="0" IVar="4" Cut="2.6091220378875732e+00" cType="1" res="-1.0382190346717834e-01" rms="4.6098750829696655e-01" purity="3.1893047690391541e-01" nType="0">
          <Node pos="l" depth="2" NCoef="0" IVar="-1" Cut="0.0000000000000000e+00" cType="1" res="-2.7792663313448429e-03" rms="4.4708672165870667e-01" purity="2.8444764018058777e-01" nType="-99"/>
          <Node pos="r" depth="2" NCoef="0" IVar="-1" Cut="0.0000000000000000e+00" cType="1" res="2.2241003171075135e-04" rms="4.9185532331466675e-01" purity="4.4506898522377014e-01" nType="-99"/>
        </Node>
        <Node pos="r" depth="1" NCoef="0" IVar="19" Cut="4.7619048506021500e-02" cType="1" res="1.3894101977348328e-01" rms="4.2902654409408569e-01" purity="7.4228680133819580e-01" nType="0">
          <Node pos="l" depth="2" NCoef="0" IVar="-1" Cut="0.0000000000000000e+00" cType="1" res="-7.1413518162444234e-04" rms="4.8758807778358459e-01" purity="5.1865524053573608e-01" nType="-99"/>
          <Node pos="r" depth="2" NCoef="0" IVar="-1" Cut="0.0000000000000000e+00" cType="1" res="3.3801991958171129e-03" rms="4.1625198721885681e-01" purity="7.6982951164245605e-01" nType="-99"/>
        </Node>
      </Node>
    </BinaryTree>
    <BinaryTree type="DecisionTree" boostWeight="1.0000000000000000e+00" itree="58">
      <Node pos="s" depth="0" NCoef="0" IVar="12" Cut="7.1426272392272949e-01" cType="1" res="7.9173478297889233e-06" rms="4.6304622292518616e-01" purity="5.0000000000000000e-01" nType="0">
        <Node pos="l" depth="1" NCoef="0" IVar="12" Cut="2.7209123969078064e-01" cType="1" res="-8.9610822498798370e-02" rms="4.6555873751640320e-01" purity="3.4428364038467407e-01" nType="0">
          <Node pos="l" depth="2" NCoef="0" IVar="-1" Cut="0.0000000000000000e+00" cType="1" res="-2.8845563065260649e-03" rms="4.4425678253173828e-01" purity="2.7811202406883240e-01" nType="-99"/>
          <Node pos="r" depth="2" NCoef="0" IVar="-1" Cut="0.0000000000000000e+00" cType="1" res="-1.5355710638687015e-04" rms="4.8714372515678406e-01" purity="4.5166787505149841e-01" nType="-99"/>
        </Node>
        <Node pos="r" depth="1" NCoef="0" IVar="11" Cut="1.1476190567016602e+01" cType="1" res="1.5781690180301666e-01" rms="4.1383221745491028e-01" purity="7.7419978380203247e-01" nType="0">
          <Node pos="l" depth="2" NCoef="0" IVar="-1" Cut="0.0000000000000000e+00" cType="1" res="1.3987056445330381e-03" rms="4.6422412991523743e-01" purity="6.7575830221176147e-01" nType="-99"/>
          <Node pos="r" depth="2" NCoef="0" IVar="-1" Cut="0.0000000000000000e+00" cType="1" res="3.9825933054089546e-03" rms="3.9142954349517822e-01" purity="8.0630791187286377e-01" nType="-99"/>
        </Node>
      </Node>
    </BinaryTree>
    <BinaryTree type="DecisionTree" boostWeight="1.0000000000000000e+00" itree="59">
      <Node pos="s" depth="0" NCoef="0" IVar="12" Cut="5.7141017913818359e-01" cType="1" res="8.0791414802661166e-06" rms="4.6266704797744751e-01" purity="5.0000000000000000e-01" nType="0">
        <Node pos="l" depth="1" NCoef="0" IVar="11" Cut="1.6285715103149414e+01" cType="1" res="-1.0179464519023895e-01" rms="4.6084055304527283e-01" purity="3.1893047690391541e-01" nType="0">
          <Node pos="l" depth="2" NCoef="0" IVar="-1" Cut="0.0000000000000000e+00" cType="1" res="-2.8598348144441843e-03" rms="4.4392085075378418e-01" purity="2.7903044223785400e-01" nType="-99"/>
          <Node pos="r" depth="2" NCoef="0" IVar="-1" Cut="0.0000000000000000e+00" cType="1" res="-1.1626302148215473e-04" rms="4.8905232548713684e-01" purity="4.2216110229492188e-01" nType="-99"/>
        </Node>
        <Node pos="r" depth="1" NCoef="0" IVar="26" Cut="1.7834587022662163e-02" cType="1" res="1.3622899353504181e-01" rms="4.2882874608039856e-01" purity="7.4228680133819580e-01" nType="0">
